center,e0,e1,e2,e3,e4,e5,e6,e7,e8,e9,e10,e11,e12,e13,e14,e15,e16,e17,e18,e19,e20,e21,e22,e23,e24,e25,e26,e27,e28,e29,e30,e31
IND000000AAL,0.23878218,0.5122883,0.6037998,-0.46876028,0.54003143,0.21497762,-0.35510892,0.5202522,-0.2855504,0.113289125,0.34526986,0.6954986,0.6303952,0.18471979,0.7136408,0.3290894,0.45385292,0.08810657,1.0020412,0.92925346,-0.5809778,-0.20396583,-0.94123656,-0.2949943,0.025526177,-0.24361685,0.27529064,-0.029664163,-0.6239323,-1.0604707,-0.23284021,0.816635
IND000000AAQ,0.12894993,0.17648253,-0.26322562,0.069574505,0.44330618,0.16538781,0.083910376,0.12882373,-0.04218189,-0.10524255,-0.19267972,0.6275372,0.29483873,-0.1191633,-0.14701553,-0.4605711,0.2065431,0.2687718,0.19459578,0.076860346,-0.039149594,-0.72668207,-0.40292686,-0.18415804,0.3228867,-0.29694465,0.33576104,0.22472832,0.06647327,0.45207378,-0.09731173,0.62215614
IND000000AAS,0.45689005,0.4464139,0.7572105,1.0011125,1.6864947,-0.80345505,-0.8442865,0.53857213,-1.5783877,0.77444017,-0.2537302,0.98340917,0.06509288,0.767462,-0.24260493,-0.28407988,-0.8774582,-0.014039433,-0.42966077,0.7158184,0.4008427,-0.7391978,-0.4435404,1.1545155,-0.20326367,-0.83702695,0.8688652,0.9390188,0.85279465,-0.61950916,0.013318131,1.1870877
IND000000AAZ,1.2681558,1.5735807,0.35048652,0.22300446,0.8839974,1.5547742,-0.23962757,0.61149955,0.04529277,0.23162486,1.2512704,0.7282277,0.09369114,1.9278524,0.14487667,-0.41110846,0.1455564,-0.04330921,0.21518388,0.5780536,0.48739934,-0.87967175,-0.8539602,-0.2974675,0.013201318,-0.07305858,0.90352595,-0.21274544,-0.4129822,-0.03578224,0.45650297,1.2804984
IND000000ABA,0.21422222,0.052884758,0.32276273,-1.4585332,1.2994267,-0.06361248,-0.43455845,-0.15919721,-0.38827008,0.35900396,1.1009557,-0.062408708,-0.3583447,0.9887869,-0.7478721,-0.80496883,0.55170155,-0.43835482,0.75552034,0.5025374,0.2930982,-0.5339386,0.0041303197,-0.5745998,-0.72644126,0.08913518,0.34547284,0.5435138,0.057477236,-0.8492764,-1.0622605,1.2530065
IND000000ABD,-0.27292955,0.14884998,0.27392465,-1.2765545,0.5981186,0.20554666,-0.3535003,0.11349434,0.2728999,0.1332596,1.151329,0.05953589,-0.23985842,1.0690882,-0.51823384,-0.42301986,-0.05120592,-0.11219572,0.3903632,0.1570281,0.023307193,-0.69712484,-0.71428615,-0.777201,-0.40835735,-0.6169781,-0.2591321,0.8571755,-0.14783703,0.09903055,-0.29876116,1.1523255
IND000000ABG,0.033973567,0.06965526,-0.034661006,-0.05463894,0.31917647,-0.062871024,-0.007548366,0.047770113,-0.035738707,0.15177234,-0.017076777,0.21619058,0.07580866,0.14463085,-0.059136294,-0.02828803,-0.10339122,-0.12163664,0.10218168,0.06963851,0.09611551,-0.21405144,-0.06948049,0.0048688776,0.101043746,0.033153765,0.11720245,-0.026486646,-0.05726742,-0.016138706,-0.1126026,0.37398157
IND000000ACA,0.11362244,1.6295216,-0.3231419,-0.33386675,1.3407407,0.09957327,0.037514444,0.90949094,0.54884374,0.22574443,0.3468579,0.6496844,0.1404421,-0.31298307,-1.8478591,-0.46415782,0.020898666,-0.16563375,-0.29425776,0.35175693,0.501947,-0.022527307,-0.7833592,0.39744666,0.6193783,0.7850616,0.73109967,0.11703251,-0.046963096,-1.1125134,0.024779603,1.8241866
IND000000ACB,-0.15886079,0.56122404,-0.14487271,-0.19970767,1.0544379,-0.018200602,0.37379822,0.10149334,-0.36694336,-0.3599299,0.47634414,0.23393565,-0.03652359,0.023540465,0.9835022,-0.06418967,0.2844739,-0.1381036,-0.5439639,-0.03179617,-0.4094194,-0.5855093,-0.27289316,-0.37568086,0.5562265,-0.13160196,-0.048570294,0.257785,-0.0959043,-0.4202261,0.24043436,0.858181
IND000000ACK,0.06364939,0.09060767,-0.02351306,-0.047240954,0.32454,-0.0138946725,-0.011541705,0.026049873,-0.052993495,0.08103766,-0.019899987,0.22173265,0.06750012,0.09981989,-0.069858335,-0.033594456,-0.10020636,-0.083831474,0.08696692,0.07027805,0.022285724,-0.23150662,-0.0893703,-0.034100045,0.16542733,0.049009863,0.11094354,0.031263858,-0.08040156,-0.09720443,-0.06982929,0.3583514
IND000000ACN,0.083422974,0.04864097,-0.027422016,-0.05927805,0.31451878,-0.14452857,-0.029126333,0.09843492,-0.05464094,0.21982177,-0.100106195,0.24319807,0.052530117,0.12467434,-0.16549644,-0.043501463,-0.23877129,-0.2256456,0.13847953,0.11422259,0.07125102,-0.26174527,-0.06342917,0.03323503,0.1290973,0.1223899,0.1830209,-0.076450646,-0.089441694,-0.041302044,-0.1511155,0.37995496
IND000000ACO,0.30839914,0.5333286,0.20721546,-0.82233626,1.3298961,-0.30354902,-0.35805434,-0.015875932,-0.1716855,0.6907613,0.049480896,-0.44675756,0.30461332,-0.23607107,-0.37121853,0.19695981,-0.49806982,0.41598016,0.9458196,0.16251744,-0.49114087,-0.42715165,-0.7309308,-0.2982993,0.17697005,-0.5913408,0.46118438,-0.7488324,-1.1331896,-0.7043701,0.12217036,1.001358
IND000000ACS,-0.56323415,0.014830157,0.58328253,-0.90090865,0.80011106,0.161782,0.17205848,-0.039961338,0.35632303,0.36092636,1.1099192,0.79012805,-0.19919965,0.43971792,-0.4350961,-0.10603223,0.27620807,0.021294637,0.69531804,0.40858814,-0.2586775,-0.23475567,-0.7780209,0.07263703,-0.22525072,-0.6529098,-0.41683468,-0.11992952,-0.17341702,-0.37695363,0.44325912,1.2093408
IND000000ACT,0.044792574,0.61789507,-0.084141694,-0.31252256,0.6120915,0.017241742,-0.02430235,0.34528834,-0.086123005,0.13279143,-0.07146011,0.4651809,-0.11202884,0.030854298,-0.2717979,0.05731617,0.11208587,0.07026592,-0.611111,-0.027882542,-0.15059207,-0.48149735,-0.08176698,-0.20548841,0.23321956,0.28922904,0.17312004,-0.23206748,0.035343565,-0.5510864,-0.0037823364,0.5258341
IND000000ADM,-0.050035294,-0.17364182,0.2625969,-1.5254709,1.344634,-0.061129738,-0.15193479,-0.25848362,-0.5024896,0.44954494,1.0919956,-0.20975877,-0.4731483,0.9385898,-0.70816463,-0.62348914,0.3680513,-0.47625223,0.8213642,0.5052181,0.19746846,-0.60229987,0.07155625,-0.47595426,-0.7252369,-0.3444298,0.09974521,0.2791759,-0.05342595,-0.6878407,-0.9970094,1.2944198
IND000000ADV,0.039096583,0.032780472,-0.0019372713,0.026278336,0.30843005,-0.009536021,0.0018348745,0.03727115,-0.07846103,0.08122296,-0.012240687,0.1963863,0.09856589,0.16717228,-0.04509147,-0.08031513,-0.07889164,-0.09686949,0.12364372,0.13258049,0.11506601,-0.2077203,-0.052194413,-0.05955921,0.14301823,-0.016447531,0.13163747,-0.028565986,-0.09370816,-0.023013854,-0.082995296,0.30918023
IND000000AEL,-0.46425238,0.5200967,-0.06871342,-0.044291,1.3450596,0.14458679,0.42081952,0.3725283,-0.31853965,-0.3700745,0.21169454,0.63198507,0.017894717,-0.22996841,0.8291166,0.027340652,0.23674668,-0.16642743,-0.53241086,-0.040394288,-0.24082328,-0.5627773,-0.4229203,-0.49030435,0.84945,0.022792473,-0.02904348,0.2861441,-0.02335896,-0.7792633,0.44286913,0.67159694
IND000000AEM,0.052696016,0.009533406,0.0030923875,-0.082213946,0.32023582,-0.06650885,0.021824026,0.017616324,-0.027820177,0.1269902,0.03251619,0.21756913,0.06903871,0.15307346,-0.05223854,-0.054218784,-0.079785496,-0.10051348,0.14778319,0.12102207,0.058953796,-0.20639832,-0.11897183,-0.034351412,0.123361,-0.0143555915,0.1169818,0.049074784,-0.03685763,-0.06383519,-0.06803575,0.32478097
IND000000AET,0.4022702,0.4665735,0.6218235,0.8019931,1.5204763,-0.7902731,-0.8679527,0.60649633,-1.5795501,0.6241981,-0.27258006,0.9624739,0.061320942,0.5845836,-0.26117998,-0.34574565,-0.73599505,0.049133744,-0.3471565,0.5634296,0.280595,-0.8557035,-0.47294155,1.0330024,-0.13033114,-0.819809,0.87650764,0.8962739,0.8578141,-0.47537047,0.029763365,1.1124885
IND000000AFF,0.038236476,0.04263433,-0.024065573,-0.048382152,0.36421502,-0.13576764,0.032691143,0.028907692,-0.010487056,0.21964727,-0.121605046,0.14962597,0.07083585,0.16392596,-0.23227091,-0.05917047,-0.20463282,-0.124253035,0.15405542,0.08012878,0.15686893,-0.20385022,-0.017158391,0.03891612,0.1841301,0.09157814,0.13605966,-0.12544027,-0.124458596,-0.061542854,-0.16800576,0.41112676
IND000000AFG,0.14736432,-0.1594367,-0.10953041,-0.3730577,0.6227753,-0.36893016,-0.021443438,-0.18648764,-0.17251112,0.30127132,0.2543317,0.09000571,-0.37326068,0.45779702,-0.3264287,0.01773778,0.064210474,-0.60443884,0.51965237,0.38694343,0.1797506,-0.13437551,-0.04849422,-0.3139676,-0.041876443,0.24273053,0.4305574,0.09666116,0.48520982,-0.4039159,-0.2587932,0.6726004
IND000000AFJ,0.9912472,-0.051856637,-0.07229773,-0.856586,1.7356385,-0.42627335,-0.48906854,0.24864767,-1.1257021,0.4997885,-0.19120227,0.39480007,0.32610828,0.20806524,0.25128564,-0.6745618,0.55633885,-0.13909864,0.41057333,0.37498674,0.897745,-0.5387533,0.77712315,-0.3441688,0.5253013,1.0440758,0.43401018,-0.34985718,-0.082784526,-0.091885425,-1.4780003,1.0929796
IND000000AFR,0.034118883,-0.094435506,0.13576654,-0.67913234,0.61904985,-0.042376634,-0.079463266,-0.1808933,-0.17446391,0.1631388,0.546409,0.065541126,-0.17200747,0.52947074,-0.4651622,-0.3665589,0.09241951,-0.12476994,0.39347628,0.25912642,0.07050275,-0.15783717,-0.11078022,-0.21248274,-0.23610039,-0.1832688,0.10982381,0.14338402,-0.11051646,-0.38349167,-0.268131,0.50059193
IND000000AFS,0.049674608,0.06509641,0.029688107,-0.054479644,0.36826295,-0.06374405,-0.004777051,0.051933687,-0.07613654,0.1727776,-0.038824435,0.2066051,0.10284951,0.1216875,-0.02851617,-0.04928845,-0.12053018,-0.086651124,0.0034246964,0.096347734,0.12016748,-0.28223658,-0.11632282,-0.025500657,0.14038654,0.0060380683,0.119680345,0.043028653,-0.06334611,-0.0051563056,-0.10233486,0.31255946
IND000000AFT,1.5380378,0.32622027,-0.3293358,-0.8230061,0.59927744,1.552886,-0.36590523,0.79460865,-0.59258544,0.13480373,0.123374656,0.5623111,0.72063386,0.78993005,-0.0068527055,-0.0131591605,0.14813298,-0.2995994,0.15622728,0.78481036,-0.4503146,-0.32121003,-0.75068194,0.40920198,-0.19176577,-0.58420414,-0.70688117,-0.6187663,-0.031825986,-0.98948365,0.06995032,1.9321268
IND110005AAA,-0.30604222,0.50222117,-0.21876669,-0.13071397,1.316176,0.1179231,-0.11810367,0.4188252,-0.8664401,0.031630147,-0.17505622,0.3263139,-0.3883171,0.21196355,0.6995909,-0.06367543,0.19943585,0.04609236,-0.5516733,-0.43165946,-0.37101325,-0.8087881,-0.31806356,-0.009224854,0.696355,-0.43640313,0.19199823,0.2874218,0.076213844,-0.5719389,0.28408122,0.76978827
IND110014AAA,0.30531868,0.6519613,0.97757095,-1.0224776,2.5109072,-0.7072061,-0.64869905,0.22568364,-0.22448859,-0.10601389,0.03669964,1.5063342,-0.68461996,0.47301185,0.5977227,-0.5023916,0.40916044,0.53110456,-0.531631,-0.91098726,-0.90766555,-1.2943491,-1.1535485,-0.74147385,0.6193428,0.044512067,0.5273259,0.19397299,0.9315784,-1.0055256,0.1400419,1.2777749
IND110020AAB,-0.2758919,1.1511022,0.20316024,-0.7278339,0.9117299,0.33873662,-0.65864444,0.5608171,-0.9405463,0.16136472,0.019915758,0.53913313,-0.5185978,-0.08464429,0.4739186,-0.3989302,0.08804454,-0.098067746,-0.55993253,-0.55898714,-0.4472947,-0.68345195,-0.5467536,0.0836177,0.35507435,0.024292033,0.37546054,0.6310074,0.2854864,-0.6250214,-0.18295456,0.951559
IND110024AAA,0.32185045,0.7297872,0.93832946,-0.9108223,2.3398595,-0.53866196,-0.73887914,0.34758636,-0.22700107,-0.19392258,-0.099517144,1.3464676,-0.5765043,0.6055266,0.6080818,-0.5081314,0.44429663,0.37216666,-0.44562206,-0.98454756,-0.8542219,-1.2660047,-0.99195766,-0.78602034,0.51058143,-0.11630251,0.55080366,0.13583894,0.92209697,-0.84302646,0.2693603,1.2381725
IND110030AAD,-0.3983763,0.6389672,0.21637963,-0.04554242,1.27476,0.021332655,0.38953757,0.32405728,-0.5642568,-0.013787698,0.5394504,0.3920755,0.06311183,-0.37449032,1.4071118,0.057162903,0.15761755,-0.2333292,-0.3942315,-0.2023515,-0.041680474,-0.93879634,-0.43159938,-0.38612875,0.8283886,-0.11492614,0.23605587,0.22942801,0.07638602,-0.616614,0.44360453,0.7202516
IND110035AAC,-0.48992264,0.9694876,-0.10340264,-0.40916097,0.96983206,0.20613612,-0.86951673,0.4388042,-1.1181157,0.31931436,0.13199651,0.041312996,-0.3499387,-0.11496971,0.60221493,-0.4690217,0.0038255716,-0.36956337,-0.6174311,-0.24500936,-0.15623428,-0.833689,-0.547822,-0.12261186,0.25810048,-0.21477924,0.4639775,0.6354347,0.39278632,-0.30248192,-0.1420165,0.9520297
IND110037AAB,0.054904997,0.12742226,-0.00649165,-0.060235336,0.33544466,-0.084519215,-0.0065905303,0.031050438,-0.11448204,0.107672475,0.010833036,0.10539285,0.1129332,0.13183777,-0.0426966,-0.07245826,-0.078257866,-0.07169984,0.052144192,0.07757858,0.08907765,-0.19294472,-0.002149586,-0.08748321,0.10070608,-0.042316202,0.07601095,-0.013547904,-0.017677417,-0.11998273,-0.10244326,0.3164239
IND110037AAK,-0.089395635,0.57466084,0.10463498,-0.050768852,1.1062632,0.2959748,0.7543209,0.2671963,-0.5415593,-0.32155225,0.20720313,0.6488471,-0.15457056,0.16339685,1.0972639,-0.0740736,0.26605788,-0.038959134,-0.57063013,0.13349086,0.19102716,-0.6410769,-0.47747803,-0.18035159,0.5491165,0.17626053,0.057509836,0.18606277,-0.05981581,-0.5601157,0.31594354,0.47850668
IND110037AAM,-0.18213934,1.1064886,0.2868264,-0.49121463,0.86109287,0.6419745,-0.55316514,0.5586803,-1.0108649,0.2680734,0.20768878,0.25927016,-0.30145612,0.094205804,0.2317898,-0.27730158,-0.06322317,-0.25073692,-0.7865486,-0.74719256,-0.38085735,-0.874133,-0.17310351,-0.28859913,0.18985796,-0.29800627,0.2558857,0.638724,0.37620065,-0.37949628,-0.05582506,0.88413423
IND110039AAA,-0.5726317,1.0637673,0.045501765,-0.32634488,1.5951328,0.385424,-0.19860066,0.29021022,-0.6778169,-0.4959097,-0.16043268,0.9969171,-0.52248585,0.30469233,0.75847745,-0.8565238,0.10490941,-0.7662085,-0.5470691,-0.1705414,0.6425262,-0.60648966,-0.50287294,-0.088866346,0.9862585,0.14692406,0.17752108,-0.07263739,0.39252758,-0.4803894,0.32541174,0.72358114
IND110043AAA,-0.43480232,0.76946414,0.38255462,-0.113607004,1.4561393,0.5749883,0.75957704,-0.116954446,-0.25970423,-0.38329986,0.7764637,0.6531105,0.2524594,0.5351888,1.1616769,0.078957826,0.075281315,0.031576484,-0.6983622,-0.33258784,-0.22652406,-0.16530508,-0.46332008,-0.074786924,1.150785,-0.25026977,0.18159096,0.061621748,0.19903485,-0.17368841,0.015246882,1.1426511
IND110043AAC,-0.5828325,0.67763406,-0.08129794,-0.016775025,1.4648191,0.20549612,0.16005607,0.33210623,-0.45987517,-0.35997254,0.39688775,0.55686533,0.14660518,0.075215995,0.99558717,0.07483608,0.09942511,-0.100333326,-0.29058155,0.08008159,-0.34712777,-0.5102716,-0.45492634,-0.51188356,0.5425834,-0.20815577,-0.19791052,-0.03672722,0.11581027,-0.5976276,0.43403164,0.52884036
IND110044AAB,0.25240552,1.0385026,0.40450355,-0.7247247,0.67737275,0.48976028,-0.1998445,0.11225769,-0.7263752,0.3683221,0.4811992,0.82942414,0.06674673,-0.33333227,1.3097134,0.11821465,-0.26682585,-0.38363716,-0.9699506,-0.48756278,0.32874128,-1.1165687,-0.4789665,-0.19615163,0.49454683,0.29233852,1.1306521,0.6076664,0.041582383,-0.65913963,-0.05425275,0.8755519
IND110046AAA,-0.15465085,0.6065539,-0.26930696,-0.2597658,1.1969224,0.25424126,-0.2622827,0.40705734,-0.7226606,-0.038677618,0.13571411,0.3702534,-0.43460983,0.25627962,0.3857999,-0.049101774,0.4416317,-0.0026821499,-0.49908826,-0.41002595,-0.3002225,-0.52356625,-0.31630987,0.05034823,0.5851915,-0.3145364,0.31535503,0.23412767,0.18463255,-0.4277002,0.3143157,0.99855804
IND110052AAA,-0.383576,0.47752902,-0.3076926,0.015352361,0.9115404,-0.20889695,0.5100572,0.3234233,-0.2603229,-0.22937974,0.21207057,0.5421634,0.11443748,0.20874879,0.8698767,-0.011107893,0.57683265,0.07658824,-0.71570903,0.25647792,-0.14771934,-0.5914724,-0.71616334,-0.27357885,0.76878256,-0.20170498,-0.29151586,0.21680146,0.084948346,-0.32071936,0.27574086,0.7445029
IND110064AAA,-0.24581516,0.54421455,-0.23969065,-0.27057523,1.4264731,0.2102783,-0.2990948,0.73031783,-0.6668378,0.072554246,0.073627576,0.32995778,-0.38329294,0.26981944,0.5281714,0.024183244,0.3412717,-0.20314799,-0.6158434,-0.5665781,-0.54090315,-0.47437257,-0.50993943,-0.16970973,0.77724797,-0.31501764,0.29554832,0.30930305,0.2592006,-0.33618265,0.38651448,0.8352589
IND110064AAB,0.017566223,0.017061748,-0.031638578,-0.05894434,0.276268,-0.07670249,-0.025578097,0.027256053,-0.026747439,0.07263479,0.019835833,0.13896564,0.09686457,0.16094805,-0.06066062,-0.019403843,-0.07115788,-0.08367043,0.12226476,0.06844232,0.041033387,-0.18472698,-0.095745996,-0.04057274,0.121384606,-0.03281142,0.072770156,0.015383393,-0.06385986,-0.044370085,-0.06882948,0.25529495
IND110077AAA,-0.22809777,0.36500695,0.097928956,-0.10400204,0.8377166,0.13505255,0.30672956,-0.005653126,-0.10736938,-0.15641452,0.2943526,0.4789246,0.07151719,0.3391553,0.60934556,-0.035821553,0.09992896,-0.047631174,-0.20873016,-0.110878035,-0.015260057,-0.21086137,-0.21685766,-0.06873436,0.5188115,-0.18034407,0.02451898,0.053153466,0.020550426,-0.19437185,0.04286641,0.6303815
IND110078AAA,-0.570042,0.89099544,0.4630649,-0.21169034,1.5823385,0.39037102,0.73974967,-0.041659653,-0.30946517,-0.47359306,0.67499673,0.7799314,0.10603416,0.6460305,1.2564464,0.16868189,0.14211781,-0.033718225,-0.38273537,-0.31048545,-0.28105968,-0.27845898,-0.47118607,-0.122912735,1.3242315,-0.17289664,0.1295786,0.040507738,0.07888563,-0.24191862,-0.03555612,1.0722618
IND110083AAA,-0.6923661,1.3242223,0.08704958,-0.076046206,1.809127,0.3203279,-0.52756715,-0.083134875,-0.49101642,-0.37217206,-0.017984048,0.8302224,-0.59345394,0.40249637,0.766683,-0.9989041,0.14009415,-0.6721577,-0.38572246,0.0351564,0.7515384,-0.35128343,-0.9472605,0.007414267,0.9401414,0.25796735,-0.031989396,-0.1224666,0.4069329,-0.28503296,0.26384458,0.9262961
IND110085AAA,-0.4379311,1.1140494,0.12924914,-0.2261368,1.3065668,0.4903157,-0.4002013,0.15384799,-0.50849926,-0.44598833,0.016631588,0.6031559,-0.48537254,0.36291787,0.44945267,-0.6639271,0.14510842,-0.46088353,-0.3379487,-0.118911415,0.35647327,-0.5370725,-0.5789656,0.05494921,0.7163829,0.1110178,0.03806585,0.061372478,0.273564,-0.3539843,0.100067906,0.6522301
IND110085AAB,-0.5377351,1.4624482,0.06883954,-0.060532972,1.5415643,0.44923967,-0.5303128,0.13350113,-0.5136084,-0.7949687,0.06530365,0.9109122,-0.56223154,0.46017808,0.5554877,-1.0012833,0.27837533,-0.5368614,-0.6450604,-0.029534247,0.9786224,-0.6488276,-0.8691947,-0.06658787,0.9936649,0.26429093,-0.32426035,-0.09022799,0.53826934,-0.38071626,0.23594986,0.6206292
IND110087AAA,-0.5184568,0.85240775,0.07036142,-0.12115853,1.4396148,0.39342958,-0.31696934,0.13042897,-0.64457315,-0.443894,-0.05833939,0.59619045,-0.39915884,0.39053223,0.7496229,-0.5401693,0.094308905,-0.45960814,-0.44422463,-0.1977697,0.26684037,-0.62551755,-0.69160396,0.06402264,0.86334544,0.11586524,-0.0573279,0.07533087,0.29678842,-0.32625142,0.17492096,0.77899945
IND110092AAC,-0.025635522,0.74835145,-0.17162813,0.21824023,1.7706481,0.45802143,-0.1664656,1.2365972,-0.74969584,-0.14645728,0.6276646,0.15929547,0.22248484,0.7758609,0.75646424,0.2886414,0.03825562,0.22109678,-1.091035,0.017910665,-0.17338428,-0.40596864,-0.7772485,-0.506055,0.58750105,-0.33068094,0.39019078,0.2927259,0.3807199,-0.6887312,0.63727576,0.9548624
IND110093AAA,-0.24280855,0.8582564,-0.06961489,0.20345625,2.1289785,0.48497778,-0.27711987,1.1848383,-0.68371326,0.028115518,0.42385665,0.51198816,0.2022105,0.95135933,0.9857469,0.29624498,0.035432197,0.3204127,-1.2255497,0.07122186,-0.17618363,-0.58137,-0.8389263,-0.3687519,0.46845663,-0.2757191,0.5697055,0.11847845,0.29094586,-0.6731211,0.6088686,0.9274168
IND110095AAB,-0.52511203,0.75943416,-0.06710323,-0.075153016,1.1797737,0.19586608,0.17457195,0.01592798,-0.3388925,0.042284064,0.43200868,0.20651004,0.11781097,0.12757082,1.0282592,-0.090069994,0.13800737,-0.17949249,-0.5775145,0.08109116,-0.30323663,-0.45184886,-0.5487429,-0.2831964,0.6595144,-0.13989764,-0.020600313,0.3124195,-0.049862508,-0.43084127,0.5352288,0.789987
IND121001AAA,-0.6691344,0.5439621,-0.4119691,-0.54751575,1.0599749,0.2539975,-0.13468662,0.602111,-1.1838324,-0.111372545,-0.043750685,1.0554361,0.07207713,0.12521689,0.5447948,-0.7223289,-0.211992,-1.4034367,-0.30260542,-0.06157516,-1.1463065,-0.51155704,-0.9304861,0.013696273,0.44518775,0.06090833,0.020567853,-0.061956026,0.019305788,-0.886697,0.7194157,1.257348
IND121002AAA,-0.84719694,0.4414309,-0.544703,-0.5927387,0.937577,0.35488808,-0.10608426,0.40758222,-1.4404476,-0.020828072,0.0033913937,0.892779,0.26207778,0.16643007,0.63969254,-0.6476849,-0.3009164,-1.4945903,-0.2169906,-0.12125828,-0.9959749,-0.82310474,-0.85897183,0.04123406,0.5107005,-0.23584571,-0.03677469,-0.17001022,-0.059043713,-0.8359912,0.6247191,1.3975685
IND121002AAB,-0.41927707,0.6432139,-0.116326906,0.06919707,1.3413382,0.13708699,0.4665775,0.25312907,-0.2791967,-0.05783687,0.36527225,0.5902472,0.05136345,0.16153196,0.88605994,-0.119691774,0.6332043,-0.039759744,-0.5141824,0.16128401,-0.15684628,-0.51177996,-0.48404628,-0.3387872,0.6902995,-0.38505945,-0.5565247,0.21449257,0.06691327,-0.60248464,0.33205044,0.652895
IND121004AAA,-0.6020387,0.4321359,-0.385081,-0.45924777,0.9924798,0.1576046,-0.41414744,0.56634504,-1.3515745,-0.10955807,-0.08892471,0.9684448,0.044205602,0.101830825,0.66337985,-0.71581584,-0.22654384,-1.3139746,-0.09006677,-0.059341848,-1.1981188,-0.42901894,-0.9752427,-0.12441234,0.43346763,-0.016137704,0.30007875,-0.11465964,0.27598387,-0.70856375,0.61212236,1.3587449
IND121004AAB,-0.86888224,0.6787357,-0.30084983,-0.43828484,1.055302,0.072962925,0.026615832,0.44408733,-1.2820808,-0.4115361,0.110037975,0.81458616,0.29214358,0.01657371,0.60189664,-0.6296109,-0.2104525,-1.4243449,-0.5491065,-0.18188281,-1.0723629,-0.7933798,-1.0177138,-0.14314635,-0.0040346845,0.2514188,0.08285557,0.044009354,0.24460743,-0.5116543,0.7100218,1.3498156
IND121004AAC,-0.74422216,0.21962625,-0.30357623,-0.37672088,1.136674,0.34305418,-0.3331684,0.21972807,-1.5272402,-0.071689844,0.058280595,0.79388535,0.20837444,-0.04748725,1.0177485,-0.7590784,-0.32402837,-1.3388518,-0.053502724,0.007374091,-0.8313097,-0.522535,-1.0644165,-0.013960406,0.419879,-0.27049023,0.32687497,0.021930434,0.1756445,-0.6052441,0.6468417,1.4299169
IND121102AAA,-0.7071644,0.3680436,-0.23016441,-0.44447,1.133964,0.39118767,-0.33484837,0.5181436,-1.5507386,-0.23816247,-0.1335168,0.8318531,0.20719711,0.034239307,0.78417176,-0.8538701,-0.24761723,-1.1617733,0.017451068,-0.14722444,-0.92192113,-0.6076654,-0.95500785,0.19538501,0.6325953,-0.058321994,0.18667051,-0.043088034,-0.05405199,-0.6159083,0.663068,1.2841762
IND122001AAA,-0.28208625,1.0607681,0.038991917,-0.08477052,1.6014469,-0.017946124,-0.0017813183,0.2297174,-0.28758687,-0.26064005,0.109200016,0.6973886,-0.27314994,0.14976107,0.7822471,-0.15369935,0.36536768,0.06468258,-0.5085576,0.05004295,-0.4522446,-0.66396296,-0.24333318,-0.113396294,0.61863625,-0.04698389,0.048706204,0.05999031,0.6112226,-0.5674797,0.3641008,0.442195
IND122001AAD,-0.17345105,0.7329316,-0.013305808,0.08238282,1.3170044,-0.00072082464,0.12209286,0.28671548,-0.31948176,-0.11149944,-0.073291704,0.55716866,-0.23215532,0.113938816,0.59133387,0.026217464,0.151013,0.08448486,-0.44659793,0.052068863,-0.22812663,-0.47882456,-0.19730328,-0.08973248,0.58229715,0.123398766,0.028227871,-0.05853222,0.34487107,-0.55668277,0.24862327,0.4630563
IND122001AAJ,-0.06330468,-0.36781463,1.1703103,-0.49080288,0.33355573,-0.030076763,1.2438189,0.07661677,-0.69761217,0.14353889,-0.52027524,0.92667526,-0.06991038,1.2727767,-0.08310801,-0.25474054,0.1149983,-0.0732446,0.52122885,1.4254823,0.67436,-0.89226174,-1.3974487,-0.41095313,0.082610995,0.90230685,1.1032445,0.309701,-0.07688522,-0.31502149,0.0911125,1.5261228
IND122002AAD,-0.13837464,0.37165007,0.069730975,-0.024999227,0.71587324,-0.01442647,-0.08396643,0.08873519,-0.2347582,0.030415302,0.04592865,0.2653613,-0.10851085,0.07278117,0.37259296,-0.03693594,0.051682,-0.14543344,-0.23487133,-0.070719965,-0.05557619,-0.40147963,-0.19181192,-0.009140387,0.3098956,0.018795712,0.19003224,0.07093314,0.20804472,-0.23185736,0.047287773,0.41780084
IND122004AAA,-0.083160415,0.14715852,-0.11375008,-0.046010993,0.49150017,-0.047578253,0.013752291,0.07714271,-0.13150592,0.12018458,0.09785988,0.2756895,-0.0100718,0.07887125,0.09423088,0.006128965,-0.078369975,-0.062102113,-0.043169186,0.025352288,0.095052026,-0.25026166,-0.089910895,-0.07619568,0.12999713,-0.0564377,0.09420095,0.025968472,-0.060573604,-0.108423255,-0.05070942,0.334957
IND122015AAC,-0.6539005,0.31696412,-0.15418519,-0.24495576,1.1563892,0.26406577,-0.017269084,0.45903328,-0.28810742,-0.34646526,0.40654206,0.5164269,-0.18128468,0.16523647,0.6960267,-0.18238969,0.4370172,-0.0029622335,-0.3058618,0.23746672,-0.30639258,-0.37015426,-0.3371464,-0.39936718,0.42456728,-0.12010556,0.082507975,0.047075287,0.2960489,-0.561942,0.3535226,0.7813593
IND122050AAA,-0.20920518,0.8455242,-0.15158878,-0.024394112,1.4554454,0.035541464,0.08977075,0.27445176,-0.3387711,-0.14976807,0.05713232,0.5867168,-0.3334868,0.12331843,0.6231149,-0.11417217,0.17085992,0.07927235,-0.546506,-0.051583435,-0.3012942,-0.53353965,-0.15875404,-0.084642366,0.64745647,0.11356963,0.070521355,-0.05973022,0.37059343,-0.48518217,0.1400434,0.60283303
IND122101AAC,-0.3119041,0.5956427,-0.04401006,-0.05952149,1.182091,0.0675715,-0.09400687,0.14787164,-0.3853143,-0.15548195,0.15798159,0.48638698,-0.23629947,0.110864796,0.6439304,-0.11330358,0.13105506,-0.09419415,-0.3521768,-0.013590312,-0.25002903,-0.6744597,-0.24016048,0.017863568,0.47836092,-0.19284476,0.064473465,0.04343111,0.2683648,-0.43281323,0.24499445,0.5297697
IND122413AAE,-0.012399416,0.058006283,0.053890824,-0.037841868,0.36064458,-0.049373157,0.007009299,0.03883816,-0.08328635,0.17657335,0.005123429,0.22201072,0.024760172,0.14903022,-0.03115444,-0.07709762,-0.13417102,-0.11836341,0.10897484,0.038136944,0.026471222,-0.2595085,-0.144581,-0.01740206,0.12637904,-0.017331395,0.10954181,0.021218924,-0.047652483,-0.021701124,-0.082844585,0.35523105
IND122503AAA,-0.26501143,0.6630199,0.041160036,-0.09739526,0.99145836,-0.08162987,-0.0494162,0.20989335,-0.38232467,-0.05214045,-0.022984259,0.355435,-0.23249678,0.09106661,0.61060816,-0.11996063,0.05098913,-0.19848941,-0.4040283,-0.13698043,-0.2097552,-0.49608824,-0.17654926,0.057670567,0.4523975,-0.026804246,0.15664802,0.13126455,0.30865422,-0.41512448,0.13891423,0.52816653
IND123001AAA,-0.4407942,0.8552263,-0.21805201,-0.3663653,1.619146,-0.0047623543,0.53916043,0.2176509,-0.4459479,0.24869141,0.11973512,0.95172536,0.215569,0.4649311,0.8216231,0.14863694,0.50138336,-0.024222635,-0.30445412,0.03504932,-0.49115336,-0.33684137,0.38627177,-0.29481345,0.83849406,0.003398,0.19661169,-0.09477849,0.17581488,-0.95516187,0.8963502,0.6368988
IND123106AAB,-0.3182712,0.6753527,-0.2223424,-0.21923622,1.532533,-0.2200231,0.4672161,0.15115628,-0.5370846,0.18464208,-0.00028108413,0.9649951,0.043554626,0.42952684,0.73200786,0.04544135,0.18389283,-0.119288,-0.2518237,-0.043407135,-0.342107,-0.25810105,0.16937427,-0.31311238,0.7236607,-0.06418622,0.23172206,-0.22112188,0.16912045,-0.8039866,0.643689,0.7189275
IND123401AAB,-0.3368523,0.83911705,-0.20032744,-0.46824276,1.606924,-0.057590995,0.5853178,0.070181645,-0.2322853,0.14059205,0.06080054,1.1005911,0.18214504,0.4867033,0.80637544,0.12385069,0.55389696,-0.07752114,-0.30702344,-0.020656707,-0.48427358,-0.3331224,0.52290356,-0.2651544,0.87158686,0.037320953,0.3439132,-0.05671968,0.15340887,-0.8939964,0.8685267,0.5793052
IND124001AAB,0.32917672,1.025008,-0.18774603,-1.365161,0.57161486,0.42451102,0.40905565,0.86165965,-0.1343155,0.51748806,-0.085384205,1.1050954,0.31969625,0.22760819,-0.23565619,0.34819436,0.06422931,-0.4371302,-1.0468099,-0.026580395,0.4476124,-1.5261953,-0.07625597,-0.69068646,0.3638692,0.3678042,0.39040804,-0.30817613,-0.06615452,-1.005955,-0.4600182,0.6312785
IND124103AAA,-0.26611036,0.49146804,-0.33242515,0.064483784,1.1421686,0.1756563,0.56457645,0.19694856,-0.26936498,-0.35918066,0.2649964,0.79902184,-0.086994335,-0.026423315,1.010098,0.24481364,0.10723987,-0.1277688,-0.4173795,0.1496858,-0.42222077,-0.5665081,-0.56396115,-0.45905006,1.0165715,-0.2317412,0.33952075,-0.07602888,-0.022187537,-0.6696493,0.5811592,1.0861744
IND124112AAA,-0.542007,0.6332535,-0.73261356,-0.4469656,1.4079772,-0.18186513,0.453784,0.58319837,-0.763595,0.25768864,0.3485473,0.93748355,-0.16084261,0.046498913,1.0155282,0.019806467,-0.10998982,0.10009575,-0.29599035,-0.36906958,-0.060266558,-0.5073394,-0.2590994,-0.5360285,0.3847768,-0.7473477,-0.46596527,0.19472544,-0.18667038,-0.02118895,0.2754754,0.75084734
IND124141AAA,-0.23462953,0.1367069,-0.30555433,0.41347232,1.1001165,-0.17329352,0.35291553,-0.0473147,-0.39460957,-0.032723922,0.37244108,0.78590626,-0.13099961,-0.022110285,1.2008303,0.09028164,0.12473504,-0.31177714,-0.36979043,0.014419739,-0.5891698,-0.4808703,-0.5544564,-0.7068239,1.0240299,-0.28024155,0.25008154,0.04833181,0.058746576,-0.9228282,0.48379996,1.0796018
IND124507AAA,0.030462798,1.2973745,-0.32925242,-0.94601595,0.76987773,-0.1261406,0.060538847,0.83011734,-0.34045282,0.3458602,0.20010385,1.5500625,0.18457033,0.17489916,-0.7131944,-0.11879632,-0.08369973,-0.35113433,-1.2097083,-0.41922364,0.82482207,-1.1589009,-0.0118344845,-0.562783,0.39772347,0.7943348,0.1831972,-0.1756295,-0.052526187,-0.9674705,-0.44628668,0.7436209
IND125001AAA,-0.6027135,0.8798094,-0.4372729,-0.23457824,1.4449135,0.16866174,-0.0765698,0.2282155,-1.0126784,0.44198778,0.5379598,1.381358,-0.5338519,-0.05144012,0.8639944,0.16601044,-0.45219883,0.14729357,-0.13528533,-0.9010448,0.24488899,-0.7254689,-0.26882702,-0.6147003,0.22326268,-0.19631332,-0.06493231,0.19873625,0.25809714,-0.1042261,-0.14903398,1.105668
IND125005AAA,-0.23899552,0.35202587,-0.37518615,-0.18793294,1.6554928,-0.35575223,0.12878318,0.30617332,-1.0397407,0.28615505,0.49050376,1.3575392,-0.33926576,-0.050482135,0.85751975,0.09822414,-0.041560553,0.3913357,-0.35004085,-0.613787,0.48496872,-0.4504794,-0.38297823,-0.7440608,0.42291677,-0.11350967,-0.472417,0.25167304,-0.30580902,-0.1030331,0.21309076,0.76108813
IND125033AAA,-0.551287,0.6949332,-0.37427592,-0.34586933,1.4739547,-0.06567325,0.26885626,0.41358232,-0.833487,0.06860513,0.53557336,0.86295736,-0.44165015,0.13536553,0.9946283,0.32207257,-0.06507664,0.048637163,-0.3013541,-0.32151458,0.07796885,-0.62912184,-0.42039463,-0.5757605,0.5049045,-0.11322516,-0.41032538,0.38586476,-0.24577971,-0.116146095,0.21119738,0.7257294
IND125047AAB,-0.99098915,0.98616827,-1.1389999,-0.33508915,1.8087765,-0.30540654,-0.10032173,0.06554669,-1.0426128,0.78040236,0.74433076,1.4258409,-0.3376853,-0.20910232,0.719254,0.34837365,-0.6025659,0.4073956,-0.15253113,-0.43470272,0.3954103,-0.93470657,-0.24761924,-0.81956744,0.18143955,-0.017052503,-0.040635116,0.3132251,0.077326916,-0.090756185,-0.2381321,1.2208176
IND125050AAA,-1.1286049,0.9272991,-1.088442,-0.35269678,1.6299199,-0.25886112,-0.04381298,0.08642373,-0.93645793,0.752974,0.9432083,1.4133587,-0.41407192,-0.17867392,0.5477179,0.40891892,-0.60780185,0.25125292,0.015930785,-0.47584784,0.315925,-0.9411678,-0.12397855,-0.7824027,0.115244575,0.11631415,-0.048182435,0.3968447,0.034973048,-0.10975218,-0.36399433,1.3387172
IND125051AAA,-1.1943109,1.1043624,-1.1780417,-0.41213995,1.8691226,-0.3390091,-0.109659076,0.18002686,-1.2574809,0.6938891,0.9639171,1.5787265,-0.63725746,-0.16272226,0.8164667,0.41761485,-0.696768,0.19169943,-0.004485548,-0.68441015,0.25658953,-1.2607212,-0.25498492,-0.8156016,0.2568621,-0.013548843,0.0432893,0.48999727,0.2005185,-0.14952657,-0.34871113,1.5953352
IND125104AAA,-0.37604406,0.36314017,-0.36308986,-0.43110746,2.104284,-0.5737268,-0.02990456,0.053966872,-1.101386,0.7288004,0.69423217,1.5377684,-0.4137131,0.091285884,0.7490122,-0.14335099,-0.6830653,0.7071481,-0.30403507,-0.51693976,0.31843618,-0.41120103,-0.3904876,-1.087284,0.16239087,0.10304415,-0.34066102,0.17699932,-0.18915859,-0.24838997,0.1727144,0.88645875
IND125111AAA,-1.1935779,1.0403024,-0.9434774,-0.59838945,1.8369881,-0.35023382,-0.23645388,0.1641738,-1.3382652,0.64999443,0.98623645,1.5933839,-0.59290767,-0.25007057,0.7882841,0.4600254,-0.7096291,-0.02254116,-0.049129967,-0.58972484,0.3336486,-1.1540939,-0.25061035,-0.81182796,0.261785,0.12900236,0.2066922,0.45441955,0.30392566,-0.113827154,-0.28676578,1.4457034
IND125121AAA,-1.1226423,0.90556014,-0.8270554,-0.6090026,1.7880371,-0.20257697,-0.37385318,0.01545627,-1.3151197,0.47990277,0.8639572,1.5264493,-0.613015,-0.2752942,0.7817913,0.39841273,-0.73434913,0.01330715,-0.13653398,-0.7028813,0.20734337,-1.2279944,-0.3137605,-0.68361485,0.2041367,0.11176282,0.21109094,0.4399467,0.3231148,-0.37307975,-0.2801096,1.3907427
IND126102AAA,0.24815844,1.0010198,-0.22093245,-1.4392614,0.52125126,0.29423594,0.47125554,0.87164366,-0.30047747,0.6334753,-0.050462652,1.1266143,0.42641616,0.23600927,-0.4304719,0.40991747,0.005100782,-0.3896158,-1.0621064,0.039495286,0.5246704,-1.4998261,-0.10025128,-0.855272,0.45193717,0.33444536,0.40769297,-0.21869746,-0.16226162,-1.0602537,-0.32367486,0.73865485
IND126112AAA,0.18970501,0.54285425,-0.096388794,-0.45658937,0.38715473,0.114372015,-0.030069651,0.43559638,-0.16848154,0.17944898,0.021766566,0.42508036,0.09538849,0.059893407,-0.29222557,0.09807702,0.0056365565,-0.044233568,-0.41750613,0.13909163,0.04801332,-0.3623475,-0.043315187,-0.09367436,0.0976711,0.23777902,0.26110843,-0.051398024,-0.13191387,-0.39036623,-0.12259723,0.36304516
IND126116AAA,0.34920058,0.85770595,-0.2450645,-1.2935277,0.62934196,0.21607804,0.37214786,0.898854,-0.3205391,0.48352513,-0.101230785,1.0890255,0.28735623,0.2509497,-0.41977236,0.30925798,-0.018291889,-0.42799193,-1.0586808,0.018077305,0.40510306,-1.3742312,-0.12790431,-0.6827754,0.2500295,0.38666597,0.3135107,-0.35791305,-0.08379258,-0.99520904,-0.21163383,0.6561237
IND127021AAA,-0.35846075,0.53352803,-0.2706811,0.3623146,1.2015736,0.011377031,0.47384506,0.056458153,-0.33506614,-0.40660858,0.40126982,0.9550082,-0.14144558,0.030647282,1.1005555,0.4136717,0.31307936,-0.23079118,-0.27450243,0.27955052,-0.41251191,-0.57641315,-0.33676526,-0.560981,1.060491,-0.28535888,0.33509254,0.11444153,-0.19771685,-0.73911524,0.6044263,1.0152776
IND127201AAA,-0.27709895,0.27307978,-0.3506397,0.37295786,1.2481222,0.06375849,0.55804884,0.122353315,-0.4396616,-0.20920913,0.3286216,0.7898831,-0.23217252,0.09458425,1.1920769,0.25591406,0.23456182,-0.3444558,-0.3672511,0.17630953,-0.5146415,-0.51307267,-0.50237465,-0.706589,1.1258949,-0.2502238,0.36523363,0.002388453,0.02953721,-0.8800964,0.5022891,1.1048354
IND131021AAA,0.049222358,0.026503796,0.023427378,-0.03623695,0.33340332,-0.1021091,0.06261484,0.058522556,-0.042908847,0.19601044,-0.022928983,0.18455952,0.13197266,0.08282929,-0.100311935,-0.08844186,-0.13519855,-0.10023113,0.098364495,0.05886135,0.098877594,-0.24719937,-0.07081274,-0.03801685,0.12813424,0.058697186,0.09547086,-0.06688105,-0.06032313,-0.08915816,-0.068201594,0.2831778
IND131028AAA,0.07553557,0.049843118,0.02373467,-0.025324948,0.3693512,-0.0644747,-0.016902128,0.034976106,-0.093003854,0.14471017,0.035201944,0.20373067,0.106612325,0.15882549,-0.08399298,-0.06812546,-0.12015654,-0.07252438,0.11060624,0.060054444,0.09970119,-0.23156972,-0.08840597,0.0377354,0.10026143,-0.012817594,0.14138517,0.047639288,-0.06932534,-0.04232732,-0.09620235,0.35443544
IND131028AAB,0.3677749,1.080679,-0.090514526,-0.88520145,0.39186797,0.30948433,-0.10103468,0.48283228,-0.23146404,0.24803314,0.5323717,1.2032996,0.43971637,0.40495074,-0.23028368,-0.06643209,-0.09780255,-0.14806883,-1.3050101,-0.45756328,0.1865106,-0.8207769,0.4072242,-0.39653382,0.61967045,0.0757676,0.45859882,-0.11749058,-0.15771809,-1.2016456,-0.37362227,0.7432167
IND131028AAE,0.17936012,1.1866417,-0.31913945,-1.0404817,0.73886687,-0.20687428,0.10287723,0.8282487,-0.309909,0.45302656,0.0069283987,1.484646,0.27942526,0.22263366,-0.9767153,-0.016687453,-0.1493073,-0.33950394,-1.1375741,-0.17370099,0.74479973,-1.3669602,-0.045604292,-0.73170304,0.26975322,0.7317757,-0.021828236,-0.29651022,-0.106187545,-0.956874,-0.30914918,0.79931146
IND131301AAA,0.1261374,0.87738544,-0.36496967,-1.3438501,0.6124505,0.1643064,0.5782043,0.9309171,-0.30736318,0.45782736,-0.067321464,1.1689099,0.41856566,0.3273118,-0.47797146,0.3593731,0.1293585,-0.48406035,-1.0861429,0.03230848,0.47819424,-1.3355322,-0.081506066,-0.7969247,0.43474323,0.38673106,0.24634126,-0.25474045,-0.14045338,-1.152413,-0.31440154,0.6244253
IND132001AAA,0.40384012,0.71148217,-0.34014535,-1.2473681,0.82782465,0.03350142,0.1314515,0.8864537,-0.38165033,0.680382,-0.2873723,1.4027816,0.17780349,0.4222989,-0.5574789,0.3130591,-0.1684628,-0.14655927,-1.0164584,-0.12477809,0.37103263,-1.4324485,-0.031680793,-0.70632845,0.00094204565,0.29998937,0.07034136,-0.6264203,0.15567781,-0.9699748,-0.46734577,0.5810787
IND132039AAA,0.7012197,0.55738235,-0.32548746,-1.1891505,0.512007,-0.017644653,0.49221238,0.8184533,-0.3479267,0.96907556,-0.2599334,1.3243182,0.5181012,0.42045718,-1.1547351,0.5836153,-0.39893505,-0.15702912,-0.524942,0.162775,0.5286381,-1.5955006,-0.16860297,-0.6032397,0.42291054,0.20022345,0.2703702,-0.6433452,-0.16066612,-1.2086488,-0.26563296,0.5851722
IND132103AAA,0.45143893,0.88592,-0.5150814,-1.1244695,0.8212783,0.21940136,-0.1323905,0.8017381,-0.57957387,0.6318148,-0.08275964,1.2998941,0.07326487,0.36135137,-0.4698379,0.10522448,-0.13335933,-0.06777239,-1.2664757,-0.21704742,0.32540628,-1.1722497,-0.07372155,-0.4546799,0.09942922,0.484126,0.18303466,-0.50841284,0.042126287,-0.83811766,-0.26942712,0.61340195
IND132103AAB,0.36282822,0.5992181,-0.36470842,-1.177255,0.5594906,-0.009253321,0.11146845,0.6369566,-0.40524697,0.6680559,-0.24922557,1.2262218,0.3132283,0.3804106,-0.5911117,0.26219907,-0.20299816,-0.26484972,-0.8217824,-0.1247637,0.33864495,-1.4387382,0.015188521,-0.69018155,0.09475438,0.24380684,0.010954031,-0.46886787,-0.06246647,-0.9034521,-0.30663976,0.55055124
IND133004AAA,-0.097957686,0.66866755,-0.14510363,-0.17725044,0.8758026,0.1099739,-0.14452577,0.27268007,0.07461188,0.1753723,0.20862229,0.21745998,-0.2033063,0.052082706,-0.46455088,0.023235003,-0.16122942,0.062498517,-0.3035626,0.30584803,-0.10919026,0.0124398535,-0.083304875,-0.10683186,0.16447936,0.43273264,0.286924,-0.17337973,-0.09083959,-0.20958202,-0.0953342,0.7745041
IND134102AAA,-0.05449448,1.1852169,-0.18078697,-0.30795375,1.5252551,0.43318188,-0.3432022,0.5214133,0.06299662,0.05363752,0.44159004,0.4494724,-0.48335215,0.22554713,-0.5987721,-0.009176562,0.09735759,-0.11288077,-0.59811234,0.6140922,-0.31643647,-0.10977714,0.06026734,-0.17352723,0.37509254,0.6318442,0.7447324,-0.2937604,0.079758525,-0.3909374,0.022432499,1.2956753
IND134109AAA,-0.00097454374,0.50399923,-0.10167681,-0.17164274,0.7518371,0.16408287,-0.024023104,0.44113404,0.17687467,0.15427256,0.2032797,0.283312,-0.10873055,-1.5412661e-06,-0.54397696,-0.12756446,0.04204276,0.052046414,-0.16189913,0.3989098,-0.13079892,0.09273312,-0.024978919,-0.14088051,0.28912383,0.303001,0.45081815,-0.10918147,-0.003370104,-0.110023804,-0.062226813,0.6425728
IND134203AAA,-0.27624202,1.2465302,-0.17615008,-0.68157345,1.4982425,0.56369734,-0.1558387,0.8037426,0.47046185,0.14095125,0.43102354,0.6270767,-0.20472303,0.14225942,-0.5651283,0.0937385,0.12917034,-0.06549531,-0.71183515,0.72037786,-0.32104298,-0.1318625,-0.028329687,-0.36858884,0.08894539,0.5137891,0.59994656,-0.27193698,-0.17409559,-0.5907183,0.1463146,1.4053543
IND135001AAA,-0.28411818,1.3000547,-0.3812535,-0.5631762,1.6664741,0.26198652,-0.2624751,0.70925915,-0.15468769,0.18735543,0.4428622,0.5338899,-0.47780964,-0.043190323,-0.7959622,0.06342063,0.008062366,0.1241489,-0.84930134,0.41968498,-0.29290825,-0.15742265,-0.13771331,-0.3031582,0.412955,0.75509137,0.26747903,-0.30144468,-0.19733736,-0.5240571,0.030673029,1.3480157
IND136027AAA,0.6885422,0.5505696,-0.27476385,-1.2236063,0.5162443,0.056793157,0.37964335,0.7422103,-0.478094,1.0546501,-0.3897685,1.173537,0.5221776,0.41826054,-1.1977612,0.6341391,-0.44232264,-0.014236766,-0.5461099,0.123533756,0.67165434,-1.4573504,-0.28431427,-0.57121485,0.53395516,0.24223031,0.2702159,-0.58883566,-0.0067832908,-1.3332313,-0.38083157,0.385339
IND136118AAA,0.56219614,0.69581574,-0.34221277,-1.3320891,0.5652283,0.3467731,0.18176693,0.67639047,-0.24373528,0.89354885,-0.113196015,1.1185278,0.47800547,0.31160808,-0.94818825,0.5210345,-0.21932246,-0.06619129,-0.56872064,-0.20670801,0.38156867,-1.4122428,-0.21845965,-0.51621765,0.46851528,0.33875102,0.4031865,-0.57609457,-0.1519624,-1.1872122,-0.35346356,0.42563933
IND136128AAA,0.5805947,0.58440167,-0.25604844,-1.2108927,0.5575992,0.25293654,0.37267697,0.7846248,-0.27367482,1.0234097,-0.16335565,1.1795331,0.49207976,0.38166687,-1.1324084,0.56664294,-0.30283484,-0.09692878,-0.47771314,-0.041653596,0.49075818,-1.3994843,-0.27184397,-0.516181,0.38561216,0.2841178,0.3871799,-0.65793943,-0.08029596,-1.341652,-0.3708525,0.49983585
IND140001AAA,-0.14230987,1.1480733,-0.30134508,-0.5715343,1.4833974,0.4667755,-0.16544403,0.47912267,0.16868986,0.085935734,0.23784806,0.30836582,-0.29746637,-0.058231335,-0.8041584,-0.081322476,0.13467497,0.041772075,-0.6628205,0.7657733,-0.2728756,-0.41328582,-0.08487602,-0.5488977,0.3458312,0.44781992,0.56560224,-0.23910873,0.07091092,-0.36945307,-0.06932409,1.2863941
IND140118AAA,-0.15847656,1.2103987,-0.3562307,-0.5967076,1.3344684,0.58272916,-0.23554821,0.4707076,0.15255022,0.05814197,0.15015039,0.3311867,-0.28285357,0.02780652,-0.75525343,-0.105864346,0.14259495,-0.019338116,-0.6889083,0.7111805,-0.38154107,-0.4752521,-0.13033165,-0.48790866,0.4322167,0.47138563,0.59283215,-0.28067312,0.049061034,-0.48271683,-0.006333672,1.2527968
IND140301AAA,-0.2141003,1.3196917,-0.29893142,-0.7978345,1.7217903,0.41726053,-0.11279009,0.41432947,0.35786864,-0.016719049,0.5004591,0.4410805,-0.45121405,0.08521973,-0.9384252,-0.11439237,0.10246124,0.15340084,-0.6743621,0.9143048,-0.39107668,-0.44459832,0.020309057,-0.6505801,0.37976748,0.4717429,0.6519677,-0.30561578,0.027508296,-0.47637966,-0.05647972,1.3906499
IND140401AAA,0.47129264,1.4583178,-0.31329316,0.11624099,1.1755786,0.020600535,0.13965714,0.62693083,0.35335955,0.51956123,-0.103320435,0.63376546,0.35792914,-0.33212608,-2.419691,-1.0024334,0.04210886,-0.3769998,-0.2855022,0.36511815,0.33579186,-0.3465317,-1.0317662,0.41796863,0.7387433,0.74437964,0.5250291,0.23087585,-0.048787773,-0.9296882,-0.062479027,2.1518033
IND140406AAA,0.46447554,1.2510848,-0.24318275,0.12128858,0.9468767,0.13025977,0.09216868,0.49878502,0.27717885,0.41485307,-0.1404715,0.42392996,0.14722006,-0.25571173,-2.0420609,-0.773854,-0.07812825,-0.449957,-0.23601046,0.38737085,0.28109065,-0.3597648,-0.84941274,0.36313283,0.6433178,0.6597857,0.5759897,0.19713077,-0.06903259,-0.8713064,0.06252935,1.8847793
IND140501AAA,-0.227189,1.0201906,0.03160459,-0.7005633,1.3913671,0.66679275,-0.19624393,0.67243177,0.3353828,0.022678407,0.48252425,0.52801955,-0.22538014,0.21738258,-0.54084766,0.15159792,0.31120282,0.022270132,-0.5009346,0.9007591,-0.2951201,-0.027849676,-0.15867405,-0.22739194,0.03661116,0.5241563,0.4750088,-0.1867959,-0.25587144,-0.60849446,-0.044073217,1.3132466
IND140603AAA,-0.22136018,0.98468685,-0.23223612,-0.2252583,1.4131825,0.41613144,-0.23419225,0.6494202,0.27313268,0.12021938,0.3838799,0.46350777,-0.30275592,-0.048087213,-0.60801566,-0.033207584,0.107913114,0.16056421,-0.4677939,0.7418099,-0.47153088,0.012679795,-0.13124202,-0.19799024,0.3682862,0.57281023,0.66537637,-0.11622877,-0.10753227,-0.4417467,-0.03722785,1.1992911
IND140901AAA,-0.075010434,1.2827778,-0.24174821,-0.7556154,1.7211002,0.5694756,0.036587685,0.49516308,0.40689284,-0.12560149,0.52372295,0.6097358,-0.3791196,0.023745604,-0.8127764,0.11683145,0.08314984,0.15977216,-0.75777054,0.6946242,-0.21335422,-0.3290333,0.075741574,-0.6123762,0.32643294,0.38688332,0.5148462,-0.049447034,-0.10804697,-0.4972764,0.0021097276,1.295468
IND141003AAB,0.07274629,0.59360904,-0.08564373,-0.020727815,0.6800484,0.09207832,0.025720643,0.29730684,0.17844877,0.18119898,0.027569758,0.2165309,-0.09569463,-0.18374904,-0.8923413,-0.2841768,-0.1600104,-0.17994204,-0.14222741,0.3174498,0.17049968,0.013717111,-0.26099998,0.14209844,0.3004714,0.42083207,0.35638037,-0.013180998,-0.044248037,-0.28953764,0.08774263,0.91623384
IND141010AAA,0.078831255,0.61859787,-0.20630163,0.011804761,0.7061983,0.09285346,0.012894329,0.329927,0.1239358,0.14766987,-0.014351995,0.21987332,-0.07893998,-0.11491555,-0.8390938,-0.3068975,-0.06543182,-0.12245814,-0.2058684,0.18738055,0.12423295,0.0039368365,-0.24129269,0.062625036,0.33750433,0.34278023,0.31911504,-0.010789434,-0.03195985,-0.27863503,0.02591343,0.8635394
IND141109AAA,0.13551131,0.8630683,-0.15206039,0.0028768873,0.98641175,0.15572774,-0.0015919899,0.4462587,0.27597028,0.22208157,0.0980912,0.25283274,-0.19624761,-0.20173946,-1.1961865,-0.27233112,-0.12958124,-0.15588968,-0.2345928,0.45634463,0.042245105,-0.029134266,-0.2650477,0.12578791,0.4071261,0.55127376,0.5224599,-0.016425205,-0.06409668,-0.4495976,0.016641717,1.2167417
IND141115AAA,0.17327432,1.0972145,-0.25829342,-0.07062421,1.1740223,0.12435332,0.038653307,0.5543073,0.35529462,0.2971117,0.10975548,0.37352887,0.05746986,-0.28990278,-1.8094693,-0.5887544,-0.11771139,-0.22665806,-0.25179124,0.4313519,0.15163632,-0.14603777,-0.60985196,0.210247,0.6575966,0.60268897,0.6449255,0.13899729,-0.021638839,-0.6870584,0.010398926,1.7589741
IND142001AAB,0.15086466,1.232628,-0.515516,-0.2672469,1.8056,0.20745276,0.29246128,0.92470974,0.41042075,0.16732357,0.49187717,0.73866934,-0.18313484,0.09914894,-1.320865,-0.35747996,-0.04611902,-0.009760821,-0.3022925,0.64127135,0.15620774,0.52497184,-0.32719967,0.17492059,0.68329054,0.6362942,0.5976971,-0.17193806,0.05556928,-0.38260877,-0.07181075,1.7523799
IND142026AAA,0.14871866,0.6976181,-0.11091957,0.01732351,0.76447296,0.08982473,0.05597215,0.338592,0.21985792,0.17638649,0.069768235,0.24872562,-0.092641026,-0.0755998,-0.9634884,-0.32546905,-0.12389094,-0.13252161,-0.1181308,0.3788069,0.10714572,0.045313723,-0.25295594,0.16059484,0.35048637,0.40548596,0.4306847,-0.019355306,-0.00014353657,-0.2942131,0.0065273168,0.9780903
IND142401AAA,0.41113093,1.3157566,-0.3681291,-0.11947927,1.356049,0.20429704,0.21166052,0.7104535,0.45384923,0.30748975,-0.037161116,0.68262297,0.13846725,-0.33838767,-2.0790958,-0.7381685,-0.042274047,-0.21571273,-0.36568215,0.5039546,0.27160656,-0.18613796,-0.7460805,0.25478962,0.7184507,0.73477495,0.6190972,0.16145378,-0.07441902,-0.8641647,-0.009863319,2.0542922
IND143001AAA,0.042323884,1.599661,0.12582704,0.05225353,1.4110348,0.5344242,0.19342798,0.8322384,0.15916598,0.1669821,0.2612789,0.53720194,-0.6538693,-0.5778807,-1.2047173,-0.014332066,0.047484476,-0.60692304,-0.54834026,0.66913724,0.33416066,-0.41281486,-0.44708204,0.08333223,0.6546093,0.628744,0.87516505,0.20480728,-0.40965438,-1.1399571,0.49512735,1.9510524
IND144001AAA,0.065159164,1.2969592,0.261292,0.26015314,1.2267909,0.15858223,-0.11795162,0.5263428,0.18953778,0.53672755,0.041803367,0.22596344,-0.56108785,-0.710868,-1.4207344,-0.27916074,-0.2820031,-0.86120653,-0.13884446,0.6345608,0.4885727,-0.47450233,-0.474776,0.21309954,0.4811134,0.67221135,0.9838333,0.12401466,-0.33262557,-0.9017101,0.5774052,2.016488
IND144001AAB,-0.06199228,1.6764567,0.038349163,-0.030198079,1.3957081,0.5346949,0.19725466,1.0200619,0.45401025,0.3285862,0.48797384,0.5078999,-0.56538665,-0.5426029,-1.1843593,-0.0684599,0.005048134,-0.55256885,-0.2961484,0.655168,0.43576542,-0.41113582,-0.41604155,0.10449974,0.5992302,0.43634188,0.9548899,0.23084334,-0.24750501,-1.2254668,0.6314394,1.9107364
IND144001AAC,0.1136038,0.533335,-0.1903727,0.0018717293,0.72068703,0.17100124,-0.03491295,0.32298216,0.17510869,0.12548195,0.26490465,0.18210502,-0.07601179,-0.118939966,-0.5268362,-0.20115986,-0.13965794,-0.105088316,-0.255913,0.18045862,-0.08078713,-0.10112854,-0.124837905,-0.2198469,0.24984293,0.39631513,0.24174836,-0.056843452,-0.034351625,-0.25650334,0.16244864,0.6830889
IND144040AAA,-0.010207375,1.408834,0.37229744,0.20945418,1.3750035,0.21918514,-0.1540023,0.5422448,0.20887588,0.56618,0.19229421,0.3055993,-0.6525783,-0.6653017,-1.4943501,-0.34395614,-0.183813,-0.93578833,-0.23294555,0.5914885,0.52703387,-0.54740214,-0.60570186,0.09175893,0.4028171,0.614558,0.9951731,0.15369068,-0.36644393,-0.983109,0.66150403,2.0326724
IND144401AAB,0.27429977,1.5859636,0.17342772,0.17504658,1.3452498,0.42207247,0.075787924,0.7457301,0.17108268,0.29830927,0.22714195,0.546428,-0.64164454,-0.5665151,-1.1563132,-0.17801984,0.019279625,-0.79324985,-0.35738403,0.71229863,0.34836087,-0.3616478,-0.56439567,-0.0068707825,0.42778698,0.5260914,0.8261017,0.111755356,-0.42298356,-1.0323231,0.63160014,1.9478102
IND144514AAA,0.20200814,1.1889931,-0.21963176,0.004479198,1.4076219,0.12843722,0.03895567,0.61818016,0.3610391,0.27087602,0.08597893,0.4317955,-0.12580837,-0.38044107,-1.817192,-0.6879954,-0.13672781,-0.26994982,-0.30447683,0.42425284,0.17472522,-0.018789236,-0.6778147,0.23221564,0.5525985,0.6245452,0.6420134,0.09592963,-0.05672113,-0.70204383,0.11335635,1.8888662
IND144527AAA,0.13747923,0.59195894,-0.10009891,-0.051712602,0.69276345,0.06780002,0.012971011,0.29923788,0.24254431,0.17471446,0.034897644,0.26008168,-0.030108113,-0.099321865,-0.8927086,-0.28848067,-0.07075678,-0.12264381,-0.16004914,0.29140237,0.09143048,-0.019947281,-0.29681122,0.070590794,0.3201133,0.41133234,0.3467184,-0.049152974,-0.049221918,-0.3022649,-0.016328244,0.9101927
IND144601AAA,0.04797328,1.4564972,0.27359957,0.23841377,1.4307492,0.23091343,-0.1824581,0.5459589,0.29330397,0.61288446,0.10349702,0.24022616,-0.63463306,-0.6784963,-1.591487,-0.3375722,-0.27179074,-0.94867265,-0.25245705,0.625376,0.42940298,-0.541153,-0.60219884,0.086266965,0.4606576,0.7055208,0.98106635,0.12336324,-0.36875787,-0.9425737,0.68912977,2.1501815
IND145001AAA,0.7944167,0.35533595,0.51391226,0.25265878,2.000916,-1.8552364,0.6118285,-0.027219124,0.6121942,0.9990208,0.72554606,0.50541896,-0.3723981,-0.55719787,0.8214559,-1.1681218,-0.20528165,0.1430706,1.1015248,0.004408513,0.6447318,-1.5480812,-0.3033486,-0.25620744,0.22628559,0.22598992,-0.30434018,-0.36976537,0.29052922,-1.3493118,-0.9503871,2.2266173
IND147001AAB,-0.012762684,1.2533333,-0.070273645,-0.38433787,1.5834974,0.7170978,-0.21108301,0.5522293,0.10549246,0.18705074,0.13725677,0.42418456,-0.3925026,0.20051777,-0.6363273,0.17376034,-0.11255762,-0.21405938,-0.71023446,1.0135714,-0.3584488,-0.26329625,0.2814003,-0.43491745,0.32886073,0.8701274,0.62609386,-0.28238675,-0.09204624,-0.42283854,-0.16842572,1.3662308
IND147001AAD,-0.33031365,1.0655508,-0.21463083,-0.42576605,1.3809918,0.6727726,-0.27621496,0.6404312,-0.026702924,0.13084051,0.24522482,0.48572582,-0.20727348,0.05971733,-0.2519023,0.07038962,-0.27116174,-0.3301247,-0.83246714,0.9336932,-0.50916266,-0.17546408,0.26561946,-0.3610423,0.19702692,0.8265665,0.8207371,-0.09817427,-0.13193116,-0.38396135,-0.056305356,1.1423192
IND147101AAA,-0.19873294,1.5686429,-0.2057038,-0.6165057,1.5918626,0.45515797,-0.16014595,0.6385114,0.31969008,0.120506376,0.4698654,0.5864603,-0.2571471,0.24016778,-0.7868049,0.028029475,0.27308854,-0.17826563,-0.84552485,0.6319087,-0.58902586,-0.37815756,-0.13072932,-0.14178526,0.5542978,0.79129595,0.37175933,-0.38258332,-0.054642536,-0.65277815,-0.0041345637,1.6053827
IND147105AAA,-0.25936875,1.6735818,-0.144376,-0.8617293,1.6613545,0.4676734,-0.13457581,0.6769886,0.40693572,0.07026557,0.549382,0.72957057,-0.1722505,0.3264252,-0.8754789,0.23721832,0.28331858,-0.19781157,-0.83063436,0.7033917,-0.52978754,-0.46186656,-0.070251994,-0.29207787,0.39934015,0.8415679,0.40525508,-0.37755853,-0.17339969,-0.63820165,-0.061637953,1.6574076
IND147201AAA,-0.21662644,1.1921769,-0.16260073,-0.30854785,1.59787,0.5143072,-0.31006333,0.5929586,0.10515883,0.48302504,0.14249551,0.38898426,-0.36978662,0.31064332,-0.73442304,0.22449766,-0.46372265,-0.29727912,-0.6501804,1.212504,-0.5056535,-0.2816701,0.52644175,-0.4911967,0.26847,0.88864213,0.71918094,-0.33586118,-0.18106675,-0.27536052,-0.414445,1.2539138
IND147301AAA,0.4441907,1.3583981,-0.33946952,-0.046736784,1.1250459,0.05568959,0.12375388,0.6577885,0.34708017,0.4566937,-0.1110821,0.6553353,0.25514123,-0.35240507,-2.230379,-0.8338248,-0.04152773,-0.2982101,-0.43049136,0.2606723,0.23543291,-0.51178813,-0.903202,0.2788032,0.7065461,0.80781215,0.5377252,0.14691043,-0.023478955,-1.0865428,-0.03715649,2.011893
IND148001AAA,-0.25577995,1.0678319,-0.1250592,-0.22780365,1.4197471,0.45393476,-0.23643473,0.58092046,0.11049261,0.38864228,0.14466175,0.35526755,-0.27970082,0.14558879,-0.68556917,0.05834306,-0.33611467,-0.28290406,-0.4478181,1.048742,-0.31757143,-0.19612007,0.35672787,-0.31216928,0.2926988,0.8188834,0.7102504,-0.24393442,-0.20537984,-0.28106156,-0.32136577,1.1837443
IND148023AAA,-0.32910556,1.106932,-0.069564484,-0.28817412,1.5070403,0.59378135,-0.19034109,0.5205994,0.020130504,0.57805043,-0.046702787,0.58922017,-0.436187,0.20855083,-0.63983697,0.21616152,-0.42011023,-0.369753,-0.7310818,1.1823924,-0.43346408,-0.3965583,0.4684916,-0.61085725,0.19634645,1.116609,0.72184384,-0.30428436,-0.19954915,-0.22451138,-0.48350966,1.2884263
IND148024AAB,-0.2224462,1.0278534,-0.18121369,-0.22722086,1.2211107,0.36249036,-0.23756443,0.513675,0.08719047,0.40909043,0.10104125,0.32252014,-0.29895574,0.110976465,-0.68793637,0.016255327,-0.30902925,-0.24209385,-0.5032262,0.85025537,-0.3646487,-0.20286287,0.23856066,-0.33366764,0.27736723,0.7668449,0.6396314,-0.2649379,-0.06533662,-0.32282373,-0.22240828,1.0801861
IND148028AAA,-0.048997648,0.61504567,-0.10517907,-0.19174348,0.70961344,0.15269382,-0.09980324,0.29078805,0.11974903,0.28420052,0.07350188,0.2409149,-0.17865247,0.06954759,-0.5198335,-0.001166759,-0.11761266,-0.090548664,-0.26369646,0.41075984,-0.12593205,-0.13544598,0.12625225,-0.17025109,0.17834881,0.45108896,0.37121335,-0.15569805,-0.084374964,-0.2007473,-0.1391697,0.69994867
IND148101AAA,0.13030288,1.2060367,-0.4166893,-0.2330257,2.6341739,0.115904294,0.17683788,0.9197445,0.30262217,0.032195594,1.0044857,1.1362209,-0.22422141,0.56478053,-0.61628586,-0.17039242,-0.3161502,0.29464766,-0.12887949,1.043964,0.35098705,0.8347741,-0.013444597,0.23046584,0.43992618,0.6300048,0.73962635,-0.39820012,0.039802376,0.036535565,-0.3170705,1.6486461
IND148102AAA,0.05375732,1.1961145,-0.41792408,-0.27198353,2.6576674,0.18941225,0.15089618,0.99671054,0.285636,0.17920946,1.0757409,1.1470696,-0.31007648,0.6084147,-0.46952593,-0.109040044,-0.34612373,0.37601665,-0.13217054,0.96351206,0.42072722,0.63349175,0.13676748,0.055142544,0.25586164,0.6618973,0.69169205,-0.5975463,-0.038314316,0.12400186,-0.48497102,1.4906267
IND151001AAA,-0.037614856,1.4007865,-0.5563342,-0.5507147,2.0915375,-0.08200262,0.37890783,1.4043345,0.44640106,0.020224731,0.78585047,1.1269398,-0.22981818,0.47646168,-0.9316815,0.23861144,-0.18727557,0.2221269,-0.37397948,0.8473646,0.74357957,0.4632557,-0.16757382,0.06290011,0.5929022,0.54137063,0.65306693,-0.7853276,0.13426986,-0.2585113,-0.43521088,1.3397733
IND151103AAA,-0.011837702,1.0329876,-0.16033673,-0.06102389,2.4433582,0.10458713,0.19318917,1.0248806,0.43857288,0.17392407,1.0476086,0.93364936,-0.18023312,0.36341712,-0.7233373,-0.27134976,-0.33237225,0.1627075,-0.016816448,1.0746224,0.36126962,0.8532084,-0.24013673,0.25965443,0.4194275,0.61833316,0.75590336,-0.2912645,-0.029221214,0.051354468,-0.27273777,1.6556175
IND151302AAA,0.15954572,0.9471449,-0.3960486,-0.016808726,2.686732,0.045512933,0.23345178,0.935975,0.6667242,0.23159926,0.9968203,1.096505,-0.2551208,0.58842427,-1.0056539,-0.34116796,-0.62536067,0.36930403,0.09772708,1.2205749,0.5133218,0.81957376,0.04907686,0.09775039,0.4043717,0.6896427,0.7656246,-0.4461683,-0.15489626,0.20203,-0.42069757,1.8357323
IND151505AAA,0.18967873,0.94812775,-0.31951833,-0.090149604,2.7464912,0.036920127,0.1026804,0.98828024,0.6275757,0.3293126,1.1037009,1.1221521,-0.24933198,0.711583,-0.8534121,-0.25895503,-0.5346655,0.35365093,0.14802098,1.2173096,0.33572468,0.7468335,0.08672204,0.050808035,0.3633721,0.6921505,0.75602305,-0.5354772,-0.020142246,0.25441623,-0.4100004,1.7593517
IND151506AAA,0.062412016,0.99002534,-0.24310015,0.022381905,2.7540085,0.15689225,0.08885337,0.96871984,0.59529096,0.2950736,1.0815203,0.959119,-0.34730628,0.6595415,-0.43334246,-0.14333986,-0.5238361,0.39973792,0.06319279,1.2041018,0.32489055,0.6491834,0.06597849,-0.068474516,0.28169584,0.65005386,0.8741817,-0.5045248,-0.077431664,0.25482458,-0.38224515,1.5970557
IND152024AAA,0.41271985,0.7050628,-0.7134224,-0.16540283,1.6469492,0.08112867,0.40612844,0.6458627,0.50995237,-0.0089529175,0.36951512,0.35414445,0.28304294,0.29129183,-1.8329078,-0.6191157,-0.07869738,0.04750417,0.25478035,0.7856691,0.05146682,0.60514444,-0.5859695,0.1374769,1.1903757,0.4396481,0.77157533,0.032001313,-0.10507042,-0.23379947,-0.33819214,2.1350296
IND152026AAA,0.31740087,0.9928587,-0.71398693,-0.46431366,1.7577262,0.30101553,0.5395317,0.96660197,0.663262,-0.010350826,0.57658374,0.4835496,0.08992298,0.19058602,-1.8269408,-0.41284764,0.13544546,0.018922588,0.07377382,0.83280957,-0.03272969,0.6790562,-0.67361164,0.13131641,1.1651103,0.38538957,0.88346684,0.14793214,-0.08454875,-0.63622785,-0.07453649,2.2741117
IND152101AAA,0.5154686,0.90175235,-0.61234593,-0.18218945,1.4846807,0.17200072,0.41234967,0.81033975,0.4650521,-0.031556033,0.30291957,0.33510628,0.15008992,0.18855083,-1.6464498,-0.5019178,0.08404972,-0.082207434,0.10670692,0.79823,0.01836393,0.5444545,-0.5287717,0.11963301,1.1019063,0.382947,0.7001174,0.108921915,-0.095246285,-0.34410256,-0.14899719,1.9770997
IND152107AAA,0.35416096,0.73105586,-0.6030564,-0.14314324,1.6803828,0.06305734,0.36876252,0.81115663,0.48719826,0.028666904,0.388225,0.3058804,0.088475786,0.20110174,-1.7600516,-0.54028153,-0.1106399,0.04242937,0.26747873,0.8751824,0.048312847,0.6263647,-0.52746415,0.18582074,1.161313,0.49096757,0.8772122,0.0992859,-0.015035743,-0.24524723,-0.22241014,2.135905
IND152116AAA,0.36964595,0.72721213,-0.5719741,-0.15605268,1.3561307,0.09247024,0.36913633,0.6416233,0.5068893,0.0586584,0.41800496,0.2314296,0.1184079,0.103478596,-1.7159139,-0.5062521,-0.062988006,-0.08522295,0.3086335,0.7654095,0.14733498,0.5985181,-0.55117995,0.12935239,0.9648032,0.3852474,0.68894374,0.11451058,-0.083798565,-0.23037371,-0.14948323,1.9596682
IND152123AAA,0.46988317,0.65984124,-0.67023075,-0.21353826,1.6947356,0.030305315,0.41415793,0.71909875,0.52058345,0.013212949,0.46632338,0.42231935,0.246574,0.37930104,-1.8912871,-0.5351922,-0.13789012,0.038865495,0.32448652,0.92732567,0.07904375,0.69638944,-0.48343077,0.15125632,1.1643639,0.4678762,0.7773336,0.04737823,-0.09536345,-0.1614502,-0.33824265,2.0922675
IND160002AAC,-0.2554065,1.7248602,-0.34632492,-0.9249605,1.2056304,0.3781686,0.069541745,0.42385426,0.21486895,0.049739193,0.65416497,0.34779584,0.11849704,0.10539727,-0.5278477,0.18755761,0.021997143,0.22096631,-0.76300025,0.5829865,-0.16567002,-0.20685686,-0.21442686,-0.1409352,0.53254753,0.627546,0.6056616,0.06442621,0.23290572,-0.5354585,0.31767425,1.311659
IND160002AAD,0.01522875,0.027796155,0.023803698,-0.02461985,0.18610297,-0.0013841963,-0.032829,0.05982041,-0.05012031,0.076372415,0.026094204,0.05253673,0.029949106,0.06640055,-0.029842256,-0.05696821,-0.07774678,-0.037766125,0.02663905,0.12637438,0.010677549,-0.07516124,-0.027601605,0.0146866795,0.0806586,0.01695451,0.056453247,0.0053701615,-0.022395834,-0.06970511,-0.07789078,0.18965416
IND160003AAA,-0.1810544,1.1784786,-0.07310952,-0.61247027,1.5965071,0.34721228,-0.17211746,0.74668413,0.13322808,0.13480163,0.51401216,0.5741804,-0.34561265,0.060196843,-0.6503107,-0.07591759,0.09246433,0.061663695,-0.7232739,0.44309872,-0.5598818,-0.1086337,-0.11921642,-0.30544835,0.49039122,0.65999764,0.66003585,-0.22809169,0.21713208,-0.5880552,0.005050092,1.2033343
IND160055AAA,-0.10184603,1.4619502,-0.41232073,-0.8563332,1.4817775,0.5427575,-0.24421479,0.6448845,0.12001231,-0.009677156,0.4767341,0.7303698,-0.43669826,0.021972911,-0.6119265,0.06031173,0.1959156,0.0897583,-0.7379584,0.6399694,-0.23262897,-0.2713333,0.06162835,-0.42840126,0.38390756,0.56635165,0.53623176,-0.06297308,-0.04308289,-0.46539742,-0.29332107,1.2482332
IND160102AAC,-0.13214773,1.3611299,-0.1830709,-0.63955486,1.3984528,0.41103202,-0.07008528,0.5428241,0.32563272,0.16886808,0.5398899,0.5314072,-0.36911342,0.18690665,-0.9936458,-0.0774739,0.1463459,0.2038931,-0.5674286,0.56918865,-0.27017137,-0.27011606,-0.21711248,-0.4070015,0.29764867,0.42085212,0.48899662,-0.36586648,-0.09218483,-0.33660862,0.16882877,1.3837875
IND160102AAD,0.022028275,0.5889321,-0.080743976,-0.18790732,0.82436156,0.21607141,-0.055316523,0.33267856,0.13564876,0.11793441,0.1347134,0.2056672,-0.16554585,0.09456505,-0.46858796,-0.11676275,-0.008359058,-0.06484817,-0.2170061,0.4455129,-0.14046797,-0.011306047,-0.021881074,-0.1623261,0.15971512,0.29965252,0.34158698,-0.1013102,-0.028166842,-0.25523168,-0.102521576,0.7228251
IND173025AAA,-0.30122408,1.3684562,-0.32922155,-0.5233648,1.7374445,0.31435117,-0.36098197,0.59879845,-0.19523303,0.31978232,0.50223327,0.44844574,-0.45731714,-0.11238475,-0.754714,-0.017009698,-0.042095594,0.1609286,-0.9019907,0.40429458,-0.34132665,-0.105049275,-0.1774768,-0.38534606,0.32867253,0.6939914,0.36221814,-0.31250426,-0.24966481,-0.53851163,-0.01324774,1.3549879
IND173212AAA,-0.22998436,1.5394982,-0.24310094,-0.43627942,1.657302,0.39157373,-0.4239657,0.59279704,0.14617081,0.03467727,0.50152075,0.26872644,-0.28662902,0.6003354,-0.6847383,-0.06550732,0.26836193,-0.23313563,-0.9340222,0.69750965,-0.37107742,-0.29666862,-0.000119862845,-0.50540745,0.42851287,0.667492,0.7207093,-0.4184099,0.22683609,-0.45735705,0.009094105,1.4099617
IND173220AAA,-0.19575554,1.2050865,-0.18101965,-0.408139,1.5278484,0.34676227,-0.33083212,0.47117746,0.1369326,0.16688815,0.3150929,0.3090363,-0.38853708,0.32617134,-0.6543578,-0.02643023,0.05312735,-0.13924435,-0.5910215,0.7319975,-0.29926196,-0.11972343,0.029849054,-0.3635068,0.39479312,0.54434645,0.7225604,-0.36679134,0.06373425,-0.33885536,-0.064846195,1.2749923
IND174001AAA,-0.26775435,1.4868547,-0.13611591,0.0020661054,1.736273,0.32229167,-0.43503603,0.4577465,0.12771094,0.7469223,0.606067,0.21697408,-0.7054399,0.42522907,-0.563976,0.1643807,0.065276794,-0.40320054,-0.6461002,1.103996,-0.46803695,-0.19632006,-0.02492584,-0.72604907,0.65750396,1.0100424,1.1314712,-0.29580456,-0.47038862,-0.16709533,-0.1824022,1.437052
IND174021AAA,-0.11714363,0.5856708,-0.087167114,0.013549873,0.77510965,0.018985111,-0.14429177,0.16976249,0.15316762,0.37412366,0.1712281,0.090513796,-0.2456559,0.14504299,-0.48679426,0.07036085,-0.09457866,-0.18891749,-0.20273483,0.47642124,-0.10967007,-0.07621904,0.06586376,-0.20606448,0.28525004,0.4963674,0.44967803,-0.12850046,-0.19174567,-0.06797073,-0.16494836,0.7095401
IND174101AAB,0.091259584,0.62216085,-0.041009005,-0.19858496,0.7555301,0.21520013,-0.19000922,0.3087024,-0.045688625,0.09031513,0.17118524,0.29007167,-0.20746833,0.024597725,-0.4453878,-0.15806426,0.035662543,-0.057229772,-0.3157268,0.2437254,-0.066635534,-0.11863642,-0.06287515,-0.0052253245,0.060922652,0.2612268,0.3548123,0.007449706,-0.025723064,-0.28522173,0.037703156,0.6608124
IND174103AAA,-0.106419146,1.4775017,-0.12989253,-0.57286924,1.5246232,0.32649443,-0.3950258,0.8027679,0.20618048,0.006199552,0.38150263,0.5130765,-0.40534878,0.28993866,-0.5178365,0.09570665,0.225164,-0.2110614,-0.7526033,0.5592951,-0.40295726,-0.18250538,0.0015033154,-0.47678295,0.3639375,0.56393325,0.75602627,-0.27240518,-0.08940603,-0.5452366,0.21547547,1.4906906
IND174307AAA,-0.053391866,1.290182,-0.21286087,-0.35772398,1.4684108,0.14769635,-0.29456258,0.6367911,0.14559399,0.47800618,0.43302268,0.5217576,-0.35000968,-0.04771564,-0.93970275,0.101705335,-0.15512641,0.049299367,-0.52804387,0.67126656,-0.122925326,-0.13975748,0.14086452,-0.23013258,0.27241313,0.7857992,0.79363906,-0.14672598,-0.11092855,-0.42479262,-0.22498241,1.2601781
IND175001AAA,-0.4709434,1.599471,-0.102024704,-0.23075683,1.685318,0.33408144,-0.39721683,0.44896024,0.13196845,0.6852165,0.5115217,0.2214521,-0.6317103,0.41901705,-0.60170203,0.19157758,0.13264279,-0.45685163,-0.9003302,1.0282319,-0.41804412,-0.3672674,-0.084260285,-0.8298509,0.56636435,0.9065834,1.0732423,-0.28028706,-0.34623793,-0.29339272,-0.12149691,1.4333986
IND175015AAA,-0.21000354,1.0254456,-0.04185476,-0.039910678,1.208094,0.12413465,-0.34488112,0.18779193,0.16500473,0.69904643,0.22620554,0.16874638,-0.4433683,0.24302989,-0.6412564,0.1504608,-0.17271991,-0.38110554,-0.38618585,0.81072444,-0.24603799,-0.17204542,0.033173304,-0.47207612,0.4333028,0.8612813,0.84660035,-0.19965541,-0.36998615,-0.13398452,-0.23377073,1.1605667
IND175018AAA,-0.33563247,1.6162521,0.06596148,-0.170909,1.7197965,0.27324316,-0.55660814,0.46054643,0.061225507,0.78605497,0.58893853,0.3790405,-0.6985539,0.4542584,-0.58983564,0.26299098,-0.019478573,-0.55626714,-0.7464187,1.0783693,-0.4336036,-0.30651188,0.039017413,-0.7514811,0.51380223,1.0564218,1.1300142,-0.2510854,-0.5135465,-0.16043633,-0.18340601,1.505142
IND175101AAA,-0.48795757,1.6010673,0.0114991525,-0.20203876,1.5100957,0.24017863,-0.4227187,0.35490668,0.17175514,0.36564663,0.5672035,0.3196505,-0.6294899,0.4566493,-0.6380502,0.23155656,0.15719439,-0.43694863,-0.9182552,0.8819435,-0.42926046,-0.26164898,-0.22563612,-0.76488787,0.2998803,0.716933,0.83482546,-0.03346774,-0.373004,-0.4505038,-0.17211695,1.3331622
IND176001AAA,0.06465813,0.04685792,-0.01712063,-0.049422465,0.3486701,-0.0986155,0.00837715,0.012847959,-0.038680594,0.21170743,-0.015352267,0.17129102,0.117405705,0.14513826,-0.11569664,-0.042017207,-0.15610863,-0.07838715,0.14534587,0.11577001,0.06774027,-0.24311301,-0.11784377,-0.008072043,0.1780341,0.05573066,0.07603046,-0.045841306,-0.08292934,-0.07604284,-0.09205644,0.3984152
IND176001AAB,0.06952958,0.059517514,0.046034694,-0.09239202,0.3556708,-0.17092636,0.036584325,0.02327958,-0.052978165,0.23063143,-0.035538904,0.1787375,0.07234516,0.1477201,-0.11804647,-0.0681135,-0.15833771,-0.13967262,0.17636722,0.112717494,0.10876387,-0.23809978,-0.06869134,-0.045338187,0.14611612,-0.025446257,0.105545245,-0.053143263,-0.035166785,-0.06851297,-0.10207697,0.35539162
IND176041AAA,-0.008058995,1.3185949,-0.1914481,-0.5257347,1.4928937,0.34916216,-0.39987943,0.7251866,0.2013346,0.4509296,0.47854057,0.5170713,-0.34660754,0.0696589,-0.8752714,0.15555334,0.0007280004,0.16155046,-0.46292835,0.77987814,-0.31400555,-0.27637765,0.14814566,-0.23741849,0.16258074,0.84251404,0.7437579,-0.18048592,-0.1427517,-0.47645545,-0.2597403,1.090052
IND176048AAA,-0.19148855,0.91415757,-0.06208676,0.017050082,1.02127,0.16039768,-0.27309075,0.25191075,0.16966377,0.518529,0.25455838,0.112875,-0.41202265,0.08476519,-0.7085441,0.04402955,-0.12703817,-0.33032942,-0.36614907,0.6975454,-0.17915641,-0.11849994,0.035035226,-0.27408877,0.4549199,0.7201984,0.73610795,-0.19537258,-0.27644303,-0.16266593,-0.16420817,1.0839533
IND176061AAA,-0.0017977846,0.8374252,-0.087431125,-0.3739613,1.1896385,0.10817437,-0.026716713,0.5608943,0.13292149,0.11614373,0.25522265,0.5209626,-0.35344565,0.1069506,-0.46635023,0.040004823,0.034117818,0.08166878,-0.45615724,0.25266674,-0.2045903,0.12694125,-0.07640271,-0.27105787,0.21292949,0.46048543,0.37456423,-0.26110595,0.026082799,-0.34778005,-0.08270435,0.85215884
IND176110AAB,-0.036946476,0.81528896,-0.30617455,-0.31751102,0.99605834,0.28898755,-0.032895204,0.41601974,0.18383689,0.20236789,0.15683962,0.3473706,-0.15681641,0.1069511,-0.56386673,0.009056562,0.024397532,-0.00011525318,-0.4503855,0.47276196,-0.19165657,-0.0050482745,-0.02421514,-0.12698749,0.21185173,0.37511608,0.43188506,-0.1580827,-0.060982876,-0.24013004,-0.09182529,0.80838996
IND176201AAA,0.81690747,0.3260302,0.4619254,0.22634456,1.7893119,-1.7675802,0.5971268,-0.04676257,0.5895645,0.8930102,0.61944264,0.44216296,-0.40336934,-0.58903426,0.79910934,-1.1418711,-0.19362685,0.113439724,0.973765,-0.027323406,0.5847705,-1.4546446,-0.3046118,-0.16368069,0.20037034,0.22689126,-0.26794913,-0.32883948,0.2262381,-1.3217223,-0.8443436,2.0574648
IND176215AAA,-0.014857087,0.5829571,-0.13794853,-0.15670341,0.869808,0.16651914,-0.042030152,0.34883186,0.16638175,0.14297329,0.1906493,0.28574285,-0.17198625,0.036200725,-0.5269018,-0.020510977,-0.11946165,-0.029605031,-0.20502158,0.37171632,-0.09171749,-0.0059920806,-0.054075364,-0.11577583,0.2678832,0.37559578,0.35404325,-0.22384802,-0.048887104,-0.17034648,-0.07841556,0.72258896
IND176303AAA,0.79822147,0.32364285,0.5101367,0.18786402,1.9834515,-1.9345213,0.6649241,-0.039262448,0.6531022,1.0681105,0.6928262,0.5733246,-0.38837686,-0.5785623,0.84592825,-1.1981732,-0.12519436,0.17080477,1.0636418,-0.056005374,0.70499134,-1.5745734,-0.37988102,-0.190037,0.29407045,0.22619586,-0.31974912,-0.353934,0.30623564,-1.4864951,-0.9802076,2.2241752
IND176310AAA,0.8521798,0.36990157,0.534115,0.2561719,1.9514965,-1.9205414,0.6481194,-0.08670672,0.6034277,1.0460429,0.70057803,0.4682835,-0.43434185,-0.66372687,0.8844963,-1.2158685,-0.18251412,0.056409534,1.1085129,-0.053552654,0.70419174,-1.576332,-0.3872141,-0.20189503,0.26611677,0.24725175,-0.32790682,-0.33911806,0.3012298,-1.4865197,-0.97554123,2.295215
IND177001AAA,-0.0045376597,0.5878824,-0.2852578,-0.17128633,0.8431429,0.2219599,-0.030720536,0.22724,0.12921238,0.2403811,0.15328184,0.2642887,-0.14874578,0.12046904,-0.44286662,0.0025940684,-0.04661679,0.04200803,-0.19214685,0.4260247,-0.12334877,0.06762475,-0.045175593,-0.10528276,0.16553715,0.35264337,0.32583484,-0.13541819,-0.057353277,-0.13871677,-0.15911166,0.65251666
IND177033AAA,-0.041743625,0.99134946,-0.4110532,-0.5787204,1.0741986,0.45658392,-0.049502652,0.37320134,0.17825674,0.26282203,0.12968308,0.5528684,-0.19716834,0.17199945,-0.474515,0.17884332,0.013101084,0.025579967,-0.6817758,0.38057718,-0.19604993,-0.13439919,-0.026740046,-0.100243844,0.1228152,0.42727196,0.35942063,-0.18548498,-0.053346105,-0.27616018,-0.117803276,0.7492152
IND177101AAA,0.08719331,0.06464961,-0.036055695,-0.019494256,0.31879532,-0.15444025,-0.035601396,-0.0047099963,-0.07339722,0.2715638,-0.07432918,0.19490036,0.11562495,0.14947411,-0.08084358,0.002062781,-0.20044143,-0.07918864,0.11510797,0.02794774,0.14483446,-0.24115597,-0.049237132,-0.0022165168,0.14201719,0.059233326,0.19898027,-0.099157035,-0.08844436,-0.06606302,-0.0825236,0.4108902
IND177203AAA,0.050229415,0.046269014,-0.007820016,-0.07382794,0.36622214,-0.12966992,0.010750289,-0.07130267,-0.03594966,0.17939013,0.03364853,0.1693895,0.10239826,0.09633495,-0.15603034,-0.09025039,-0.1920034,-0.09871177,0.12177011,0.15512292,0.11255504,-0.2502943,-0.078042276,-0.060367487,0.12302847,0.0892986,0.100836575,-0.039894544,0.000891202,-0.055478003,-0.15060689,0.36016738
IND181152AAA,0.010456736,1.2036399,-0.32344553,-0.744284,1.6378663,0.7663031,-0.18548653,1.1185867,0.55660987,0.7710571,0.364374,0.41926906,-0.110621125,0.13816406,-0.9572342,0.009380696,0.12182087,0.5756084,-0.3118395,0.6800834,-0.69430995,-0.666454,-0.43458655,-0.39029598,0.6592204,0.9798991,0.98973536,-0.32321173,0.44821203,-0.7359354,-0.41365597,1.3789499
IND181152AAB,-0.04163199,1.029828,0.0925276,-0.8262198,1.7897682,0.74995285,-0.41829333,1.00248,0.72705305,0.93657696,0.56590986,0.10561556,-0.38725144,0.23678023,-0.68366504,-0.030156199,0.07506965,0.60105044,-0.055136796,0.6026873,-0.94930387,-0.8728261,-0.44354114,-0.3594104,0.59218717,1.0242274,0.9504465,-0.28338194,0.82254374,-0.7284142,-0.5748798,1.4836434
IND181201AAB,-0.10446119,0.8715205,0.016717488,-0.7509428,1.6094966,0.6317219,-0.49214444,0.8530125,0.64852303,1.0441599,0.5497281,0.04378917,-0.16655786,0.30628008,-0.64215934,0.048395783,-0.06341745,0.56107473,0.117611855,0.6909349,-0.98488694,-0.9148465,-0.2811632,-0.33361405,0.5084662,0.95436466,0.95610136,-0.34162194,0.669024,-0.5589073,-0.6346119,1.3385353
IND184104AAA,-0.14783597,1.245549,-0.35368907,-0.52048635,1.4827349,0.6271014,-0.18837129,1.0512985,0.35673073,0.72902864,0.29509145,0.4463104,-0.36421967,-0.06044734,-0.6903134,0.14237785,0.07163336,0.27153787,-0.444386,0.59687525,-0.6878753,-0.6578185,-0.19076288,-0.2735558,0.62534386,0.92843664,0.8481288,-0.34713915,0.505487,-0.7951457,-0.27936688,1.4487873
IND184121AAA,-0.08735456,1.2681818,-0.37683854,-0.8303379,1.7629203,0.9029457,-0.27834782,1.0539817,0.61584395,0.87720525,0.30928552,0.542251,-0.14275698,0.11715629,-0.6635061,-0.021779725,0.10656719,0.7324179,-0.41617033,0.63108385,-0.7743445,-0.77024555,-0.5343891,-0.32190076,0.50128496,0.94939786,0.8637787,-0.17441542,0.48071638,-0.77502036,-0.55610555,1.2380527
IND201001AAA,0.22330715,0.8196329,0.51445633,0.052274887,1.8705527,0.6597491,-0.66912967,-0.26331568,-0.63997793,0.34932506,0.5828581,0.8016344,0.061628405,-0.43044582,1.9256991,-0.47911605,-0.4008844,-0.15037298,-0.2894255,0.10276864,0.9876501,-0.8479031,-0.88953894,0.106537975,0.066655524,-0.24893862,1.3114963,0.8279121,0.11811943,0.055502024,0.19643502,1.4607141
IND201001AAC,-0.1396617,0.813303,0.13468239,-0.29308444,0.94622386,0.21562198,-0.13495815,0.52760464,-0.7552526,-0.26107436,0.37926024,0.29747632,-0.15258037,-0.29821545,0.57229483,-0.26133102,0.31275377,-0.4088649,-0.5132093,-0.3056248,-0.32581025,-0.6396237,-0.44633067,-0.22724931,0.60085046,-0.14700261,0.23778866,0.8016123,0.16830009,-0.70737505,0.34590897,0.87809557
IND201005AAA,-0.17564437,0.8286605,0.7517321,0.031039994,1.9853116,0.535934,-0.55099773,-0.18802342,-0.45128092,0.45238936,0.49275953,0.44397554,0.13904752,-0.39415342,1.889098,-0.6007888,-0.35190624,-0.36591703,-0.48717692,0.3134418,0.8093759,-0.75035,-0.881037,0.07959245,0.3063318,-0.2208428,1.403713,0.83509123,0.11773126,-0.024250306,0.14474224,1.5120351
IND201007AAA,0.113142096,0.8155308,0.49978125,0.011462825,1.7787151,0.62692314,-0.4653252,-0.110251315,-0.52627605,0.32418275,0.6140305,0.5884623,-0.036375444,-0.3834737,1.6827983,-0.46038166,-0.27843052,-0.34066483,-0.7295251,0.12894902,0.66230065,-0.85298246,-0.7801481,0.11408044,0.097000755,0.16388199,1.2645013,0.69865125,0.15907018,-0.15413074,0.31796178,1.3483719
IND201007AAB,0.23412524,0.887477,0.41984552,-0.17223123,1.146755,0.56959105,-0.2038083,-0.10726521,-0.5112222,0.3260053,0.6540896,0.7212879,0.21807328,-0.22957598,1.5865996,-0.08665541,-0.2484441,-0.69194543,-0.7757549,-0.21788922,0.5863124,-0.89207494,-0.8212089,-0.25782868,0.6055174,0.3545322,1.4458073,0.7443568,0.011806332,-0.36649266,0.11819139,1.1016927
IND201204AAA,0.5319808,0.9015956,0.0030802707,-1.2912954,0.39329636,-0.09715782,-0.0032954183,0.7252502,-0.5534493,0.24264537,0.0026134306,1.3912226,0.20874937,0.15546247,-0.30617562,0.024663532,-0.015941804,-0.21847428,-0.79920954,-0.45746833,0.074624956,-1.3734976,-0.27242145,-0.14248611,0.27359545,0.1472621,0.48670954,-0.0047933497,-0.10044096,-1.1492963,-0.25163862,0.5167652
IND201301AAD,-0.23781615,1.0582416,-0.05235647,-0.7991184,0.9780162,0.20755377,-0.7292701,0.53138345,-0.9237728,0.33164325,-0.024003241,0.58340424,-0.4958403,0.08911643,0.68118757,-0.36456707,0.112535715,-0.30573988,-0.67280674,-0.6469123,-0.19085601,-1.141478,-0.46230733,-0.08798652,0.12891799,-0.33587226,0.23195711,0.44004437,0.24128814,-0.37966025,-0.060753923,0.78254753
IND201301AAF,-0.69354546,0.68693125,-0.3174245,-0.09958275,0.61106765,0.7601754,-0.2601099,-0.02831834,-0.7684024,0.54971224,0.40996805,0.2818035,0.54218054,0.021583669,1.4737263,0.18473218,-0.11827728,-1.0548047,-0.45611402,-0.4269681,0.28597152,-1.0735576,-1.0241086,-0.49317384,0.89384604,0.05828374,1.4326106,0.98681295,-0.23090231,-0.36255315,-0.5019616,1.5660486
IND201301AAL,-0.82083905,0.9698149,-0.44231653,-0.07587192,0.76942736,0.5314014,-0.48497084,-0.27905986,-0.81342834,0.6593799,0.3133338,0.002705201,0.62702125,-0.054573428,1.3929207,0.10206337,-0.104998045,-1.292965,-0.35301483,0.20449878,0.7548914,-1.6782138,-1.2749082,-0.40108514,1.1345136,0.16281372,1.598317,1.2031968,-0.3219574,-0.22327927,-0.9911991,1.9356176
IND201301AAM,-0.14228211,0.21858253,0.095421605,-0.1328118,1.2338032,0.38396847,0.48790386,0.38080868,-0.49517474,-0.24590594,0.36623704,0.5810726,-0.08681996,0.3304319,1.0403012,-0.15603635,0.36868966,-0.23542774,-0.5307126,-0.21519646,-0.43728912,-0.43354183,-0.47596878,-0.42253408,0.978387,-0.3654438,-0.12951282,0.24642071,-0.24304512,-0.78851515,0.2852975,0.6957819
IND201304AAA,-0.87497807,0.86958826,-0.4510505,-0.31792754,0.7153918,0.43278307,-0.14813338,-0.1469078,-0.80934733,0.65978485,0.4798778,0.39230144,0.5866918,-0.017684743,1.3674014,0.12458652,-0.22770427,-1.2384953,-0.58475095,-0.31291527,0.52077466,-1.1386223,-1.2499701,-0.5130285,1.0172874,0.24535269,1.3088204,1.151144,-0.267939,-0.30117065,-0.72450155,1.600905
IND201306AAA,-0.30916628,0.31913152,-0.19010162,-0.08454173,0.2480633,0.201139,-0.10008487,-0.11916045,-0.28899142,0.28514996,0.116381064,0.048827693,0.23465365,-0.06817936,0.47370112,-0.015768183,-0.17127718,-0.5614835,-0.1730898,0.056459304,0.2886192,-0.5132873,-0.5139734,-0.17969866,0.39136228,0.18203665,0.68444,0.44192362,-0.08898729,-0.018383754,-0.3813316,0.7082999
IND201307AAA,-0.8010462,0.9564161,-0.4226783,-0.23086567,0.5758206,0.46484774,-0.60978746,-0.2175128,-0.7565651,0.69679695,0.13377672,0.1131965,0.7698416,-0.04106266,1.091962,0.09341742,-0.4386255,-1.295065,-0.37248904,0.18117286,0.85646844,-1.6574619,-1.2771674,-0.53266126,1.0809581,0.49109706,1.6298887,1.1372303,-0.24404073,-0.07392635,-1.1050024,1.8112303
IND202001AAB,-0.020347022,1.4114851,0.01659518,-0.5777558,1.2258081,0.76896,-1.1998833,0.20512879,-1.4238771,0.9694538,-0.4667922,0.2780711,-0.63246036,0.21354964,0.6563387,-0.5060562,-0.019860866,-0.09872368,-0.7463652,-0.32051024,-0.15775001,-0.6587511,-0.90133387,0.30167618,0.48055518,-0.034027286,-0.122503825,0.26235113,0.27374208,-0.68014145,-0.3046201,1.4526917
IND202001AAC,-0.07833143,0.38083515,-0.024452811,-0.08762043,0.62232786,0.078175224,-0.50190294,0.006906637,-0.62336165,0.43135062,-0.2873015,0.2117586,-0.24798107,0.17352156,0.29676113,-0.36073524,-0.05102266,-0.1598946,-0.2601268,-0.10132453,-0.09416941,-0.2664435,-0.4252968,0.06591648,0.35528547,0.09548132,0.026116254,-0.009024031,0.04351823,-0.22793216,-0.057750877,0.57460684
IND203001AAA,-0.24091937,0.2839325,-0.21956272,-0.04399609,0.22695357,0.1776159,-0.17071585,-0.15218082,-0.29980162,0.35663497,-0.003985888,0.05115421,0.28682163,-0.04313419,0.37619317,0.026144788,-0.259636,-0.5239558,-0.12208504,0.030115983,0.3577568,-0.50069666,-0.4627125,-0.1968731,0.39753938,0.26825175,0.7346832,0.45213753,-0.16326094,0.027786978,-0.35785228,0.71825504
IND203131AAA,-0.45855695,0.37750933,-0.34040144,-0.042646773,0.21418476,0.18719807,-0.24800637,-0.21311343,-0.31688303,0.49458137,0.06316488,-0.0036664403,0.3659215,-0.05590202,0.5725902,0.09651993,-0.46371615,-0.7812602,-0.16051535,0.06730486,0.5294775,-0.6922019,-0.58242524,-0.2544758,0.5771567,0.41327953,0.95406526,0.6488913,-0.2447679,0.06329162,-0.57470375,0.98455644
IND203135AAA,-0.4772475,0.39910203,-0.4239881,-0.07112032,0.16551097,0.32053006,-0.28335184,-0.24560417,-0.41505447,0.58950233,0.042222314,0.04086206,0.51179206,-0.0006823621,0.5938972,0.1508376,-0.51658595,-0.9456853,-0.18104927,0.07895942,0.6350999,-0.844512,-0.7548308,-0.37874413,0.71935546,0.51955944,1.0958854,0.7883738,-0.27117738,0.055192385,-0.7275606,1.1858345
IND203205AAA,-0.6121158,0.73080945,-0.4865738,-0.20715435,0.78062505,0.8352098,-0.3320844,0.032126866,-0.6738516,0.22698313,0.34663954,0.25384524,0.46869105,0.015237718,1.3521829,0.2482875,-0.03620346,-1.0281379,-0.54271406,-0.2835179,0.24189514,-0.9759387,-1.1578802,-0.64890295,1.0461168,0.24254575,1.2733827,0.8936788,-0.2210798,-0.30212945,-0.3214141,1.4507593
IND203390AAA,-0.5851629,0.54762393,-0.48340788,-0.09144347,0.296906,0.33389822,-0.38244396,-0.24659671,-0.4870182,0.70284027,0.04182713,0.05817046,0.5343444,0.03325699,0.7303963,0.13459733,-0.5343456,-1.1538175,-0.2513319,0.09448108,0.6925339,-0.96239156,-0.860243,-0.42136425,0.8125707,0.54757625,1.2990546,0.8812351,-0.34288803,0.008415887,-0.8223292,1.3949943
IND203396AAB,-0.46914405,0.3758079,-0.33417085,-0.093219094,0.2088055,0.27251643,-0.25144452,-0.17379116,-0.38853133,0.46835363,0.11322337,0.080218226,0.44298267,-0.030323546,0.6108284,0.10770114,-0.386403,-0.8233308,-0.1660295,0.114378236,0.52590454,-0.79027385,-0.6886612,-0.30065858,0.6580465,0.37771735,0.9857947,0.6999552,-0.24612594,0.041442145,-0.6150807,1.0749768
IND204101AAA,-0.011963594,1.0519468,-0.11789019,-0.17212683,1.3208294,0.30726758,-0.92438084,0.2066183,-1.5200483,0.75675005,-0.25973666,0.16172214,-0.41510242,0.30751184,0.6961671,-0.43156242,0.3201637,-0.13154079,-0.95884365,-0.29635224,-0.0837042,-0.7068852,-0.940507,0.11546521,1.0527306,0.1263789,-0.1481007,-0.07791613,-0.042342708,-0.80993164,-0.13101931,1.2800852
IND204215AAA,-0.11660349,0.6036022,-0.044979785,-0.19037604,0.8689729,0.123929106,-0.7378698,-0.07147304,-1.0080359,0.7528592,-0.39854586,0.18233316,-0.33329275,0.24256596,0.43196785,-0.49451494,-0.17857602,-0.23268601,-0.36535007,-0.13953531,-0.11455162,-0.30377048,-0.5485011,0.04562349,0.4828104,0.22134228,-0.0045564114,-0.003331054,0.058315467,-0.32246807,-0.18514875,0.82188815
IND205001AAB,0.07948939,0.6130853,0.35665593,-0.70154387,1.4937803,0.55080813,-1.0579267,-0.0906164,-1.3702103,0.9988759,-0.58831453,0.17340955,-0.4840979,0.5351774,0.64831436,-0.87224,0.09556635,-0.17512056,-0.95546407,-0.59351605,-0.023494491,-0.9621688,-0.9347717,-0.10805876,1.0144439,0.31915092,-0.058582693,0.21950838,-0.12770103,-0.10319897,-0.080060646,1.0107305
IND205135AAA,-0.17560528,0.8105997,0.05719019,-0.24828908,1.1605259,0.2550868,-1.0413383,-0.051063813,-1.3730934,0.8878382,-0.5231713,0.06855025,-0.36026156,0.37883118,0.6388886,-0.64316237,0.1304946,-0.28929022,-0.8404134,-0.35302725,-0.2758912,-0.9373154,-1.0423002,0.14835292,0.93447393,0.102308586,0.13983709,0.21195185,0.06457167,-0.5012127,-0.24180801,1.1777991
IND206001AAA,-1.0389142,0.8200154,0.17939243,-0.18523918,1.4750537,0.4285003,0.43587774,0.24115324,-0.31451938,-0.4354416,0.067953005,0.11261199,-0.15921691,0.0743764,1.0915645,0.19607607,0.36069402,-0.23419805,-0.2744495,0.06989376,0.022854289,-1.3258241,-0.21238583,0.22920571,0.45625988,-0.4405051,0.021814948,0.048069134,0.058462527,-0.25312808,0.08405448,0.90315676
IND206122AAA,-0.96657306,0.8212104,0.19378349,-0.29328474,1.5896689,0.6143759,0.409091,0.27324387,-0.28121594,-0.5309426,0.11872457,-0.049731962,-0.09295405,0.12782961,0.7890826,0.12751092,0.39962488,-0.17167853,-0.26244906,-0.0700399,0.07238845,-1.445717,-0.17172793,0.38756645,0.5016228,-0.5309708,0.050617583,-0.04362743,0.19689229,-0.34470108,0.20316477,0.9863722
IND207001AAA,-0.054737076,0.7609084,-0.04718088,-0.16197559,0.94719476,0.2732702,-0.9015309,-0.0892421,-1.2023509,0.852744,-0.48102555,0.31244338,-0.45217687,0.26837718,0.49166328,-0.62051743,-0.23006065,-0.26347494,-0.4552798,-0.10979667,-0.17864369,-0.36715114,-0.72931707,0.10462714,0.591984,0.223552,-0.043395482,-0.010022123,0.032138586,-0.4225417,-0.1828215,1.0247982
IND207123AAA,0.002612724,1.1384176,-0.021520851,-0.40401375,1.2139465,0.36336803,-1.1112465,0.1409289,-1.2714164,0.9415,-0.40585223,0.20511462,-0.50249606,0.2642382,0.49170545,-0.68651235,0.015990615,-0.21745226,-0.76134115,-0.12775214,-0.2669171,-0.5573963,-0.92799795,0.1087646,0.69310653,0.09186308,0.026502592,0.013967465,0.13114299,-0.5394942,-0.22336777,1.2731172
IND207247AAB,-0.0693462,0.44094548,0.06747248,-0.7535734,1.4715774,0.24485245,-0.97963333,-0.20062655,-1.2295531,1.1096736,-0.85010135,0.22956432,-0.57465,0.69083804,0.48566312,-1.1087941,-0.2529725,-0.47048718,-0.99576837,-0.6434861,0.12274512,-1.1055233,-1.114306,-0.41782376,1.1017519,0.6463247,0.09898036,0.016346088,-0.29290855,0.086479485,-0.17616172,1.126951
IND207302AAA,-0.111287005,0.86715215,-0.045580924,-0.27682048,1.0893401,0.24138519,-1.0623528,-0.028898584,-1.4004759,0.927087,-0.423091,0.27709264,-0.46028137,0.309938,0.55777663,-0.6330975,-0.20335539,-0.18381704,-0.5394225,-0.1778416,-0.2015324,-0.43979973,-0.769246,0.11851556,0.6054441,0.24121381,-0.05036484,0.02427066,0.09562797,-0.48626634,-0.17674851,1.1013325
IND208006AAA,-0.6699848,0.56866586,0.015758324,-0.18044408,1.3246492,0.7825169,-0.45075524,-0.08879845,-0.25244254,-0.41743252,-0.29049876,0.076265104,-0.19999719,0.5321488,0.6782485,0.13340783,0.2533715,-0.48515546,-0.14266792,-0.123801924,-0.11980701,-1.9502072,-0.39287344,0.60145336,0.516866,-0.62442946,0.13484024,0.48082066,0.11546514,-0.23888294,0.100220464,0.999127
IND208012AAA,-0.778675,0.70189,-0.018256087,-0.20829725,1.6745843,0.781847,-0.2929489,0.043433055,-0.694669,-0.42538306,-0.34686297,0.23258367,-0.19783093,0.52618766,0.65726256,0.18206328,-0.071693175,-0.24224804,0.005691454,-0.27816066,-0.05550654,-2.0257907,-0.22236286,0.7465137,0.5760797,-0.8967843,0.024091056,0.38069534,0.17684694,-0.14382213,0.38755733,1.2597452
IND208017AAA,-0.38068685,0.32345146,-0.006348646,-0.08693494,0.76571095,0.17566924,-0.18744397,-0.12018297,-0.20185,-0.13486026,-0.1464728,0.14522962,0.022204809,0.105757,0.33799455,0.014440199,-0.0020631512,-0.13088116,-0.11806891,0.0058527817,-0.065083645,-0.87036717,-0.13524713,0.37374684,0.33318737,-0.3154619,0.048608337,0.0044774376,0.05296078,-0.31166604,0.06421969,0.52481765
IND208019AAA,-0.9135164,0.55655533,-0.32620692,-0.19921668,1.4069327,0.6564434,-0.5470432,-0.37252736,-0.5192162,-0.38933885,-0.17034625,0.3469203,-0.25734833,0.50556254,0.5501659,0.1907471,-0.0012876088,-0.25918564,-0.23929797,-0.35683838,-0.10641058,-1.9861797,-0.43529508,0.45239916,0.51393735,-0.6316864,0.03685085,0.42995363,0.12604481,0.018834021,0.20311283,1.1051571
IND209101AAA,-0.5662218,0.68532276,-0.07402467,-0.788128,1.4443091,0.9696841,-0.2689908,-0.42061248,-0.24210683,-0.25082594,-0.3607823,0.6406772,0.054285757,0.5236697,0.3858359,0.10621731,0.04140465,-0.6532677,-0.1646419,-0.42364916,0.047319148,-2.140509,0.07914797,0.93085825,0.5347167,-0.80924267,0.16538271,0.37255487,0.45050684,-0.14962365,0.27665418,1.2507021
IND209111AAA,-0.56630987,0.6750212,0.062202476,-0.82787436,1.6178588,0.82870334,-0.3845532,-0.54314363,-0.18557021,-0.10453773,-0.45354715,0.6577959,0.045586806,0.58862704,0.38711157,0.090438455,-0.062477805,-0.7826845,-0.09608426,-0.35954344,0.058740433,-2.353877,0.037413694,0.9746419,0.5436504,-0.86992234,0.1802683,0.530037,0.5781301,-0.15503994,0.29915377,1.3411489
IND209206AAB,-0.44631493,0.33327818,-0.077723294,-0.47275168,1.6334727,0.7983644,-0.33507708,-0.06931048,-0.40091133,-0.6028192,-0.031184925,0.13599712,-0.19795474,0.46851054,0.21746099,0.39019293,0.43558717,-0.26014632,-0.11808592,-0.49353552,-0.13858327,-1.9505185,-0.37079626,0.6320417,0.53321433,-0.50460696,0.02119835,0.4393345,0.17594907,0.084626876,0.32253492,1.3427634
IND209304AAA,-0.51177526,0.78518105,-0.06462166,0.0038914448,1.3690594,0.65511596,-0.20393968,-0.27833518,-0.4072749,-0.6268832,-0.17900766,0.25186664,0.019306587,0.6740235,0.5972854,0.14939497,0.20264362,-0.2720672,-0.19591613,-0.54787636,-0.3388969,-1.8317642,-0.08736765,0.46401757,0.20226522,-0.48098588,0.17215487,0.26710904,0.17761225,0.042245142,0.08634208,1.2063249
IND209625AAA,-0.07417464,0.34691975,0.120591454,-0.4980586,1.666297,0.36173043,-1.019529,-0.31286532,-1.2449822,1.2812058,-0.9524049,0.23537986,-0.59802467,0.97303355,0.48946446,-1.3221958,-0.19928843,-0.4462665,-0.88529056,-0.23188315,-0.0718238,-0.8110445,-1.4306408,-0.16052221,1.3279378,0.70107365,-0.031321533,-0.22054791,-0.43241367,0.09567384,-0.26357502,1.4870158
IND209721AAB,-0.077083126,0.40099987,0.104943626,-0.38198617,1.4722561,0.2761644,-1.0409881,-0.39999858,-1.1070594,1.2240447,-0.8268288,0.10988991,-0.5204803,0.84140617,0.43056664,-1.1156015,-0.25316557,-0.42037967,-0.6773776,-0.25691846,0.024107426,-0.719907,-1.1499617,-0.14249417,1.072875,0.65298575,-0.060525693,-0.20851232,-0.3975729,0.09706298,-0.31655487,1.3153657
IND209801AAA,-0.68365407,0.5416813,-0.31872022,-0.09513573,1.7285867,0.73733443,-0.35061076,-0.014741098,-0.14864925,-0.42820317,-0.40296435,0.39020452,-0.23697577,0.56827885,0.701662,0.07783363,0.10949862,-0.4721623,-0.022289868,-0.27809685,-0.20421503,-1.8330897,-0.0794826,0.70924443,0.5170572,-0.88867646,0.15615849,0.21179676,0.07943571,-0.22585629,0.5090377,1.2539322
IND210001AAA,-0.6120465,0.6831608,0.1255093,-0.105852194,1.9904253,0.823657,-0.5800094,-0.29759425,-0.44814098,-0.45260602,-0.20514722,0.11442204,-0.16261734,0.5367062,0.62798685,0.044248708,0.10139798,-0.6061172,0.08660216,0.0124752475,-0.29931074,-2.1572175,-0.18348016,0.94315,0.40165448,-0.74667317,0.057132598,0.5188787,0.11383803,-0.21381502,0.40732774,1.3011085
IND210301AAA,-0.6574654,0.31937325,-0.22369196,-0.3623246,1.6347176,0.7529057,-0.3543675,-0.059825752,-0.444289,-0.39924023,-0.076137364,0.2025254,-0.36149928,0.6475951,0.4285827,0.3113832,0.29592615,-0.37163463,-0.06851841,-0.41744304,0.058303032,-1.8093231,-0.43170905,0.7276195,0.4993548,-0.7154286,0.16062367,0.46136966,0.17975946,0.06549904,0.26773736,1.3144032
IND210427AAA,-0.6473679,0.826224,0.09240825,-0.09061252,1.8857677,0.86726767,-0.6578884,-0.22005403,-0.45836508,-0.4392439,-0.15770471,0.09865237,-0.21389563,0.3903292,0.6995025,0.1698019,0.028105376,-0.7779906,-0.006660184,0.09296256,-0.23666617,-2.1892757,-0.30126858,0.862367,0.55654377,-0.69812715,0.12333487,0.59987956,0.15882061,-0.3377805,0.4129759,1.2643992
IND210431AAA,-0.8231086,0.72539854,0.22629865,-0.6324039,1.7703612,0.48767692,-0.43234223,-0.6248288,-0.20308822,-0.1900538,-0.17012748,0.72816753,-0.12476544,0.3502226,0.802412,0.40122065,-0.0012044203,-0.8777746,-0.30412298,-0.26741123,-0.021997701,-2.2262332,-0.095932305,0.82229465,0.6090755,-0.6742573,0.10761357,0.5144511,0.63797617,-0.3681959,0.2278559,1.1932316
IND210501AAB,-0.37818933,0.36997125,-0.15709126,-0.007036872,0.8295931,0.26059526,-0.19998692,-0.21730104,-0.19044176,-0.06783818,-0.15635332,-0.04597349,-0.055036645,0.25238225,0.21480952,0.0261318,-0.013154244,-0.17530331,-0.10986081,-0.06740709,0.037139233,-1.0149304,-0.08926763,0.28475177,0.28501162,-0.41582426,0.0697371,-0.035828263,0.046879042,-0.1459032,0.05901137,0.5976091
IND211002AAB,-0.9877936,0.93677336,-0.31730893,0.5410293,1.3506898,0.7970422,-0.58402395,-0.602596,-0.45256448,0.023343021,-0.27967346,-0.15742797,0.22924112,0.7329854,0.0487544,-0.4015804,-0.20265655,-0.089497276,-0.26135516,-0.19698757,-0.13846153,-2.4345596,-0.544281,0.72890896,0.29138705,-0.8159017,0.3370625,-0.35640478,-0.49195075,-0.53861976,-0.11847307,1.2076814
IND211008AAA,-0.45501906,0.46228424,-0.12548563,0.18550734,0.71952766,0.10853553,-0.24232009,-0.37862352,-0.13569066,0.13302277,-0.22619699,-0.12985437,0.05155955,0.372047,-0.083767615,-0.11906055,-0.11183155,-0.0898453,-0.07370865,0.00035520966,-0.018169265,-1.0911874,-0.20255186,0.34907743,0.04407562,-0.32895795,0.059256032,-0.15710762,-0.14151706,-0.31409934,-0.18201715,0.49838218
IND211010AAB,-0.41595355,0.3433264,-0.16224378,0.17016453,0.70847434,0.21924838,-0.23380339,-0.34801823,-0.13615978,0.049372006,-0.22650442,-0.14958362,0.115407735,0.4009046,-0.067664854,-0.094739385,-0.11099174,-0.12886538,-0.070398256,0.09348377,-0.037121363,-1.0875772,-0.21115802,0.28914732,0.09875559,-0.370027,0.1045005,-0.111421846,-0.14241068,-0.2750119,-0.058293134,0.49958423
IND211011AAA,-1.074965,0.88006455,-0.29448298,0.5785803,1.5606707,0.47890726,-0.5122078,-0.91456133,-0.15411614,0.19095324,-0.3537329,-0.3025728,0.33489645,0.8446169,-0.32355,-0.54796785,-0.33196366,-0.03171729,0.015728924,0.3229954,-0.16439421,-2.4610872,-0.6156844,0.7019196,0.13245729,-0.8475805,0.29143092,-0.2718759,-0.5407533,-0.6192894,-0.32105476,1.077195
IND211013AAA,-0.69352376,0.66264373,-0.15983476,0.43373618,1.3505381,0.5087695,-0.45016274,-0.74445415,-0.31805855,0.031350553,-0.29430488,-0.34630644,0.082806766,0.8302302,-0.12443568,-0.24657327,-0.17437817,-0.16856506,0.054862674,-0.0043185917,-0.20792037,-2.0197468,-0.47204053,0.87909424,0.1940236,-0.71261054,0.21280311,-0.29741332,-0.44593203,-0.5170924,-0.112750694,1.0941356
IND212402AAA,-1.1875046,1.0681596,-0.27529156,0.6024068,1.6216639,0.41291976,-0.6669653,-1.0010616,-0.32763803,0.33942953,-0.2750536,-0.38079882,0.2958673,0.8012676,-0.23647371,-0.51212394,-0.4007754,-0.32110795,-0.04329386,0.3210059,-0.17824219,-2.4574304,-0.67682457,0.73727626,0.18829533,-0.77071863,0.2572405,-0.3511798,-0.58665496,-0.77591467,-0.41161546,1.1040404
IND212501AAA,-1.1056101,0.97188276,-0.24383679,0.5284621,1.6040874,0.45706308,-0.5898244,-0.98204976,-0.26473758,0.18988353,-0.29695097,-0.2957661,0.2856989,0.8585418,-0.31266478,-0.59229183,-0.41349328,-0.31145617,0.0032496117,0.4281726,-0.190746,-2.5036004,-0.67058635,0.6842091,0.15399893,-0.79896796,0.29675332,-0.2519839,-0.58660513,-0.7806157,-0.4119483,1.0211734
IND212601AAA,-0.46996188,0.5671818,0.045007538,-0.18370573,1.8737631,0.9645238,-0.43588462,-0.3302488,-0.40341008,-0.49720776,-0.29134834,0.07704994,-0.11881422,0.59669805,0.50316226,-0.08081383,0.17802998,-0.541237,0.16994034,-0.05852735,-0.190507,-2.1038246,-0.111271486,0.88327223,0.5358423,-0.8050875,0.10319696,0.4499845,-0.008624463,-0.102777034,0.49997056,1.3037962
IND221005A1A,-0.32637522,0.22190458,-0.11298437,-0.11475145,0.93497705,0.550966,-0.16635561,-0.17409344,-0.13356055,-0.19944991,-0.34460396,0.1599408,-0.0745172,0.44520155,0.123160355,0.058768906,-0.15328231,-0.17281531,0.055935234,-0.1016481,0.02348844,-1.1670635,0.07172686,0.5543606,0.2586012,-0.4600864,0.1527265,0.098250985,0.05433849,-0.024792599,0.19716017,0.73335046
IND221010AAA,-0.41057438,0.24799013,-0.066504575,-0.13593952,0.961587,0.54103976,-0.20425531,-0.19565447,-0.118224226,-0.14249317,-0.4806122,0.025874281,-0.018664142,0.47234792,0.09446579,0.058122654,-0.23487823,-0.2040139,0.095219016,-0.05934874,0.048701633,-1.2436396,0.040008165,0.7275619,0.25784537,-0.45825458,0.19126962,0.10307023,0.03649006,0.0645556,0.17761874,0.8399782
IND221010AAB,0.32064727,-0.08132538,-0.84988946,-0.03778693,1.4587256,-0.26585767,-1.1761738,-0.99380344,0.1762037,0.6989611,-0.9921238,1.2489655,0.10321782,0.7273467,0.28957534,0.7941151,-0.6490158,-0.8177614,1.0710933,0.3952686,1.0337203,-1.2970129,0.6057558,0.1889491,0.5576935,-0.754455,0.21734692,-0.32914755,-0.22094226,0.37375525,-0.6715533,1.8445815
IND221303AAA,-0.20963147,0.05685683,-0.092712246,0.1243051,1.2579855,0.51771265,-0.3760997,-0.37031138,0.03217653,-0.19031619,-0.31384462,0.15520203,-0.20787008,0.6336307,0.055360276,0.37810045,-0.07215044,-0.5378974,0.22466531,-0.10041621,0.111564405,-1.4284058,0.23505358,0.69937164,0.41231954,-0.5358669,0.09417278,0.05115746,0.11078893,0.095430896,0.011005125,0.9028668
IND221313AAA,-0.4362147,0.05653385,-0.5593038,0.050000254,1.4793048,0.7688917,-0.71430004,-0.52232814,-0.07356815,-0.28202114,-0.6162434,0.30377918,-0.20097327,0.9018976,0.34229955,0.64320546,-0.05013555,-0.45768684,0.10933123,-0.2037856,-0.008301076,-1.7853265,0.16379757,0.9050439,0.3893544,-0.8342785,0.25831997,0.0124685345,0.03379982,-0.0372234,0.047706716,1.3363231
IND221401AAA,-0.3116963,0.008539764,-0.1836441,0.072367676,1.2698492,0.57225156,-0.3240362,-0.2856985,-0.025083862,-0.29742643,-0.2516752,0.17101176,-0.2253166,0.5991776,0.17787391,0.31440982,-0.011242306,-0.6051102,0.11743471,-0.1174693,0.086257696,-1.4543337,0.1614722,0.6976414,0.3460297,-0.63104326,0.13394834,0.079434395,0.057427343,-0.019701188,0.14748254,0.8687785
IND221706AAA,-0.32251927,0.9248393,0.47689545,-0.3685844,1.4973793,0.80802673,-0.18128623,0.77675396,-0.6267885,-0.30493915,-0.7485308,-0.33706975,-0.11703474,1.2747717,-0.06817086,-0.15230666,-0.6483561,0.09085316,1.2630937,-0.13516957,0.24618995,-1.8171217,0.052602883,1.0078683,0.44525197,-0.34857,0.24245663,0.15513423,-0.40938142,0.35915458,0.20607784,2.0039291
IND222001AAA,-0.18375246,-0.26308107,-0.7551549,0.05181034,1.5297486,-0.09532232,-1.1543111,-0.82802105,0.12352074,0.33932975,-0.9723837,0.9135914,0.076059915,0.81950486,0.05217449,0.74473405,-0.61116385,-0.91374725,0.7845033,0.37816602,0.46233848,-1.4361966,0.52693677,0.4792688,0.50821394,-0.46148756,0.36612993,-0.23337588,0.17216524,0.57408303,-0.38202983,1.7654501
IND222125AAB,-0.4139764,-0.20675756,-0.6787529,0.035495616,1.4498707,0.036602613,-0.860797,-0.67602944,0.089030154,0.10469392,-0.8203776,0.63377094,0.0016954656,0.66020405,0.013778673,0.5507343,-0.43392476,-0.9298756,0.65684307,0.18754725,0.24257542,-1.3732687,0.4679335,0.6098907,0.4878677,-0.4479556,0.30056402,-0.15188858,0.28246552,0.378936,-0.21652628,1.4707276
IND222136AAA,-0.35306346,-0.21117434,-0.76653314,0.0007449652,1.3957142,0.1934106,-0.99642384,-0.6652585,0.16105829,-0.045337263,-0.7588581,0.7520706,-0.07189944,0.81067324,0.28268254,0.79723346,-0.24296506,-0.63262737,0.71105605,0.095217004,0.3611083,-1.3950965,0.4060595,0.6637151,0.6167804,-0.64484936,0.26456454,-0.20695621,0.064465486,0.46245772,-0.2121458,1.5971392
IND223101AAB,-0.42161497,-0.13173035,-0.62422407,-0.009302727,1.3731986,0.0939481,-0.85442364,-0.63631386,0.108486235,-0.0034851385,-0.7294857,0.6207674,-0.04988611,0.742929,0.043895572,0.5437011,-0.4437571,-0.8233067,0.6219724,0.16769524,0.21163069,-1.4204109,0.3758249,0.71542096,0.5086143,-0.3997523,0.33436584,-0.1617387,0.2549624,0.4139201,-0.2016795,1.4002501
IND224001AAA,0.056106646,0.047934707,0.0006717036,0.030402604,0.32000497,-0.14928515,0.0533651,0.029895326,-0.08378651,0.19444443,-0.063095845,0.17479515,0.1542417,0.15712751,-0.060455117,-0.03938288,-0.17747115,-0.09788388,0.18041962,0.17797546,0.10892568,-0.21729162,-0.047927957,-0.05088459,0.17195617,-0.0307359,0.110035084,0.006653643,-0.09155681,-0.08807586,-0.10283625,0.3829585
IND224122AAA,0.047175832,0.037667107,-0.054600567,0.031020327,0.36258268,-0.14615248,-0.09639174,0.009490907,-0.07717421,0.28699008,-0.027091486,0.17494008,0.10867765,0.15328808,-0.071052305,-0.06433969,-0.22457202,-0.073126875,0.20850848,0.07883057,0.1501475,-0.24007191,-0.0018373007,-0.028411234,0.18207645,0.036535524,0.18796192,-0.089174576,-0.13944949,-0.054722752,-0.019017907,0.43411636
IND224141AAB,0.1320541,0.017795177,0.041746944,-0.023098953,0.3462395,-0.16673994,0.03875618,-0.042590655,0.0015306883,0.26734924,-0.098252974,0.11275966,0.10725384,0.15314294,-0.18747254,-0.037711885,-0.2685468,-0.14704357,0.19891508,0.12162496,0.13985509,-0.25959852,-0.0015758335,-0.007321398,0.18839438,0.03060539,0.18022174,-0.037376687,-0.03262715,-0.010576311,-0.22601704,0.3542606
IND226004AAA,0.045899864,0.07064188,0.039017785,-0.097899176,0.31717542,-0.08291518,0.0020643156,0.06436975,-0.08513054,0.16803154,-0.014864224,0.24223655,0.08244174,0.13966599,-0.044741776,-0.07025813,-0.10995699,-0.109551825,0.041306604,0.12499232,0.07780953,-0.19102013,-0.06365221,-0.035391074,0.08678065,0.06105789,0.13552797,-0.0046550813,-0.08314809,-0.037222162,-0.087484494,0.32526016
IND226004AAC,-0.37423363,1.0604094,-0.16388813,-0.60525405,0.70511967,0.20044047,-0.46265987,0.5486494,-0.8439246,0.46372032,0.087904386,0.29326645,-0.36753032,0.21166241,0.42810014,-0.34169316,-0.0035953184,-0.3614758,-0.59894377,-0.3499739,-0.10765897,-0.69175047,-0.34613234,-0.27109402,0.29053128,-0.44508216,0.21203393,0.26103583,0.37870452,-0.34681305,-0.14708553,0.731842
IND226016AAA,0.008897361,0.020395039,0.027034495,-0.06621505,0.24759883,-0.06642608,0.039227735,0.048940007,-0.12899521,0.13671502,0.004392214,0.16301534,0.07673952,0.067876965,-0.026572071,-0.04547395,-0.09176593,-0.06791515,0.0326388,0.10088632,0.041873574,-0.19127874,-0.09967182,0.020315217,0.077136695,-0.038574435,0.103190996,-0.012645818,-0.033528894,-0.087733835,-0.07669683,0.265512
IND226024AAA,0.010146566,0.026926618,-0.005336058,-0.0057917996,0.2658049,-0.047099236,-0.014657834,0.04617713,-0.0534958,0.13664204,-0.035461646,0.111628346,0.0946882,0.1772522,-0.05602408,-0.108092256,-0.085255615,-0.13831449,0.12275103,0.115304016,0.09104916,-0.2600755,-0.079550445,-0.0035255407,0.08800204,-0.019087764,0.09247565,-0.03753105,-0.02141453,-0.06695275,-0.0706605,0.3101874
IND231001AAA,-0.26302058,0.06382155,-0.09480483,0.08681014,1.1819165,0.44157377,-0.4170716,-0.3258883,0.021011367,-0.1888643,-0.292951,0.13976547,-0.26619282,0.5897532,0.025151579,0.39545786,-0.1313233,-0.613964,0.20810978,-0.093574524,0.16837953,-1.3893986,0.24028794,0.7008374,0.3147606,-0.56618226,0.08773578,-0.06386119,0.024916733,-0.0302133,0.031059831,0.83174586
IND231205AAA,0.2101339,0.02910605,0.05950066,0.26830694,0.71571416,-0.28805843,-0.03506506,-0.16874397,0.0037900307,0.97568274,-0.4120363,0.3423401,0.3816624,0.17058279,-0.5836831,0.14711243,-0.56661534,-0.17171565,0.33274552,0.05130867,0.50865126,-0.46634066,0.2972968,0.26077053,0.22513069,0.2765075,0.8028516,-0.32470086,-0.18189132,0.24490573,-0.29963797,0.71474737
IND231208AAA,0.17404364,0.058311574,0.08059463,0.159934,0.51285577,-0.1572426,-0.062946886,-0.08261561,-0.049488015,0.5575721,-0.19839494,0.2929803,0.22385739,0.15908256,-0.21566679,0.0033188676,-0.3501736,-0.08670001,0.21762845,0.040398713,0.2653937,-0.32461897,0.13637303,0.065136164,0.13414088,0.13974409,0.42707428,-0.18576472,-0.107957855,0.068095244,-0.1565921,0.47112763
