center,e0,e1,e2,e3,e4,e5,e6,e7,e8,e9,e10,e11,e12,e13,e14,e15,e16,e17,e18,e19,e20,e21,e22,e23,e24,e25,e26,e27,e28,e29,e30,e31
IND000000AAL,-0.032937463,0.30272537,0.6396146,-0.45754236,0.5624816,-0.7302282,0.57419634,0.61800903,0.12005103,-0.10445915,-0.3188282,0.44093823,0.9760491,0.42735612,-0.08118789,0.22098811,0.9707829,0.782249,-0.31430432,-0.42609113,0.47814158,-0.7220292,-0.7239041,-0.41121197,0.57840717,-0.08380658,0.8109115,0.8650546,-0.18827106,-0.5059725,0.5284761,0.08295521
IND000000AAS,0.4695625,-0.25427753,1.2293174,0.16515404,0.86328465,-2.4332275,-0.009443804,0.72278535,0.30762133,0.21332107,-0.24381086,0.4523019,0.15732346,-0.11951013,-0.091067076,-1.832049,0.43642825,0.10769398,-0.35808435,-0.095538825,-0.16176406,0.4208611,-1.0156511,0.30873027,-0.6285566,-0.6153578,0.49645555,-0.14252456,-0.07234094,-1.7067674,-0.5027234,-0.28635028
IND000000AAZ,0.50294924,0.031207426,1.1683873,-0.6714054,0.39035496,-0.0747724,1.0394591,0.18553822,0.6358668,0.5080333,0.11316707,0.34739143,0.57608384,-1.028425,0.3082561,-0.47051612,0.29406348,0.80071175,-1.3640324,-0.66242164,-0.15658516,-0.12414024,-2.0301702,-1.8167368,-0.3962276,0.39295906,-0.35143483,0.5126519,0.142526,-1.3198979,-0.31903106,0.76918983
IND000000ABA,-0.35947517,0.36148575,1.3819302,-0.8683993,-0.07784024,-0.21776333,-0.17361204,-0.23917249,1.1501409,0.96772164,-0.653827,1.403586,0.32666507,0.27728024,-0.45041534,0.15514164,0.583646,-0.061137173,0.4985221,0.08480088,0.33654153,-1.3204008,-0.5411381,-0.1377815,-0.52009624,-0.48788556,0.31217515,-0.37157607,0.22686392,-0.6006526,-0.44856435,0.7481576
IND000000ABD,-0.35157987,0.31770566,1.4304615,-0.19039325,-0.16250657,0.119239815,-0.09620651,-0.32453668,0.5481284,0.8117111,-0.61131257,0.8966631,-0.11401158,0.21612687,-0.18728341,0.63649416,0.47518307,0.75246155,-0.24263544,-0.067844026,-0.13875686,-0.92090344,-0.7196026,-0.069389984,0.041305553,-0.71868855,0.17820187,0.2440118,0.4160899,-0.5007136,-0.24553674,0.3445761
IND000000ABG,0.13947795,-0.09013308,0.082576364,-0.101937324,0.050089784,-0.21454841,0.083987966,-0.04582071,0.17644213,0.027374689,-0.024921669,0.20807223,0.030104605,0.13799699,-0.058667365,-0.25417557,0.115394585,0.09790881,-0.028560944,-0.007102078,0.07737405,-0.06251918,-0.27994758,-0.14372677,-0.070707545,-0.03339724,0.005894325,-0.07991293,0.08471657,-0.26288334,-0.022808013,0.16271253
IND000000ACA,-1.1810265,-0.10456128,0.82221216,0.20176643,-0.88000864,-1.158173,1.6382754,-0.14119385,1.1638784,0.77945536,-0.35507765,1.2466902,0.44791067,0.73455393,0.12759031,-1.3019836,0.73482174,0.76051164,-0.77395767,-0.24498512,0.017743483,0.45494944,-0.7572492,-0.4519028,-0.15667999,0.59951586,-0.034195945,-0.42560673,-0.26712662,-0.6903653,0.52385235,0.19000562
IND000000ACB,0.43077162,0.4742129,0.46233502,-0.28704822,-0.044791043,-0.9631315,0.24448963,0.19906577,0.1476204,-0.32691437,0.21525148,0.56343377,-0.084320694,0.3101971,0.64737266,0.09496787,0.4376646,0.73399913,-0.27108625,-0.044172734,-0.24299419,-0.49052092,-0.2468373,-0.40493554,0.18192977,0.18313177,0.13391232,0.056703854,0.92308164,-0.15933867,0.68055755,-0.5813553
IND000000ACK,0.21087609,-0.07604337,0.15307292,-0.05930979,0.08412449,-0.22744946,0.059341695,-0.031717233,0.09127272,0.06523424,-0.064487405,0.17677455,0.0024776754,0.20311955,0.023602411,-0.22976193,0.09974888,0.10823857,-0.04233735,-0.012471774,0.05139724,-0.12272297,-0.24409527,-0.14918043,-0.034473956,-0.010351147,0.08652374,-0.08322211,0.083429486,-0.22669706,-0.07267777,0.110227756
IND000000ACN,0.21112294,-0.097261466,0.11023056,-0.057363104,0.08229175,-0.18305776,0.13594973,-0.061570086,0.17731322,0.09388093,-0.00024467907,0.1959805,0.0548837,0.17394567,-0.064204335,-0.3107935,0.129768,0.06545999,-0.08737638,0.061427623,0.16645263,-0.05571989,-0.28856063,-0.20795475,-0.07557533,-0.002362145,0.11007733,-0.18776794,0.042123318,-0.29652926,-0.15901092,0.26381627
IND000000ACO,-0.54805243,0.10913038,1.1173167,-0.30230185,0.019001909,-1.1080359,0.5026131,-0.38378298,-0.38506186,0.35420015,0.24699177,0.38445136,0.1940439,0.39331913,-0.46915725,-0.21219024,0.17484513,0.26057342,-0.59173495,-0.08668353,0.39388502,-1.0851581,-1.7554909,-0.43612176,0.39190835,-0.1307006,0.91114825,-0.76495737,-0.19708893,0.06106961,-0.41914365,0.5891809
IND000000ACS,-0.6817464,-0.09031208,0.9184516,-0.4056434,0.031570967,-0.46599263,-0.09637917,-0.34298828,0.5676216,0.24947736,-0.71466964,0.25141492,-0.30682752,0.31779468,-0.19592457,0.6263652,1.2937098,0.68096477,-0.62047654,-0.27006954,-0.0053009735,-1.0839287,-0.72842103,-0.53242046,0.35136116,-0.3627337,0.37097952,-0.11929351,-0.1261966,-0.57315296,0.098726004,0.16344486
IND000000ACT,-0.22748467,0.0019648236,0.16599123,-0.26544294,-0.16856177,-0.5226475,0.43398458,0.07902998,0.3549426,0.12813711,-0.023881119,0.56011784,-0.11230371,0.28340378,0.18445152,-0.27928582,0.26785976,0.19446662,-0.099018686,-0.11304323,-0.20770547,-0.016196081,-0.24505778,-0.20194682,0.017681995,0.14373413,-0.121895984,-0.09971452,0.19816492,-0.17954734,0.20667027,-0.10575306
IND000000ADM,-0.43457496,0.20517254,0.9673653,-0.6050249,0.010735035,-0.037550442,-0.17340259,-0.10063339,0.83728117,0.72343045,-0.50582904,1.1947093,0.46545225,0.08069579,-0.39605752,0.16982505,0.490865,-0.12043102,0.38792765,0.066258,0.3290637,-1.1667153,-0.5247494,-0.1824424,-0.18811828,-0.346016,0.45625514,-0.17279394,0.18225351,-0.78273374,-0.5866885,0.48424184
IND000000ADV,0.11326782,-0.07154522,0.086078614,-0.040024385,0.017503984,-0.23932272,0.087244175,-0.10739669,0.15804921,0.096271195,-0.052599084,0.20313309,0.05909624,0.12387475,-0.05316099,-0.2736359,0.084065385,0.1482354,0.00067233207,0.017228093,0.047618523,-0.059860174,-0.25554925,-0.09038383,0.01748048,0.0050126826,0.0125841545,-0.07152629,0.053948596,-0.23545435,-0.058112558,0.11879968
IND000000AEL,0.18086512,0.48690066,0.19670731,-0.65351236,-0.08363626,-0.70956033,0.09847615,0.12626173,0.23396343,-0.78100276,0.109538466,1.179888,-0.20180625,0.1978799,0.48943374,-0.06744558,0.4378814,0.9160105,-0.28707904,0.114269994,-0.096021995,-0.47401232,-0.27324328,-0.39220622,0.10979924,0.24318913,-0.27652377,0.15908353,0.5824411,-0.23498385,0.5070555,-0.35701367
IND000000AEM,0.091068245,-0.07169813,0.12750095,-0.07839729,0.054441962,-0.22133125,0.090489514,0.019360157,0.16175997,0.055807747,-0.042174146,0.18789622,0.042262964,0.16435827,-0.049511924,-0.18222272,0.14190216,0.09411157,-0.04533839,0.028324619,0.051277127,-0.09113616,-0.23144816,-0.18782131,0.11415437,-0.019150201,0.07446762,-0.10008752,0.06395858,-0.27640924,-0.0989829,0.11311656
IND000000AET,0.31817484,-0.2715386,1.1449668,0.11607127,0.8244454,-2.3386536,-0.10068681,0.5503611,0.33084142,0.14004962,-0.2861775,0.48862875,0.065152004,-0.12371503,-0.108841315,-1.7929492,0.2904171,0.18079327,-0.4677659,-0.015203575,-0.14420713,0.5088005,-0.90841174,0.18904121,-0.4841298,-0.5801102,0.49618533,0.098203495,0.026349358,-1.5630136,-0.59126836,-0.1980474
IND000000AFF,0.12981826,-0.10466956,0.12194991,0.019058587,0.023871277,-0.24663436,0.13677362,-0.08040035,0.104829796,0.044663165,-0.035299562,0.16813864,0.07479466,0.258866,-0.067371435,-0.29380414,0.0126700625,0.13239482,0.03156769,0.1108604,0.13226713,-0.10881823,-0.33667618,-0.17613798,0.05781552,-0.027267797,0.053677797,-0.24207115,0.01950816,-0.30996147,-0.10434232,0.21579434
IND000000AFG,0.30615988,-0.1940227,0.031601597,0.10540474,0.020404506,-0.24708371,0.19022775,-0.17841141,0.20138747,0.25197807,0.101780824,0.3569415,0.16257147,0.19735162,-0.014107147,-0.5973549,-0.06056038,0.049360532,0.058220983,-0.04042193,0.23978674,-0.09854302,-0.38864645,-0.2613148,0.03388556,0.024480639,0.13168581,-0.44503248,-0.01624972,-0.4236905,-0.44596335,0.3176008
IND000000AFJ,-0.2935549,-0.59960055,0.27324754,0.21156082,-1.0126178,-0.9467601,-0.6489406,0.119060606,0.56030434,-0.37594727,-0.027070206,1.5559956,0.8201461,0.7885786,-0.38580254,-1.2157162,0.58380145,0.1465579,0.37625292,0.9964055,0.58076197,-0.7930672,-0.5258939,-0.99432904,0.017376361,-0.1913957,0.3836481,-0.55451053,0.82850456,-0.74936044,-1.7228628,0.7024554
IND000000AFR,-0.017189043,0.19140169,0.54186773,-0.42387557,0.035578705,-0.1146285,-0.15377802,-0.11374775,0.49551487,0.65274394,-0.25453606,0.67500484,0.15527602,0.11579406,-0.20691934,-0.015036635,0.1651877,-0.06647548,0.25274974,0.081457786,0.19337171,-0.5993621,-0.4641993,-0.13277124,-0.3129991,-0.28660217,0.09750264,-0.15113112,0.1352123,-0.43800098,-0.2517943,0.2837021
IND000000AFS,0.08286337,-0.12011726,0.17493035,-0.043724254,0.062493317,-0.2155304,0.03661912,-0.032341294,0.16809297,0.02273726,-0.03995534,0.15322316,0.059445646,0.21620387,-0.13559188,-0.23000725,0.10947601,0.15842848,-0.008666645,0.028268702,0.023650551,-0.1516136,-0.285272,-0.17483892,0.01903555,0.031103618,0.054581515,-0.10642689,0.0562884,-0.2780215,-0.035937995,0.077995285
IND000000AFT,0.098226465,-0.1623168,0.27487308,0.12008732,1.3714038,-0.7591681,0.86243266,0.66017014,1.430274,0.2085063,-0.55560774,0.036391377,1.2594361,-0.099858746,0.15442024,-0.019524425,-0.15051033,1.3772693,-1.3302445,-0.34725627,-0.6453912,-0.96465695,-0.58293337,-1.4258361,0.24332416,-0.6916506,0.6649015,-0.030547801,-0.26146948,-0.9283597,0.05606762,0.38477597
IND110005AAA,0.48525086,0.19690724,0.7476742,-0.45706204,0.05455547,-0.5807946,-0.014008307,0.24666834,0.33293274,-0.53634244,0.33827892,0.9725428,-0.18849738,0.23840006,0.9896537,-0.083821654,0.5263276,0.50531656,-0.6044419,-0.037860975,-0.10674078,-0.17179585,-0.15295482,-0.80213493,0.1762409,-0.018486567,0.07192337,-0.26827222,0.87853837,-0.63504285,0.25056905,-0.42800692
IND110014AAA,0.8095756,1.36159,1.6112113,-0.611588,0.9241564,-1.2934105,0.4486906,0.15814936,0.7313841,0.34794527,-0.886697,1.0729564,-1.2684962,0.72045517,0.7625627,-0.6888703,1.1241472,1.599191,-0.46084404,-0.9473982,-1.4583906,0.08218888,-0.6420384,-1.8473092,0.42955592,-0.20614664,-0.19423121,-0.6487977,0.5096373,-1.0946221,0.4512432,-0.58887404
IND110020AAB,0.07944388,0.17245194,1.1169292,-0.48792195,0.1918313,-0.53493816,0.54119784,0.09459272,0.8316969,-0.6282664,0.08590377,0.62256193,0.06804628,0.09459876,0.80996656,0.060426075,0.32765573,0.3300796,-0.69106954,-0.20615537,-0.35959533,0.31860295,-0.057838783,-1.3032268,-0.07696612,-0.19355053,0.37522015,-0.5412665,0.9432429,-0.9471314,0.23581341,-0.4009669
IND110024AAA,0.77980787,1.2752945,1.3742244,-0.45590162,0.8803089,-1.2593871,0.5507238,0.011258778,0.63684386,0.3467737,-0.81431323,1.0453765,-1.0748178,0.5750267,0.7554529,-0.57459134,0.930582,1.5483296,-0.6571815,-0.83303684,-1.2153217,0.09677015,-0.38774207,-1.8614888,0.22867022,-0.113996685,-0.22238421,-0.5127033,0.42661256,-0.9734961,0.32215896,-0.63985705
IND110030AAD,0.22911848,0.37857196,0.67593014,-0.7349224,0.16051778,-0.8713569,0.03422548,0.134586,0.6374716,-0.4743858,-0.25342527,0.73842734,0.049931463,0.41092405,0.83878034,0.102459945,0.27722862,0.91318786,-0.4505006,0.36317155,-0.20235793,-0.38239014,0.032050632,-0.24460298,0.08960729,0.32468176,-0.069549054,0.021764033,0.9072752,-0.55039394,0.7310908,-0.44558543
IND110035AAC,-0.041470464,0.22250098,1.0123317,-0.5070227,0.6753405,-0.65401506,0.0690977,0.21764651,0.7168357,-0.46860233,-0.09933329,0.44497293,-0.0077543915,0.09149197,0.7866343,-0.3671162,0.51884484,0.4517997,-0.62852275,-0.21960554,-0.3501157,0.47613278,-0.07737547,-1.0676534,-0.15580177,-0.34810257,0.22048916,-0.5083995,0.9958385,-0.93157834,0.4154321,-0.40032157
IND110037AAB,0.13732676,-0.034736678,0.16819067,-0.08713551,0.00041806878,-0.21436848,0.0070090406,-0.03755286,0.16889621,0.05664924,-0.06880599,0.1775649,0.018512072,0.11146072,-0.054134812,-0.16679013,0.094778724,0.13552442,0.008273068,0.028452123,0.07284916,-0.06988808,-0.15647547,-0.08536347,0.031237798,0.05534363,0.040649775,-0.073445186,0.038257636,-0.22555554,-0.06016939,0.14460947
IND110037AAK,0.46907485,0.3813456,0.64343464,-0.7469953,-0.01707552,-0.8895257,0.044055052,0.26066864,0.3089268,-0.6817134,0.020252606,0.96588224,0.025907235,0.19925126,0.66591996,0.15999812,0.58407,0.80144334,-0.12843347,-0.0678522,-0.43486452,-0.510449,-0.049258962,-0.35662648,0.2080525,0.50460017,-0.14086011,-0.0873073,0.762844,-0.42509806,0.5648622,-0.46548665
IND110037AAM,0.080463685,0.23290807,1.228511,0.0067270077,0.48616943,-0.586719,0.41155517,-0.2288909,0.886976,-0.7421846,0.08973528,0.43451184,0.2172875,0.26822034,0.86581606,0.076384425,0.4476427,0.13043872,-0.59260935,-0.037269622,-0.5065537,0.4788097,-0.08581266,-1.2166008,0.020129174,-0.21331687,0.41163716,-0.25306207,1.1141692,-0.61515707,0.3122589,-0.3030809
IND110039AAA,0.096321076,0.24841924,0.8360137,-0.46779454,0.4268201,-0.97101426,0.1779707,0.9036688,0.59139246,-0.45133808,0.23729421,0.9614957,0.39569297,0.03903158,0.81243646,-0.26317626,0.29728273,0.6894532,-0.13714966,-0.51695305,-0.6868545,-0.16111192,-0.75401485,-0.12047151,0.118360214,-0.36180657,-0.16246957,-0.2775147,1.2272624,-1.0100664,0.67760205,-0.46595573
IND110043AAA,0.57516986,0.5254949,0.59043777,-1.1586181,0.24269305,-1.2776558,-0.12629436,0.11607115,-0.02682402,-0.85853845,-0.49800736,0.7541039,-0.52127725,0.18575116,0.24524523,-0.009249305,0.29284775,1.3759766,-0.13386495,0.26648408,-0.23055665,-0.58270806,-0.30536276,-0.75018996,0.26277053,0.5187435,-0.44885802,-0.17278284,0.59711206,-0.555195,1.0324196,-0.26605666
IND110043AAC,0.46601593,0.33530378,0.79103893,-0.4690734,0.018286865,-0.5660963,0.08791165,0.30349037,0.4677894,-0.4967721,-0.004000553,0.6280914,-0.048258208,0.27392176,0.693145,0.044633284,0.36456135,0.77685016,-0.5199909,-0.040123127,-0.4187683,-0.7177089,-0.13950281,-0.1671589,0.11780078,0.17122884,0.08102774,-0.004150337,0.4614605,-0.47116,0.7986908,-0.4963114
IND110044AAB,-0.20847534,0.47076043,0.8544606,-0.7738099,0.81593686,-0.6961364,0.49089453,0.13376896,0.74543315,-0.61959004,-0.23196368,0.34379748,-0.1766374,0.5351952,0.7999613,-0.20973395,-0.109652214,0.17579572,-0.7953805,0.2824188,0.0057286713,-0.23109502,-0.09563692,-0.8773742,-0.026386552,0.20818831,0.05989404,-0.42728972,1.138222,-1.1060952,0.87135047,-0.32223812
IND110046AAA,0.30763873,0.18686879,0.8485504,-0.44264472,0.14925876,-0.51203233,-0.026763748,0.22900903,0.46354347,-0.56959873,0.26593253,0.58355176,0.06826698,0.17746331,0.9048566,-0.004277693,0.4706895,0.53113097,-0.42572397,0.07051405,-0.37748724,-0.01405669,-0.124709725,-0.72552115,0.09834629,-0.12119111,0.25732583,-0.2856757,0.8125582,-0.73919255,0.29344007,-0.3433204
IND110052AAA,0.20371552,0.5805571,0.79482436,-0.5636638,-0.26397574,-0.84137213,0.27941886,0.29847914,0.4883714,-0.45220092,0.21654597,0.8168521,0.17017442,0.17414106,0.71357614,0.100219935,0.50779945,0.81589985,-0.4887986,-0.6146403,-0.2681374,-0.4878912,-0.16626278,-0.38388926,0.047770083,0.44524762,0.036772087,0.23559283,0.45257986,-0.23911218,0.6147121,-0.34831545
IND110064AAA,0.29992604,0.17332757,0.81088245,-0.49840203,0.005229782,-0.7265721,0.06196188,0.33629152,0.5102753,-0.67659086,0.18631214,0.9715176,0.016176533,0.31414768,1.1009631,-0.011200581,0.59386766,0.54450244,-0.72793365,0.15647985,-0.27208757,-0.14061706,0.023717256,-0.59890807,0.17286284,-0.11040426,0.29246223,-0.1264864,0.98360693,-0.513587,0.2857161,-0.47715616
IND110064AAB,0.13511351,-0.04323927,0.1659644,-0.02575735,0.05333134,-0.18653093,0.088746645,-0.023090944,0.15959498,0.036095005,0.032091755,0.14888445,0.038224336,0.16038877,0.03739172,-0.13784203,0.07226561,0.10158736,-0.027875103,0.026388427,0.033948727,-0.098589465,-0.24110697,-0.12121847,0.009552334,0.037241403,0.058342252,-0.09840116,0.08611639,-0.2533494,-0.0008774501,0.093746394
IND110078AAA,0.69206065,0.38492873,0.711427,-1.1704171,0.5519418,-1.3186151,-0.27449438,0.3892861,-0.14613433,-0.8868259,-0.48540044,0.7300756,-0.4347793,0.0520567,0.17501791,-0.09708074,0.35704303,1.1956482,0.013238985,0.1913089,-0.22944298,-0.9238308,-0.5298698,-0.8487502,0.067561075,0.59650445,-0.47663096,-0.15224636,0.6555868,-0.63717014,1.0521271,-0.21940608
IND110083AAA,0.2911364,0.11913478,1.0371727,-0.41730747,0.47861478,-0.7390464,-0.007867145,0.8736507,0.4398513,-0.5003796,0.18173172,0.92936695,0.049088497,0.0144892065,0.8492249,-0.13887978,0.5640146,0.67088884,-0.19158769,-0.6531859,-0.5763106,-0.27908328,-0.660153,-0.22994487,0.13102995,-0.4448033,-0.10592869,-0.30490816,1.2136372,-0.99446744,0.53617173,-0.44348806
IND110085AAA,0.13967192,0.058815707,0.8128579,-0.35443363,0.3615782,-0.6376095,0.012725075,0.8111401,0.4144991,-0.41250005,0.24595764,0.54230523,0.28225508,0.05731234,0.61190414,-0.058158964,0.37874323,0.78430796,-0.26259026,-0.37888142,-0.45750952,-0.2505106,-0.56243885,-0.39478034,0.049805537,-0.25725517,-0.05014176,-0.11861261,0.9765525,-0.8209951,0.5100884,-0.38807973
IND110085AAB,-0.01930618,0.14022116,0.8396497,-0.53032064,0.21757989,-0.8102224,0.12035433,0.8688558,0.6148647,-0.3803013,0.3074711,0.73087907,0.37424988,0.2158099,0.9192324,0.020432705,0.28848767,0.87463856,-0.0741683,-0.7027039,-0.7128231,-0.124648444,-0.94668597,-0.14549841,0.09998148,-0.7240381,-0.050620116,-0.21970262,1.593542,-0.97254556,0.714034,-0.6366901
IND110087AAA,0.12481109,0.08348474,0.92743796,-0.37409297,0.41097987,-0.69885576,0.069257,0.64720464,0.47042096,-0.55134505,0.1042874,0.75185907,0.11170758,-0.057293236,0.83150846,-0.048702296,0.5018865,0.6761618,-0.3260915,-0.48206708,-0.5634245,-0.08973447,-0.5249899,-0.40327764,0.0905672,-0.32700637,0.1028801,-0.39377144,1.107465,-0.9653431,0.38712186,-0.38279775
IND110092AAC,0.17863101,0.2749012,0.99015254,-0.58207655,-0.13921584,-0.8988361,0.0847307,0.39643842,-0.31559035,-0.821548,0.20064253,1.1122513,-0.065515086,0.23987153,0.90882176,-0.054064892,0.761779,0.33738852,0.07187621,0.009897242,-0.4416556,0.19648916,-0.19728203,-0.6341329,0.4203757,0.19904041,-0.12738675,0.512131,1.0706923,-1.130317,0.05663862,-0.2394159
IND110093AAA,0.34694397,0.28452796,1.5316023,-0.55392224,-0.06565884,-1.070799,-0.085284084,0.54370636,-0.45091283,-0.704273,0.13132429,1.5580094,0.1751457,0.25641736,0.9982664,-0.069860354,0.55675066,0.41083363,0.22561614,-0.2257897,-0.5349132,0.12013718,-0.40444502,-0.7535975,0.51284236,0.038046643,-0.2276029,0.5857372,1.0889413,-1.4381353,0.10254443,-0.3718975
IND110095AAB,0.122037396,0.18564847,0.7658253,-0.8590137,-0.027352393,-0.76734316,0.18065506,0.47583973,0.6297006,-0.46105325,0.13340852,0.7756123,-0.08248182,0.12937383,0.49590915,0.23391879,0.37675917,0.7546608,-0.24197812,-0.06783674,-0.3096177,-0.66204053,-0.31819844,-0.32922184,0.044932287,0.2888468,0.0048253518,0.23850478,0.7485785,-0.19181608,0.86868256,-0.20394394
IND121001AAA,0.41018564,-0.43268183,0.6763221,-0.41669866,0.56854874,-0.5285005,0.26131356,0.73721576,0.37254852,-1.1486441,0.41027814,1.006114,-0.210729,-0.6185305,0.19922759,0.13951027,1.2529941,0.7558255,-0.020494686,-0.56375754,-0.048803493,-0.04491249,-0.8559201,-1.5252888,0.06385186,-0.34779522,0.33881596,-0.8767267,0.75705713,-1.2958014,0.6404483,-0.2563149
IND121002AAB,0.2662611,0.51861966,0.7613258,-0.64123666,0.07439141,-0.8784469,0.31385303,0.32271913,-0.058395498,-0.36600593,-0.088332444,0.7738667,0.043234885,0.036094923,0.8004645,-0.1650819,0.6892551,0.9441545,-0.11049942,-0.25845912,-0.2821664,-0.49062482,-0.20054789,-0.44358423,0.30516994,0.394639,0.17653607,0.12151815,0.64047396,-0.15238588,0.48952958,-0.49203733
IND121004AAA,0.7617609,-0.24009801,0.80135494,-0.44505337,0.55071646,-0.6625642,0.17275463,0.62661994,0.46916443,-1.0509613,0.20932716,1.1119679,-0.17494847,-0.51826507,0.4494247,0.25860268,1.3540051,0.7241404,0.14716303,-0.5881896,-0.17235208,0.17170149,-0.7655353,-1.4480566,0.16382736,-0.37063947,0.448156,-0.9245659,0.74729985,-1.1358428,0.44674087,-0.4778862
IND121004AAB,0.43752202,-0.3964655,0.8149518,-0.3512209,0.5892517,-0.5706659,0.28522885,0.6647209,0.29346496,-1.1147451,0.11369504,1.0475734,-0.20762861,-0.35444245,0.3056332,0.19457608,1.3110677,0.88279045,-0.120263584,-0.52627754,-0.19069149,0.23670544,-0.4573224,-1.5066514,-0.023596225,-0.269932,0.32624978,-0.67099684,0.90022874,-1.1301066,0.92992026,-0.4028129
IND121004AAC,0.7083712,-0.3320371,0.83150685,-0.38977945,0.5193224,-0.5886904,0.05140722,0.7219119,0.460454,-1.1283005,0.41160247,1.1109114,-0.09488569,-0.553433,0.45126066,0.20207769,1.246099,0.92682934,0.07469084,-0.6995001,-0.08792355,-0.02210951,-0.93311924,-1.4981369,0.037519734,-0.27132505,0.4810664,-0.8848569,0.79611355,-1.1415694,0.4571563,-0.39057666
IND121102AAA,0.49348435,-0.37536696,0.90153956,-0.39529097,0.71251947,-0.7275305,0.2121646,0.73796,0.5008066,-1.1000692,0.1991998,0.9822582,-0.088521406,-0.39275166,0.5641431,0.2306142,1.2438378,1.0690986,0.007996975,-0.7547376,-0.15131494,0.17019491,-0.7120058,-1.610645,0.0036611736,-0.47101635,0.5312481,-0.8963455,0.6663269,-1.1315014,0.56507355,-0.40669414
IND122001AAA,0.57032263,0.34008205,0.62735766,-0.62825817,0.16458957,-0.7428497,0.19692379,0.50692445,0.04485482,-0.32315043,0.15532108,1.16784,0.20821294,0.28847075,0.7651643,0.25232166,0.20305282,0.7894169,-0.46069685,0.12543347,-0.19669418,-0.36771777,-0.10758878,-0.3079926,-0.08390605,0.28373283,-0.19909747,-0.005236148,0.807803,-0.33595902,0.4865711,-0.2692396
IND122001AAD,0.5904985,0.20020717,0.6383572,-0.5530875,0.11659095,-0.76271427,0.0306504,0.34196585,0.041921012,-0.23425639,0.1851167,0.79607576,0.25184974,0.1806706,0.6386269,-0.06896388,0.07437397,0.63261306,-0.41654935,-0.009238633,-0.0713091,-0.40907398,-0.06701458,-0.31726846,-0.05816313,0.44509462,-0.18003018,-0.19174543,0.5795607,-0.35333976,0.2989306,-0.121201806
IND122001AAJ,1.2189823,-0.5334188,-0.3222492,0.52239764,0.2723021,0.17554154,-0.16059701,-0.52258325,0.8405282,-0.043167498,-0.5750457,0.87246335,0.41684958,0.27569258,-0.3408746,-1.5543382,1.2418569,1.4236697,-0.16884467,0.4717744,0.6555183,-1.1007851,-1.1902809,-0.0053150104,0.10370692,0.13461469,0.4723672,0.6290575,0.1381317,-1.5315753,0.61482435,-0.64173347
IND122002AAD,0.3635949,0.10065618,0.3730833,-0.31973848,0.1645131,-0.4483986,-0.0117416335,0.16653399,0.13719022,-0.202948,0.15384927,0.45958883,0.046743732,0.16994622,0.40653473,-0.13133387,0.13761532,0.33302334,-0.19082436,-0.0066009923,0.000823019,-0.14206672,-0.13047495,-0.31222165,-0.011470729,0.18914603,-0.017970424,-0.098351255,0.44737917,-0.34845072,0.10501496,-0.054028753
IND122004AAA,0.2624247,-0.05209221,0.25726685,-0.21716136,0.06448263,-0.30085346,0.15645863,0.08282855,0.1705318,0.013283445,-0.037716873,0.35480276,-0.106848285,0.12584572,0.18232177,-0.020382516,0.1692703,0.19757523,-0.10577286,-0.12914605,-0.001498636,-0.1830512,-0.13074142,-0.1958704,0.08545116,0.06626055,0.04873517,-0.08036758,0.20544955,-0.22942857,0.0050047594,0.045602743
IND122015AAC,0.024209443,-0.046940744,0.71294916,-0.4344646,-0.019902948,-0.6689443,0.028693486,0.54600513,0.36468205,-0.38230452,0.28244185,0.72421825,-0.0073565687,0.16419367,0.5543897,-0.2509068,0.38165402,0.66465676,-0.21387449,-0.040481213,-0.5567348,-0.22646798,-0.18137707,-0.4447814,0.17722167,0.3416566,-0.19778742,-0.003305698,0.9074194,-0.3718011,0.43155256,-0.5064267
IND122050AAA,0.4892725,0.26385397,0.6568148,-0.42370602,0.097543456,-0.69664544,-0.08941913,0.37151787,0.09499518,-0.34647918,0.102304086,0.78087634,0.3434938,0.18092473,0.66364855,-0.054828934,0.057918414,0.71291834,-0.4022028,0.03078073,0.028390575,-0.37645975,-0.12745321,-0.41472635,-0.054095127,0.29404035,-0.253804,-0.19582544,0.5448239,-0.30147955,0.25183165,-0.18059969
IND122101AAC,0.27976477,0.21857017,0.557352,-0.3578572,0.00742092,-0.51158094,0.11627755,0.096184984,0.19960427,-0.19631197,0.085918516,0.6897004,0.021497972,0.18157467,0.4238339,0.049584955,0.1832678,0.41401672,-0.24727935,-0.03506621,-0.17320701,-0.286839,-0.13460056,-0.20360798,-0.052740663,0.17481504,-0.1236636,-0.07347811,0.42308226,-0.27018794,0.23425144,-0.1522356
IND122413AAE,0.10411207,-0.11539691,0.17022558,-0.09350807,0.008386778,-0.23447461,0.0674463,0.05050417,0.19153108,0.027767519,-0.0054174513,0.17803147,-0.011499912,0.106564365,-0.04406568,-0.13904464,0.12561995,0.178036,-0.04633693,-1.0970056e-05,0.04144868,-0.12987164,-0.20410962,-0.16834055,0.023615144,0.10200243,0.047783032,-0.10175616,0.11038008,-0.24976663,0.00090400694,0.086576596
IND122503AAA,0.45597178,0.28527775,0.44418094,-0.48179522,0.17501059,-0.60703725,-0.044915646,0.22248602,0.0973094,-0.23685206,0.15217203,0.7973146,0.066907726,0.19190313,0.6159119,-0.009548053,0.074929714,0.43292916,-0.34806195,0.003486554,-0.069655396,-0.25409204,-0.14758015,-0.34725288,-0.057119492,0.27511308,-0.061075464,-0.1184958,0.6505766,-0.4037145,0.22387516,-0.1595272
IND123001AAA,0.39525914,0.52326465,0.78553534,0.12790242,-0.08515947,-0.6771587,0.07195142,1.0979302,0.12908334,0.12673491,-0.056092218,1.5167378,0.04524657,0.037627295,0.8502449,-0.12970895,0.21236987,0.50886714,-0.13331959,-0.5121677,-0.10293936,-0.98381484,-0.9429721,-0.16862114,-0.09278267,0.57910585,-0.31425047,0.2629499,0.73306584,-0.6647477,0.20258124,-0.75366735
IND123106AAB,0.6194109,0.67467105,0.9110865,0.084293105,-0.06950908,-0.6749083,0.15052423,0.95590955,-0.0056765713,0.20729783,-0.10410022,1.7265916,0.2055744,0.07467242,0.8051471,-0.19064054,0.18667224,0.48220208,0.045605555,-0.4961379,-0.015280983,-1.09309,-0.98845786,-0.1088031,-0.16085105,0.3885646,-0.16613504,-0.025246553,0.67507315,-0.63862896,0.1394482,-0.638313
IND123401AAB,0.49588308,0.7424698,0.8314628,0.085996225,-0.10807347,-0.7365381,0.2582455,1.0899171,0.08571278,0.18490247,0.034472916,1.6837444,0.11499313,0.052863576,0.8308188,-0.13010295,0.25669459,0.5528665,-0.08720029,-0.67074186,-0.062240653,-1.0776789,-0.9998026,-0.1318663,-0.14351843,0.49860337,-0.3238486,0.12947594,0.64744925,-0.6320889,0.072795376,-0.74860156
IND124001AAB,0.6499526,0.21162876,0.46013704,-0.7847395,0.030977406,-0.15718661,1.2080952,-0.18242028,1.2027388,-0.575284,-0.7385747,0.3362227,-0.2682146,0.36904478,-0.049878377,-0.53887224,0.38617927,-0.4323016,0.16713554,-0.08086435,-0.4750975,-0.2767299,-1.0146308,-0.822101,0.68849653,-0.16363437,-0.34273607,-0.18223262,0.679736,-1.1701982,0.16737013,-0.6144589
IND124103AAA,0.5511296,0.41728678,0.68513864,-0.9086945,0.23979992,-0.76785016,0.1917762,0.6584191,0.118523754,-0.7179977,0.16731904,1.1344422,-0.2795206,0.24343659,0.42140198,0.081313655,0.6284159,0.68401414,-0.44259903,-0.09800312,0.12766743,-1.0653573,-0.3101722,-0.3982935,-0.11469754,0.29644784,-0.10887481,0.29368252,0.8244392,-0.3548131,0.5573103,-0.32388863
IND124112AAA,0.8955788,0.48718622,0.596175,-1.0271227,-0.10579192,-0.45084736,-0.33253253,-0.061243985,0.24113013,-0.06468213,0.16845518,0.9767488,0.106624946,0.6645264,0.78246784,-0.24055138,0.7209533,0.2731418,-0.1677992,-0.020063356,-0.15523013,-0.41636094,-0.39036766,-0.51923895,0.14408445,-0.0086778095,0.36197934,0.14514217,0.7885963,-0.09841402,0.50446534,-0.7889848
IND124141AAA,0.04160075,0.64031696,0.5876762,-0.979399,0.00522947,-1.0139519,0.117726535,0.46956348,0.16555218,-0.57610214,0.20796093,1.3574855,-0.24335657,0.4654143,0.45679927,-0.4169024,0.5399049,0.49433336,-0.57362604,-0.17984629,-0.09275561,-1.1270459,-0.10561293,-0.39445138,-0.23019648,0.11809743,-0.07100075,0.370229,0.8285274,-0.18148018,0.8319207,-0.42277664
IND124507AAA,0.7622181,0.38225794,0.37915033,-0.9504185,0.2688702,-0.2960227,1.0793353,-0.12474309,0.92395765,-0.44605726,-0.77746886,0.32128346,-0.30523443,0.5410548,0.21495523,-0.14458081,0.19166878,-0.29778126,0.17093249,-0.036271714,-0.64605147,-0.2608151,-0.8194103,-0.859027,0.654171,0.03505702,-0.46700457,-0.38671267,0.7539392,-1.2091898,0.033460796,-0.70798355
IND125001AAA,1.0599774,0.741171,0.8395813,-0.9352565,-0.17460476,-0.50451726,-0.3057907,-0.20292953,1.107385,-0.34850496,-0.095689125,0.75968647,0.16170707,0.19825938,0.7209314,-0.5158908,0.7975747,0.13407363,-0.4283769,0.3279559,-0.09989074,0.02711393,-0.6747531,-0.4208132,-0.1727211,-0.21974403,0.73301965,-0.4436591,0.81494397,-0.32210305,0.99881744,-0.734761
IND125005AAA,1.2644533,0.32963425,0.8048235,-0.8501696,-0.09924259,-0.38656485,0.020530118,-0.36603886,0.19133943,0.090034045,0.37084833,1.2439944,0.22062379,0.85956436,0.72457874,-0.6495701,1.204373,0.26740932,-0.2098336,-0.25338987,-0.27057353,-0.2049764,-0.4884328,-0.50543004,0.019427301,-0.08241354,0.52904165,0.3554789,0.9740939,-0.2756508,0.85449004,-1.1667069
IND125033AAA,0.8867344,0.60335666,0.56281835,-0.70215666,-0.36004335,-0.3979933,-0.13307181,-0.16393322,0.5195589,0.015434794,0.06863225,0.98109823,0.2607379,0.49981913,0.6900312,-0.22565691,0.9840477,0.5421727,-0.4025226,0.038786847,0.009486054,-0.09099675,-0.34192106,-0.4731253,-0.17100526,0.21194844,0.24610943,0.2464089,0.80059534,-0.21501836,0.86876905,-0.69804835
IND125047AAB,1.603443,0.8168381,0.80821127,-1.2428068,-0.08580436,-0.42826346,-0.6311976,0.17587464,0.8550656,-0.06814758,0.17537548,1.0865914,0.3025393,0.0950687,0.30956712,-0.81309736,1.1779032,0.049062233,0.15882261,0.20697547,-0.06305826,0.047779396,-0.83000714,-0.91627616,-0.3684557,-0.18203141,0.7457827,-0.46579364,1.0588846,-0.8389001,0.74470186,-0.7025423
IND125050AAA,1.6441754,0.78631395,0.6996475,-1.1915174,-0.20716058,-0.32915208,-0.58099055,0.045389883,0.80340207,0.038653012,0.06728238,0.95338607,0.3427212,0.15262333,0.27829716,-0.8547546,1.2153986,0.17627743,0.11661059,0.23027055,0.13118023,-0.044103146,-0.8709583,-0.8928696,-0.3918759,-0.14468913,0.70675856,-0.48067743,1.0107824,-0.7477539,0.6613827,-0.6503481
IND125051AAA,1.9331414,1.1043738,0.86339563,-1.5580522,-0.12688665,-0.49739513,-0.5912841,0.07244984,1.1736296,-0.12940173,-0.060999487,0.9340543,0.46114457,0.14851046,0.35624713,-0.8444002,1.2795017,0.22669744,-0.024577148,0.2844396,0.092742935,0.10275576,-0.95830256,-1.037956,-0.45268074,-0.11292589,0.7953324,-0.59566194,1.2195139,-1.0373813,0.7949181,-0.70007026
IND125104AAA,1.398508,0.24174923,1.0023754,-1.0490619,-0.018048786,-0.30948862,-0.56695753,-0.7017713,0.37588963,-0.13748781,0.3570229,1.2554363,0.22615929,0.74158615,0.79692394,-1.1607021,1.4230223,-0.07072199,0.12235814,-0.037775464,-0.036172003,-0.40219608,-0.9254376,-0.5990355,-0.09736427,-0.598047,0.4751245,-0.33934867,0.90857947,-0.9171335,0.70584965,-1.0739461
IND125111AAA,1.8909733,1.0411196,0.9067858,-1.4906069,-0.23133542,-0.390848,-0.5593244,-0.020383613,1.1424466,-0.19840427,0.0028473765,0.9965506,0.33868718,0.10953661,0.49585834,-0.8634574,1.3254293,0.18042606,-0.10937779,0.24837224,0.24847896,0.07180996,-0.88301843,-0.9690337,-0.5106894,-0.16999798,0.8256976,-0.6228529,1.1353256,-0.9060521,0.7122165,-0.60554683
IND125121AAA,1.6957297,0.80579984,0.9383884,-1.2570417,-0.28039953,-0.35454312,-0.43430847,-0.09236863,1.2746453,-0.19888212,0.11518152,0.9747747,0.31221387,0.24850312,0.659306,-0.79949504,1.1959659,0.1755013,-0.27620706,0.18522921,0.16820325,0.024927732,-0.851682,-0.7179693,-0.48876214,-0.26736382,0.85369164,-0.5316265,1.078074,-0.80038977,0.87055284,-0.49374932
IND126102AAA,0.57250285,0.16979016,0.50907695,-0.7879724,0.11615213,-0.1722811,1.2692273,-0.13517086,1.1906118,-0.6177571,-0.72122264,0.46143726,-0.28767386,0.44188586,-0.10129613,-0.5792487,0.346871,-0.56099856,0.21660301,-0.09356484,-0.47947085,-0.22462043,-1.0428394,-0.8973992,0.67909,-0.123708434,-0.41316214,-0.23811193,0.7032728,-1.2831066,0.09686614,-0.64539737
IND126112AAA,0.37496215,0.057708222,0.19456714,-0.37319368,0.06555828,-0.26365337,0.6705131,-0.064792015,0.5709197,-0.36909577,-0.30139214,0.19867851,-0.2757851,0.306269,-0.03395682,-0.29994714,0.088316426,-0.32905504,0.046919994,0.027878586,-0.14733185,-0.094081454,-0.65060717,-0.40172428,0.29544035,0.011135197,-0.18475081,-0.22156379,0.37887734,-0.76820236,0.056965847,-0.29517263
IND127021AAA,0.2672021,0.3752552,0.7474725,-1.0008394,-0.011615438,-0.9528482,0.52470595,0.78813654,0.25533578,-0.7692578,0.42439774,1.3796121,-0.26746908,0.39177987,0.44725144,-0.19482169,0.6540869,0.6145866,-0.52771777,-0.09301348,0.02963586,-1.1705164,-0.29563195,-0.45509672,-0.21527734,0.18264708,-0.100707434,0.27912512,0.84421533,-0.106354006,0.78685236,-0.41647163
IND127201AAA,0.15887922,0.5100512,0.63100296,-1.0612501,-0.105485015,-0.9816397,0.39323118,0.65367746,0.18661329,-0.7270564,0.406592,1.4159143,-0.25905702,0.33141255,0.40981436,-0.31595793,0.54644793,0.5521391,-0.4753352,-0.040679775,0.0910762,-1.2261982,-0.2741713,-0.4123553,-0.19181946,0.05941494,-0.050622776,0.29932967,0.8514564,-0.25261143,0.8272105,-0.32674095
IND131021AAA,0.15698686,-0.06203267,0.14309672,-0.06279177,-0.0009310482,-0.17904887,0.04960561,0.015072609,0.21037175,0.043787472,-0.046626672,0.16721775,0.04450468,0.18331406,0.008127892,-0.19414073,0.08926888,0.16323939,-0.028697325,0.0017615443,0.05196677,-0.1532364,-0.24916044,-0.1139508,0.05322051,0.03539395,0.08873357,-0.08849043,0.089642234,-0.213048,-0.038079992,0.13688585
IND131028AAA,0.08653005,-0.11846844,0.13826004,-0.09025323,0.055750918,-0.2831536,0.060301315,-0.06800088,0.13331239,0.05168665,-0.048868436,0.19143666,0.052486792,0.16252032,-0.022925867,-0.23320596,0.11614874,0.16011712,-0.0033162017,0.013684512,0.062465064,-0.100854814,-0.2599175,-0.13940834,0.07721504,0.015142289,0.06379706,-0.11358017,0.07836531,-0.30901736,-0.02600878,0.115374826
IND131028AAB,0.54475427,0.30222434,0.33104405,-0.605181,0.15436637,-0.37057936,1.3180411,-0.16276683,1.2102765,-0.78396994,-0.33337405,0.37552017,-0.19326475,0.67373174,0.35347134,-0.56342196,0.19171652,-0.43053028,-0.032159712,-0.26969978,-0.63566935,-0.4480919,-0.4566278,-1.0344065,0.09033672,0.31687644,-0.30672655,0.13442983,0.7256707,-1.265228,0.24240245,-0.69609773
IND131028AAE,0.57965446,0.12985468,0.27963072,-0.71408784,0.16506739,-0.2873848,0.9203358,-0.20221359,0.86445165,-0.3649564,-0.6333425,0.3242078,-0.170184,0.44327933,0.09271821,-0.2160096,0.11076074,-0.2716501,0.1517851,-0.013479869,-0.41705462,-0.24621977,-0.78590906,-0.6593868,0.510535,0.042483427,-0.43469977,-0.329715,0.6155845,-1.091857,0.019321136,-0.5618777
IND131301AAA,0.6674091,0.29934394,0.4492655,-0.898642,0.04911215,-0.19198933,1.1953471,-0.3077439,1.2871108,-0.52652836,-0.8053556,0.5779621,-0.24580888,0.5335081,0.016274203,-0.584793,0.42592883,-0.5052081,0.26390678,-0.15116327,-0.4597277,-0.21765862,-0.99285376,-0.81975055,0.6042657,-0.16005929,-0.4198222,-0.3045625,0.7670403,-1.1881492,0.18522301,-0.84533286
IND132001AAA,0.64750177,0.22524099,0.3659125,-0.78436613,0.057641443,-0.29664057,1.311213,-0.07693195,1.09435,-0.7656338,-0.38587633,0.5058933,-0.3136761,0.61631185,0.33476236,-0.28248712,0.09059577,-0.36541402,0.030307887,-0.079142414,-0.40910876,-0.101683795,-0.6287855,-0.7977788,0.5437868,0.20990512,-0.37184325,-0.46441653,0.8738679,-1.1588545,0.01914636,-0.4009481
IND132039AAA,0.85876477,0.12961671,0.39384902,-0.4320257,0.1948231,-0.38246724,1.016638,0.120827004,0.8441914,-0.96007645,-0.90619814,0.47875047,-0.13470225,0.25817347,0.29989114,-0.6059618,0.1319599,-0.71494615,0.029123206,-0.38191316,-0.1622576,-0.15302546,-1.2035403,-0.9486842,0.49393705,-0.5800534,-0.41091287,-0.7080404,0.28149265,-1.7896354,0.2640335,-0.33345938
IND132103AAA,0.851155,0.09586458,0.5101987,-0.90954685,0.113581404,-0.27020544,1.186178,0.11752581,1.1443782,-0.859752,-0.29254988,0.64485335,-0.34684542,0.63649493,0.2320733,-0.21225736,0.0114353895,-0.23124678,0.25234517,-0.033683654,-0.5990971,-0.13449599,-0.74336153,-0.94298244,0.60769457,0.28506038,-0.36385062,-0.32092762,1.0263721,-1.1890887,0.00036369407,-0.54437065
IND132103AAB,0.34244135,0.19682151,0.31693617,-0.6412036,0.102770954,-0.31624684,1.2443953,-0.09063152,0.89148164,-0.5103968,-0.4013849,0.46840277,-0.2579332,0.47664168,0.26579633,-0.3198569,0.027796037,-0.25950196,-0.0944991,-0.05142172,-0.33957195,-0.1240466,-0.5527445,-0.60746264,0.3652044,0.24218175,-0.37598678,-0.28675607,0.7843287,-1.0041085,0.090153635,-0.36299902
IND133004AAA,-0.39163053,-0.12569538,0.10005669,-0.20126669,-0.25227866,-0.5234005,0.763266,-0.09911068,0.5237256,0.31624147,-0.14355925,0.6489056,-0.18189691,0.48163718,0.05610438,-0.35858148,0.35143355,0.1646425,0.00066642684,-0.16826831,-0.34101874,-0.019047646,-0.27436304,-0.29081652,-0.034943517,0.095069654,-0.06350354,-0.11549749,0.23631866,-0.2514269,0.10805981,-0.13938773
IND134102AAA,-0.636346,-0.40660155,0.12306445,-0.44158703,-0.43988717,-0.9315755,1.3947166,-0.06735077,1.0496335,0.61211526,-0.2435319,1.1035507,-0.36815062,0.9707728,0.21450436,-0.62980825,0.63819265,0.38061368,0.11751757,-0.13554382,-0.61421925,0.19667736,-0.38081512,-0.5395903,-0.11341957,0.11239303,-0.12871702,-0.20781824,0.4699813,-0.49957827,0.21353222,-0.22488807
IND134109AAA,-0.33080575,-0.010664599,0.16428906,-0.1367759,-0.22882755,-0.46883008,0.7211667,0.025161717,0.40735498,0.4117295,-0.16882735,0.5836407,-0.13807109,0.42976466,0.09460199,-0.25843465,0.3062541,0.19265042,-0.03835592,-0.07457455,-0.28937367,-0.0039882627,-0.19578166,-0.28252852,0.054262947,0.115093276,0.06692649,-0.047306072,0.22058652,-0.24257328,0.10786045,-0.1695656
IND134203AAA,-0.59196067,-0.23405883,0.3039287,-0.43958205,-0.49725753,-1.0114413,1.5540905,-0.035325885,1.2094091,0.48036742,-0.28705552,0.9480612,-0.03770539,0.9534249,0.37876767,-0.5580032,0.49463972,0.43710646,-0.22958323,-0.07029746,-0.66358453,0.09257722,-0.15239617,-0.6233729,0.057388518,0.30557323,-0.29411474,-0.3801108,0.6109712,-0.5001335,0.3894124,-0.36350203
IND135001AAA,-0.67710257,-0.25177062,0.13748105,-0.46497688,-0.37863472,-1.0825638,1.4961114,-0.11005832,1.080492,0.32312164,-0.43574917,1.0117002,-0.43043908,0.9816196,0.18931203,-0.5582621,0.6751802,0.17956235,-0.07271396,-0.34195238,-0.6631863,-0.22603336,-0.4799799,-0.43284163,0.07486092,0.22376047,-0.20342928,-0.07072151,0.55424047,-0.49933457,0.30800262,-0.41660476
IND136027AAA,0.822796,0.18722506,0.44530642,-0.46903306,0.055177514,-0.56197125,1.0046836,0.26567146,1.0110164,-0.86844575,-1.0069238,0.4651757,-0.13118455,0.1925331,0.44674852,-0.57565,0.06330282,-0.67363626,0.19258404,-0.41183588,-0.14220695,-0.14857976,-1.2613386,-0.9700262,0.4897876,-0.5660872,-0.402328,-0.576287,0.46159068,-1.8180369,0.271413,-0.35891697
IND136118AAA,0.6296057,0.168731,0.52701336,-0.5349876,0.14823169,-0.42571917,1.1647339,0.16032696,0.99516237,-0.9030474,-0.8704085,0.44756746,-0.07915472,0.1279562,0.3328364,-0.4940294,0.0019725321,-0.58332443,0.03241868,-0.51819456,-0.16078569,-0.17623508,-0.90320665,-0.9168455,0.29021475,-0.3097119,-0.44118902,-0.3867334,0.4989029,-1.5636213,0.24777712,-0.5834721
IND136128AAA,0.83533466,0.102936625,0.3362093,-0.6140761,0.24755223,-0.4728298,1.1467167,0.11130443,0.9549169,-0.93253,-0.9585005,0.44577926,-0.14324676,0.21200058,0.24030162,-0.5553014,0.0019554116,-0.5665397,0.06955535,-0.42633343,-0.20180492,-0.2962784,-1.0731249,-0.90191585,0.46270484,-0.4530705,-0.4144896,-0.605968,0.3779302,-1.7263361,0.3381436,-0.5233155
IND140001AAA,-0.7326463,-0.20563951,0.22512023,-0.4795468,-0.22738327,-0.91992074,1.3166409,-0.09570668,0.91362625,0.45583355,-0.32492355,1.2320083,-0.336249,0.8600941,0.17024042,-0.53451806,0.55483973,0.2767017,-0.04100852,-0.2086946,-0.5862124,0.0470062,-0.3954807,-0.53490764,-0.06729571,0.08899696,-0.18769307,-0.09338494,0.48237097,-0.5422517,0.35448074,-0.35642552
IND140118AAA,-0.8494376,-0.22439027,0.18494453,-0.3065647,-0.11330211,-0.914354,1.3242428,-0.14264543,0.87221557,0.4978673,-0.35977486,1.2103155,-0.39764112,0.9322483,0.25189152,-0.54952985,0.47928593,0.28204948,0.027244264,-0.11441119,-0.58130294,-0.0512181,-0.32062373,-0.63226646,-0.13218412,0.1314339,-0.04598689,-0.027751349,0.5413618,-0.5096526,0.41332108,-0.39135423
IND140301AAA,-0.7454325,-0.12371908,0.19938304,-0.3231357,-0.2230861,-0.8068136,1.6094315,-0.11041844,1.0047538,0.32048836,-0.37538496,1.079631,-0.36078343,0.9112614,0.14059092,-0.69321597,0.5746405,0.17332795,-0.0959277,-0.1622747,-0.6079065,-0.23186933,-0.47846586,-0.5468927,0.0992214,0.29520512,-0.22788395,-0.039164092,0.67226815,-0.68212116,0.5385244,-0.45544967
IND140401AAA,-1.2572576,-0.05728232,0.90781397,0.38999945,-1.0906142,-1.312369,1.6081676,-0.26167023,1.2183527,1.1764718,-0.5398064,1.1265233,0.7929011,0.877255,-0.3863023,-1.6739235,0.62513626,0.6262286,-0.8711141,-0.21824464,0.117797144,0.4753011,-1.2951361,-0.64368093,-0.23084795,0.56757855,0.3372295,-0.5479423,-0.33600157,-0.74521834,0.5364856,0.42956072
IND140406AAA,-1.0883087,-0.18827236,0.7261609,0.3413082,-0.8188446,-1.0521597,1.2611402,-0.066977896,0.8076121,1.2243208,-0.5499743,0.95796245,0.7228867,0.80841506,-0.20768754,-1.4092773,0.56053406,0.60173583,-0.60687536,-0.2159481,0.0563656,0.3914525,-1.0472023,-0.40001917,-0.1993348,0.43915004,0.24204445,-0.5893335,-0.31831735,-0.56612474,0.32837492,0.46202892
IND140501AAA,-0.59174097,-0.1765627,0.12997653,-0.5153364,-0.5402857,-0.99033237,1.5043896,0.029841013,1.2238147,0.42706874,-0.459262,0.935631,-0.00049966964,0.97566336,0.47622752,-0.37489736,0.49863157,0.4237026,-0.13533063,-0.09314124,-0.7127698,0.03386369,-0.22302702,-0.6401104,0.024815908,0.1510233,-0.15603124,-0.2394385,0.6582535,-0.5889665,0.4225083,-0.2887716
IND140603AAA,-0.63173944,-0.11146581,0.2426759,-0.29329467,-0.49250376,-0.7960837,1.2960297,-0.1590463,0.8346494,0.33815458,-0.2895833,1.064658,-0.15213715,0.6750371,0.176141,-0.6029057,0.43186986,0.34525684,-0.07460869,-0.14827915,-0.41499728,0.14067052,-0.38317463,-0.48255637,0.07014197,0.19083065,-0.26248047,-0.15975,0.35104403,-0.44700378,0.3652824,-0.38771898
IND140901AAA,-0.98481923,-0.15049294,0.47507203,-0.36971092,-0.41849017,-0.83438754,1.5134814,-0.18250374,1.033157,0.3955921,-0.3523213,1.094727,-0.4467474,1.0172954,0.06470466,-0.49954554,0.66376674,0.15820932,-0.265391,-0.15682259,-0.5470805,-0.27320504,-0.43356526,-0.55143243,0.116599925,0.25632954,-0.09598051,0.032012574,0.61414075,-0.6461976,0.5362509,-0.43246523
IND141003AAB,-0.54819155,-0.08716247,0.22163104,0.10730313,-0.36630982,-0.5515936,0.7280532,-0.15631323,0.4720438,0.5674161,-0.17463359,0.5066532,0.23941809,0.42731714,-0.082724854,-0.6852107,0.25252748,0.23977004,-0.26030588,-0.072875485,0.018658299,0.19427605,-0.47112286,-0.23200805,-0.08604113,0.21238925,0.13501102,-0.29528865,-0.12696585,-0.26346812,0.08714626,0.19114205
IND141010AAA,-0.5396677,-0.22286141,0.18407436,0.097366534,-0.37038618,-0.52517086,0.7603928,-0.03490902,0.40436098,0.59821653,-0.20906189,0.55848634,0.21177754,0.4573881,-0.014860992,-0.62049156,0.2864165,0.2903943,-0.23278049,-0.04357306,-0.06368987,0.14724517,-0.43136397,-0.17462656,-0.14031166,0.2040911,0.07495336,-0.22469845,0.00066119427,-0.2796689,0.1383374,0.13938978
IND141109AAA,-0.8046461,-0.1793023,0.34908375,0.23112044,-0.551589,-0.6815161,0.9125054,-0.1656124,0.57824636,0.80949455,-0.25091824,0.7197733,0.3935865,0.51660997,-0.067121044,-0.9597326,0.3558012,0.38035858,-0.3813125,-0.10802114,0.056907814,0.27830118,-0.6510018,-0.25267863,-0.14068912,0.28004265,0.13699488,-0.3796412,-0.17919676,-0.3410313,0.25636932,0.31892532
IND141115AAA,-1.0458468,-0.19374911,0.50829214,0.21738821,-0.83436584,-1.0932486,1.3395462,-0.14781715,0.7927788,0.9669536,-0.37325498,0.8972635,0.59161747,0.67134374,-0.24544384,-1.2697471,0.53690207,0.5449223,-0.53470623,-0.2180973,0.06821153,0.4342102,-0.8785117,-0.4910419,-0.10045657,0.44554025,0.23245275,-0.50257075,-0.3470368,-0.5062126,0.35185942,0.3381569
IND142001AAB,-1.0803866,-0.1607228,0.2991151,-0.032666817,-0.7746387,-1.1289481,1.7013267,-0.35974795,1.18851,0.35590422,0.048951548,0.9435136,0.16905761,0.87034285,0.12870674,-1.0845962,0.26997826,0.42261755,-0.5314389,-0.02900689,-0.12543923,0.35677958,-0.69474846,-0.77518463,-0.1161407,0.5234316,0.020136805,-0.22055857,0.06749245,-0.7099541,0.33607963,-0.01540619
IND142026AAA,-0.57918596,-0.11401438,0.29495758,0.19044666,-0.4388289,-0.6227868,0.7718584,-0.12154921,0.5370638,0.64819646,-0.22159877,0.5675753,0.34049723,0.44153157,-0.04594294,-0.7792039,0.31518677,0.28699172,-0.35050508,-0.074365936,-0.009572298,0.26766148,-0.5205639,-0.25361001,-0.16884787,0.28480354,0.097695,-0.32382342,-0.18601418,-0.3035834,0.18773985,0.3073564
IND142401AAA,-1.3173249,-0.18543096,0.921633,0.27986783,-1.0305443,-1.2883675,1.4691241,-0.0735523,1.0066566,1.0724367,-0.6082237,1.2153256,0.6671901,0.8859781,-0.13244818,-1.3711623,0.72290635,0.68035555,-0.76207805,-0.27422556,-0.10269189,0.48390067,-1.098787,-0.6558143,-0.16893959,0.48394787,0.26311514,-0.53344643,-0.2647564,-0.6830878,0.4746904,0.28551638
IND143001AAA,-1.1626356,-0.574667,0.45486888,-0.14558199,-0.44751927,-1.2501986,1.7203773,0.30044973,0.8688295,1.3589395,-0.8156885,1.7261903,0.4412985,1.0447187,0.41904166,-1.2654613,0.8580891,0.90870696,-0.46080276,-0.24398614,-0.19238949,0.24070148,-0.59166247,-0.18270941,-0.09578067,0.2682897,-0.006743977,-0.32921532,0.44358125,-0.59380925,0.6594999,0.21755457
IND144001AAA,-0.8116426,-0.6943738,0.24133079,-0.19798002,-0.24666056,-1.0214397,1.385337,0.49788246,0.52720493,1.4428339,-0.82207763,1.5168188,0.53587776,1.011597,0.33856294,-0.95020455,0.86861396,0.89336896,-0.18767898,-0.25818908,0.09719949,-0.023206681,-0.53751814,0.21867503,0.064235345,0.11915123,0.026295139,-0.14552781,0.4031923,-0.40888718,0.41052803,0.43392968
IND144001AAB,-1.0828513,-0.5246074,0.5863288,-0.345949,-0.17415962,-1.046025,1.7641499,0.44878367,0.9686146,1.1298122,-0.81063294,1.6120096,0.68738925,1.0267767,0.6879678,-1.2098476,0.7789719,0.80603886,-0.44768864,-0.43774953,0.022227,0.27410623,-0.5181147,-0.09925206,-0.24474663,0.29293543,-0.013701435,-0.30889452,0.47999322,-0.5439021,0.75107324,0.09857268
IND144001AAC,-0.47304606,-0.09894776,0.08999811,-0.0769283,-0.39542153,-0.5192061,0.9307208,-0.06638233,0.5658849,0.3966224,-0.30396274,0.53091425,0.10881449,0.39190593,0.06477674,-0.47923556,0.28593183,0.099650875,-0.20653057,0.0014115426,-0.18451004,0.2038318,-0.33869782,-0.2548661,0.028524717,0.16715492,-0.0285116,-0.25144026,0.06818971,-0.3411185,0.19492193,-0.045853086
IND144040AAA,-0.88333434,-0.69336087,0.29045862,-0.30211943,-0.42328787,-1.1394585,1.6216341,0.52873385,0.6763933,1.6584915,-1.0357989,1.7012458,0.6877539,1.017122,0.42524686,-1.1423692,0.92754817,1.0609518,-0.3459787,-0.35135794,0.10679031,0.03001472,-0.5556579,0.19346972,0.059247624,0.1588633,0.019195348,-0.26980075,0.41729876,-0.4479529,0.48406792,0.4318176
IND144401AAB,-1.12239,-0.6053199,0.34934893,-0.18456557,-0.5800825,-1.2005624,1.7041838,0.29161292,0.7562247,1.3928992,-0.8725795,1.6310867,0.67408633,1.0442896,0.3205428,-1.2245059,0.88595027,0.9578207,-0.441078,-0.13833584,0.095294274,0.06474646,-0.5674828,-0.042935867,0.27354276,0.1871319,0.073739946,-0.26660725,0.24127118,-0.5004453,0.5448505,0.3480891
IND144514AAA,-1.1845678,-0.25068304,0.6077737,0.1603382,-0.81778973,-1.0759684,1.3436242,-0.11912793,1.0046226,1.0373031,-0.39874268,0.9879413,0.62284917,0.865625,-0.052583717,-1.3196356,0.63142085,0.6535563,-0.62297165,-0.15883806,0.053770404,0.3165331,-0.82459927,-0.5683718,-0.051331647,0.42504916,0.28784353,-0.4580986,-0.35841146,-0.40192983,0.42733026,0.30881345
IND144527AAA,-0.53370476,-0.17017256,0.20993438,0.08833306,-0.3020971,-0.561329,0.73455244,-0.026338264,0.44089192,0.5472318,-0.13667256,0.51854575,0.2825344,0.36353007,-0.023911206,-0.61292857,0.31644982,0.31687585,-0.26614264,-0.086239085,0.07650526,0.13215108,-0.433197,-0.2099058,-0.074294426,0.21920113,0.12549788,-0.229753,-0.13572179,-0.26159787,0.22708057,0.1812542
IND144601AAA,-0.9228417,-0.7669527,0.29718646,-0.21966922,-0.40773886,-1.1969509,1.6535798,0.52592486,0.7230809,1.6078298,-0.9882508,1.7241528,0.60890365,1.117529,0.39655772,-1.1966041,0.99996275,1.0205308,-0.29784924,-0.24908806,0.05406767,0.0036858958,-0.5822532,0.16151518,0.068949364,0.1388002,0.015252327,-0.22227801,0.42697918,-0.5229801,0.41257906,0.45835578
IND145001AAA,1.293207,0.2958484,0.22356676,0.8462774,0.76649827,-1.9764445,-0.09740767,0.3516502,0.25069958,-0.37459946,-0.9135184,0.2940797,0.6705617,0.2920774,1.0489942,-1.2630569,0.35112095,1.0843945,-0.18334657,0.20273894,0.6978582,-2.1236403,-2.0544193,-1.6184044,-0.9241041,-0.21689506,-0.700922,-0.93358153,-0.09653144,-0.9395397,0.23516293,0.64520246
IND147001AAB,-0.6436233,-0.15577126,-0.248735,-0.40322024,-0.48118803,-0.7447109,1.4849535,-0.117229454,1.11731,0.531535,-0.26986638,1.1541872,-0.18903403,0.83501357,0.08834532,-0.7920486,0.5170589,0.267646,0.25818235,-0.2670468,-0.5665622,-0.13949253,-0.5239702,-0.42105383,-0.13456446,0.108593285,-0.2863145,-0.25461376,0.7460438,-0.6231877,0.20161428,-0.28733253
IND147001AAD,-0.410244,0.010847993,-0.215,-0.4228449,-0.4496895,-0.7341126,1.5323615,-0.25686398,1.2312373,0.721843,-0.3424994,1.1675218,-0.31962,0.8736066,0.016750876,-0.9346174,0.6402635,0.23575692,0.2852455,-0.34743527,-0.7272078,0.24228503,-0.5785334,-0.51494986,-0.1768115,0.096063904,-0.3265898,-0.51696926,0.56932735,-0.6391549,0.19022965,-0.399555
IND147101AAA,-0.887879,-0.013729732,0.3687351,-0.21144305,-0.30210322,-1.1940006,1.7088428,0.08582112,1.1005987,0.21177097,-0.1728378,1.3648069,-0.07842339,0.85427666,0.46463117,-0.8408594,0.70132935,0.22849701,-0.25208962,-0.45734498,-0.6639761,0.19771919,-0.51892614,-0.9182621,-0.16667368,0.21018675,-0.09234515,-0.3260271,0.768373,-0.6781012,0.45641354,-0.39157456
IND147105AAA,-0.96261066,0.058508985,0.4133572,-0.2311937,-0.25642323,-1.163366,1.7202542,0.08182728,0.9794917,0.096620195,-0.09219336,1.2321788,0.059004385,0.82874364,0.41270873,-0.8307862,0.66217744,0.16530839,-0.23231873,-0.5156871,-0.67401505,0.06102562,-0.41977295,-0.8502215,-0.22264622,0.30069885,-0.012455456,-0.34355447,0.6572987,-0.7705124,0.52011716,-0.4227799
IND147201AAA,-0.28325748,-0.15750024,-0.4950405,-0.31947914,-0.34965983,-0.59649265,1.5011421,-0.21836065,1.3118947,0.6528605,-0.20933901,1.1974797,-0.18694828,0.9642374,0.066675656,-0.9987167,0.47466338,0.31934118,0.5020034,-0.35183725,-0.5191196,-0.2254603,-0.6994755,-0.22055174,-0.3365331,0.13249625,-0.43370736,-0.42747155,0.7718822,-0.7215084,-0.01837301,-0.26099154
IND147301AAA,-1.270945,-0.057176817,1.014717,0.39311168,-1.1784929,-1.3164867,1.4675038,-0.25929877,1.0695003,1.0523293,-0.58904684,0.9473264,0.9079569,0.7688516,-0.42176223,-1.6575277,0.5692729,0.6194181,-0.87199116,-0.25660947,0.07647508,0.6144728,-1.3161265,-0.7007778,-0.17744708,0.6150949,0.33682162,-0.66780084,-0.46799907,-0.7453439,0.4832829,0.4206643
IND148001AAA,-0.4137689,-0.34727672,-0.30292428,-0.24550655,-0.37900308,-0.6902711,1.2362983,-0.13591081,1.0428866,0.6348321,-0.110011965,1.150025,-0.27242327,0.92490077,0.005128137,-0.9053854,0.39125493,0.30556494,0.2858885,-0.26232883,-0.4609913,-0.01035045,-0.54766375,-0.27994502,-0.23386598,0.14245726,-0.23567,-0.2740804,0.5525227,-0.49307713,-0.031158451,-0.10356105
IND148023AAA,-0.3486193,-0.13610516,-0.5239733,-0.20477809,-0.3997325,-0.67655843,1.6160542,-0.2820522,1.3105403,0.6822794,-0.15737341,1.2558105,-0.40129244,0.9644887,-0.14605995,-1.0415299,0.61494136,0.2891835,0.54037136,-0.42512608,-0.5940485,-0.2574154,-0.7491591,-0.42577237,-0.37152374,0.27930453,-0.4800762,-0.46818978,0.6832715,-0.7785023,-0.053933397,-0.16968311
IND148024AAB,-0.40248665,-0.34069,-0.32614526,-0.23429343,-0.41422668,-0.619507,1.1765065,-0.16009945,1.112845,0.58549297,-0.11667234,1.1319327,-0.28602204,0.9166935,0.0106102815,-0.93181753,0.39838758,0.30379587,0.3716702,-0.30164284,-0.43025663,-0.0977048,-0.5884595,-0.32088482,-0.19287236,0.120462604,-0.24419712,-0.2785114,0.5539713,-0.48963395,-0.05283421,-0.035975713
IND148028AAA,-0.31074953,-0.17057493,-0.12774186,-0.06982921,-0.23441069,-0.41780508,0.6990158,-0.13817038,0.56689465,0.43323714,-0.09191477,0.59717536,-0.07129765,0.46928048,-0.016633783,-0.5232237,0.21158242,0.17498529,0.102214105,-0.11175467,-0.22429867,0.0054865447,-0.36198807,-0.23058318,-0.16935949,0.1547605,-0.075915016,-0.22034608,0.22186896,-0.27808434,-0.05184296,-0.0008231301
IND148101AAA,-0.9269084,-0.57827675,-0.36279863,-0.13126545,-0.44657904,-1.258168,1.7380645,-0.5556821,1.4089648,0.35015646,0.6676213,1.2215828,-0.077405654,1.0131352,0.16510285,-0.9811989,0.2242215,0.69015914,-0.24877013,0.6724257,0.19528428,-0.07133164,-0.40701792,-0.8745533,0.21787125,0.24209967,0.16944408,0.04073685,0.4222214,-0.7878807,0.142171,0.19654453
IND148102AAA,-0.84626937,-0.6527739,-0.46484503,-0.08756574,-0.4194437,-1.1899029,1.7861319,-0.60603166,1.5340286,0.28222677,0.7211893,1.1767437,-0.06293275,0.9995196,0.23955426,-0.9603965,0.14109564,0.6209159,-0.30014643,0.7710758,0.17015606,-0.18318959,-0.43437958,-0.89354646,0.27265087,0.20925638,0.07741071,0.0015559775,0.42904982,-0.80685794,0.09134679,0.20978752
IND151001AAA,-1.0029682,-0.31130928,-0.065833375,0.027271135,-0.6135599,-1.1839647,1.9360616,-0.3445233,1.599785,0.09184111,0.5415723,1.1900426,-0.19656985,0.99712324,0.4291768,-0.8588734,0.21174344,0.586932,-0.3897203,0.48095816,0.15067945,-0.014764663,-0.5456494,-0.90504223,0.17328303,0.45989865,0.109641224,0.14905335,0.4935361,-0.79662895,0.27561885,-0.05242502
IND151103AAA,-0.8689827,-0.5934062,-0.2998819,0.120596774,-0.5027557,-1.1211594,1.6658677,-0.61868036,1.3796946,0.51260483,0.508383,1.0107164,-0.051742554,0.98868614,-0.0053771487,-0.9780784,0.20183562,0.5602015,-0.23599902,0.45772552,0.08289304,-0.011807419,-0.50193167,-0.8096354,0.041483745,0.24513862,0.18707357,0.018054094,0.18813369,-0.6421008,0.02702936,0.34210494
IND151302AAA,-0.8636883,-0.65591633,-0.37588865,0.048271153,-0.53574866,-1.1917173,1.9669935,-0.67390865,1.680568,0.31876323,0.6341536,1.0932873,-0.0622211,1.1408932,0.050384037,-1.1460565,0.10950764,0.48205003,-0.31072137,0.71094817,0.29527485,-0.05558503,-0.569005,-0.88938147,0.21602038,0.26180243,0.18213043,0.063403614,0.35917157,-0.9462739,0.072163805,0.4029824
IND151505AAA,-0.82696307,-0.6468306,-0.39334083,0.032543432,-0.53556824,-1.2941208,1.9859589,-0.7075809,1.6685143,0.3389222,0.65665954,1.2777892,-0.004794515,1.1595502,0.09767286,-1.1944242,0.04528448,0.54103714,-0.25394613,0.7859941,0.2705569,-0.09584956,-0.5810099,-0.8321451,0.31847095,0.20770834,0.13551643,-0.0042116623,0.45631826,-0.9994767,-0.016996061,0.38585636
IND151506AAA,-0.8780269,-0.73489296,-0.4485689,-0.082213335,-0.47951737,-1.2527715,2.0564353,-0.5662758,1.6507777,0.2807156,0.6506747,1.3437018,-0.023781288,1.2121469,0.14222239,-1.0306531,0.14795257,0.64105844,-0.35717836,0.77016526,0.33513886,-0.08393746,-0.47047544,-0.8447179,0.3281402,0.14870891,0.16876994,0.11151579,0.518035,-0.941937,-0.017866086,0.41039008
IND152024AAA,-0.84646446,-0.2551265,0.3339603,0.26090237,-0.6827612,-0.7988342,1.1049798,-0.28119165,0.825878,0.7707481,-0.21831796,0.75028753,0.40433696,0.7299484,-0.10247833,-1.1363347,0.3619825,0.3729628,-0.3703806,-0.11708104,0.05361119,0.33707258,-0.75369227,-0.35060838,-0.2497665,0.33520693,0.1814148,-0.43525907,-0.28685284,-0.461682,0.21182773,0.36157468
IND152026AAA,-1.2912521,-0.16350284,0.46243224,0.08470273,-1.0256475,-1.0689324,1.5708331,-0.49764833,1.1719396,0.6187151,-0.09531626,0.9514743,0.31504902,0.8884934,-0.044319842,-1.0444471,0.41619682,0.57074237,-0.68660307,-0.028570719,-0.0016717756,0.39017442,-0.68022704,-0.77468884,-0.10281863,0.4354847,0.31404966,-0.38727784,-0.17647612,-0.6459935,0.32359987,0.31110758
IND152123AAA,-0.8312093,-0.24887873,0.2485436,0.24176991,-0.6197844,-0.77754694,0.9548795,-0.25065753,0.7527455,0.79618603,-0.17093952,0.70859104,0.34489334,0.7143446,-0.18544804,-1.0121799,0.31715122,0.36154804,-0.34595487,-0.05579786,0.116008356,0.2715464,-0.7222231,-0.34569532,-0.16362113,0.27630532,0.21160744,-0.4544851,-0.2297961,-0.46197143,0.13745321,0.45175633
IND160002AAC,-0.8130169,0.06658662,0.32927203,-0.014500726,0.07735941,-0.5359279,1.7706105,-0.3225422,1.0097351,0.43300602,-0.25500846,0.631796,-0.24913508,0.96991533,0.7721873,-0.7357724,1.0018206,0.15442051,-0.19678244,-0.24908653,-0.44794193,-0.48641095,-0.67426443,-0.7164545,-0.59809834,0.7894102,-0.08885052,-0.073554374,0.7836999,-0.5391867,0.6799151,-0.6342515
IND160002AAD,0.0588005,-0.039787572,0.15708828,-0.08466266,0.04008368,-0.30218202,0.15793708,-0.011616937,0.22008035,0.08007475,-0.0070436145,0.2506235,0.022387024,0.13044341,-0.031500638,-0.17353235,0.06499266,0.1582362,-0.028887717,0.026995508,0.07164835,-0.07624119,-0.22337168,-0.15210508,0.0094428435,-0.005768835,0.055566445,-0.11106295,0.056774635,-0.22240676,0.0010277093,0.083064176
IND160003AAA,-0.7396467,-0.03944502,0.10944419,-0.34845027,-0.1749474,-0.82331836,1.2907482,-0.080762796,0.9856523,0.33572084,-0.11054981,1.1364685,-0.34919786,0.8159101,0.39101675,-0.5425295,0.55560946,0.16613251,-0.2600627,-0.038211633,-0.45714095,0.0008069413,-0.41608453,-0.71796274,-0.099611916,0.0237269,-0.13747758,-0.11799226,0.5146695,-0.44553885,0.53855854,-0.40678197
IND160055AAA,-0.86239684,-0.22319625,0.3548057,-0.28699163,-0.21271588,-0.76579094,1.5539066,-0.046005115,0.9897031,0.54886997,-0.35095283,0.98141885,-0.41822845,0.94403183,0.08458327,-0.85309064,0.6576382,0.15971377,0.013720873,-0.28347966,-0.7236461,0.02469512,-0.58842826,-0.4310186,0.10244212,0.21318066,-0.1066743,-0.09758789,0.57279,-0.62388915,0.46471396,-0.49700388
IND160102AAC,-0.5842192,-0.3007564,0.31401223,-0.356857,-0.32042062,-0.6654318,1.4546047,-0.13562429,1.0904194,0.26956326,-0.22331218,1.1473328,-0.18640888,0.75275826,0.29868972,-0.63398474,0.61986417,0.3413712,-0.011068418,-0.16826378,-0.5772553,-0.051989798,-0.31898963,-0.45602763,0.09877308,0.04381131,-0.2842957,-0.14197005,0.5241507,-0.51871824,0.6245517,-0.48294643
IND160102AAD,-0.2397177,-0.05567173,0.21956186,-0.17494306,0.03224558,-0.30621475,0.2397945,-0.09446002,0.3172772,0.13965921,-0.15454136,0.3457172,-0.02674343,0.27168775,0.12145573,-0.13493143,0.11891224,0.19301791,-0.10826197,-0.017671542,-0.031946197,-0.14524022,-0.18831696,-0.2322507,-0.02317642,0.020109259,0.068013504,-0.02433911,0.22146934,-0.24198751,0.16202874,-0.039588377
IND173025AAA,-0.6842429,-0.14797449,0.22782402,-0.41819522,-0.464965,-0.96330744,1.4803445,-0.20820808,1.0590509,0.2827585,-0.51719964,1.0610405,-0.3861558,0.9948659,0.2998584,-0.41796044,0.6526444,0.4508257,-0.03663215,-0.27478424,-0.6749879,-0.25674304,-0.29675558,-0.41326424,-0.01879978,0.2072986,-0.31305888,0.029790955,0.6688517,-0.4976387,0.38162503,-0.4419465
IND173212AAA,-0.4036037,-0.2570722,0.20456088,-0.55510944,-0.13349359,-0.96741146,1.529089,-0.19026107,1.0637413,0.5926723,-0.40786132,1.2208539,-0.4415499,1.0676955,0.42420948,-0.7970663,0.72637683,0.2572902,0.13546225,-0.34383324,-0.75692576,0.28157878,-0.3627815,-0.55727226,-0.12450065,0.031377293,-0.26450002,-0.3655872,0.72360635,-0.677872,0.36086175,-0.5665534
IND173220AAA,-0.5872879,-0.3251488,0.007645664,-0.30267683,-0.22243644,-0.81608874,1.338988,-0.069584616,0.8835976,0.67255133,-0.26900935,1.0321099,-0.25105932,0.80161834,0.20702268,-0.6425264,0.46624875,0.2724145,0.029687244,-0.23733436,-0.46992907,0.14342092,-0.33591238,-0.38924634,-0.14241827,0.17228311,-0.12625761,-0.1905447,0.4768162,-0.4028048,0.18922797,-0.22163299
IND174001AAA,-0.5997332,-0.4704394,0.0060708923,-0.6550251,-0.1258676,-1.1128343,1.6473696,-0.42508963,1.227019,0.8712602,-0.06127386,0.9269032,-0.46071014,1.2484999,-0.0751052,-0.9660762,0.6509404,0.29526222,0.56112367,-0.3170324,-0.9241661,-0.30520457,-0.3644347,-0.511033,-0.08465561,0.08936705,-0.056735348,-0.33679214,0.5172952,-0.5468397,0.25501975,-0.17807831
IND174021AAA,-0.3191985,-0.29547447,-0.038466074,-0.20778345,-0.09974564,-0.56784344,0.7512027,-0.19774626,0.5911756,0.5239856,-0.08322436,0.5087336,-0.21309717,0.5656026,-0.10086938,-0.5560973,0.27958032,0.15716486,0.22459859,-0.14891268,-0.30514386,-0.095748514,-0.21122074,-0.19580002,-0.10088017,0.023613488,-0.040866107,-0.14833054,0.19700082,-0.24421903,0.00013764956,0.039612167
IND174101AAB,-0.2736922,-0.027572667,0.10222989,-0.19652091,-0.14394939,-0.55603844,0.7288732,-0.015674746,0.52866215,0.26534683,-0.102069356,0.6641357,-0.21401997,0.45411798,0.16208062,-0.38509512,0.2953494,0.23610735,-0.015043586,-0.06504247,-0.43387103,0.1380956,-0.1450722,-0.42137828,0.004596853,0.06265519,-0.10254545,-0.072798416,0.26823616,-0.32007688,0.19274944,-0.27095017
IND174103AAA,-0.88883185,-0.3056207,0.29352158,-0.46216577,-0.36048982,-0.9719621,1.6848787,-0.1385146,1.3709402,0.44943902,-0.14077123,0.9402503,-0.4828502,1.0155122,0.2494072,-0.7123645,0.7867302,0.25439864,-0.10643452,-0.22398236,-0.5485959,0.11376779,-0.5018982,-0.68590754,-0.04939497,0.12080129,-0.15070437,-0.30175263,0.45165527,-0.61361223,0.2745491,-0.29971734
IND174307AAA,-0.67340136,-0.3197995,0.09456262,-0.57247305,-0.28989223,-1.1511378,1.5603049,0.109799094,0.9789208,0.5742431,-0.21896641,1.3117721,-0.4021247,0.88120085,0.28727373,-0.6223242,0.5065784,0.37543234,-0.12375485,-0.24559514,-0.5471516,0.00048390456,-0.41496238,-0.5085418,-0.04271064,0.17266245,-0.19423772,-0.06577003,0.59455377,-0.50679404,0.35332924,-0.26521277
IND175001AAA,-0.57709044,-0.3089757,0.08000718,-0.7059634,-0.005438848,-1.1077243,1.7141709,-0.45572284,1.4022034,0.6231233,-0.14407025,0.76107556,-0.66091293,1.0756321,0.018324235,-1.032999,0.6228229,0.26079896,0.37554374,-0.47497618,-0.9008959,-0.34247723,-0.39328882,-0.6518818,0.09241006,0.1304647,0.138054,-0.27724814,0.4750722,-0.5448991,0.33607677,-0.27866325
IND175015AAA,-0.4024977,-0.4983499,-0.17540345,-0.3394134,-0.054533795,-0.9186276,1.1831026,-0.42481512,0.9619522,0.7760929,-0.024244208,0.82017696,-0.42169017,0.9936022,-0.19164336,-0.85724455,0.4567003,0.35541007,0.52051514,-0.32073805,-0.5873895,-0.30534998,-0.39891472,-0.31772247,-0.15229523,0.04378212,0.045870844,-0.22337726,0.2853294,-0.457912,-0.021415394,0.09381887
IND175018AAA,-0.7212397,-0.37745732,0.03187668,-0.7230294,-0.0073756436,-1.1272343,1.6083499,-0.42673132,1.3360432,0.7387007,-0.24616462,0.91518694,-0.5332111,1.1298114,0.028290235,-0.95568556,0.6479657,0.25847638,0.42586008,-0.4646406,-0.9323593,-0.2704998,-0.42401922,-0.579917,0.044767015,0.058027197,-0.053257227,-0.383577,0.55429727,-0.5703972,0.29214457,-0.19608618
IND175101AAA,-0.63970214,-0.10787124,0.22210552,-0.5395283,0.01017262,-0.93580866,1.7519915,-0.46598956,1.3864101,0.62874097,-0.12486439,0.5869478,-0.8134,0.86493576,0.07468741,-0.8654882,0.71976763,0.21526338,0.19547753,-0.46876147,-0.8483341,-0.21069276,-0.3931316,-0.63413495,0.16160989,0.10398605,0.027538177,-0.15552841,0.4673748,-0.45871425,0.35688868,-0.16199131
IND176001AAA,0.11863707,-0.0969022,0.08739243,0.011981418,0.08877369,-0.27601972,0.035263892,-0.018513134,0.1738487,0.19101942,0.033462096,0.22461806,0.10209575,0.22205177,-0.11697168,-0.3350835,0.041787077,0.07864149,-0.024577707,0.13174939,0.057610482,-0.111992806,-0.31997943,-0.22607747,0.0302481,0.02222922,0.045147978,-0.20589611,0.022327267,-0.33642307,-0.15147029,0.15056413
IND176041AAA,-0.74351513,-0.29882756,0.1351898,-0.55616164,-0.27718544,-1.157444,1.565305,-0.057088494,1.1218554,0.59255576,-0.35964188,1.3792392,-0.18424632,1.0088294,0.2523077,-0.73854613,0.50834674,0.4516344,-0.035246402,-0.24588037,-0.56957513,-0.06609067,-0.41619736,-0.44925177,-0.07996713,0.25821623,-0.3035134,-0.095544145,0.66708696,-0.47810784,0.45580506,-0.3430208
IND176048AAA,-0.43705446,-0.4262979,-0.16928528,-0.28336537,-0.0025088538,-0.8068978,0.9690993,-0.37217525,0.81805253,0.6691204,0.023357311,0.65723413,-0.3139045,0.832557,-0.11313446,-0.75819916,0.26381662,0.24059764,0.36097366,-0.2104904,-0.35785335,-0.21077198,-0.26814628,-0.30421108,-0.16006362,0.06709956,0.0119286105,-0.18241808,0.25662485,-0.25481752,0.026459843,0.1292427
IND176061AAA,-0.40617988,0.06227239,0.04316126,-0.20292343,-0.19899698,-0.62373406,0.9975198,-0.08639355,0.67955965,0.305806,-0.18048078,0.7478705,-0.19822334,0.51357377,0.2803963,-0.55867934,0.32079622,0.24139465,-0.081482716,-0.060226906,-0.44385627,0.1173365,-0.23588015,-0.4596023,-0.053925253,0.1254201,-0.2332456,-0.2453931,0.39821172,-0.4316012,0.25655657,-0.2550847
IND176110AAB,-0.6356784,-0.09201472,0.12943079,-0.2951522,-0.12716107,-0.6365629,0.90623266,-0.17317623,0.80615526,0.3648092,-0.23284625,0.82148343,-0.18851347,0.5993815,0.2602424,-0.44349086,0.18679334,0.16943975,-0.1309643,0.046706587,-0.22957927,0.0665795,-0.26984718,-0.4273285,-0.14273298,7.068946e-05,-0.143239,-0.14428121,0.42079312,-0.46162394,0.3833477,-0.33184066
IND176201AAA,1.129034,0.29118344,0.17667662,0.7828639,0.71833026,-1.8117062,-0.15689449,0.36725423,0.22968991,-0.38236907,-0.8180375,0.3112291,0.5470989,0.25804603,0.9622033,-1.122043,0.238177,0.9101601,-0.14710933,0.23308335,0.58740866,-1.8996389,-1.7898978,-1.436654,-0.8124798,-0.21545646,-0.7258406,-0.83724225,-0.09691698,-0.843035,0.2162552,0.5644889
IND176215AAA,-0.27916488,-0.030555194,0.06597016,-0.12869607,-0.11660506,-0.53404695,0.70745236,-0.10709526,0.52353555,0.2814782,-0.13108031,0.6018122,-0.124365225,0.45490247,0.17783098,-0.44933894,0.2622593,0.22726434,-0.07952379,-0.09280542,-0.22728871,0.13163163,-0.19322829,-0.25514814,-0.061052833,0.081676304,-0.09293317,-0.15672824,0.2125453,-0.30195746,0.18399668,-0.14178142
IND176303AAA,1.2677128,0.35928714,0.20002946,0.84931356,0.7337716,-1.9770831,-0.084537536,0.38263425,0.29516628,-0.32639217,-0.90136826,0.2900206,0.570203,0.390124,1.0440726,-1.2903262,0.2604498,1.0713086,-0.21673015,0.23521125,0.7038695,-2.179703,-1.9950688,-1.5842813,-0.9525289,-0.2063211,-0.80920786,-0.9223548,-0.050514333,-0.9670504,0.3068105,0.6336025
IND176310AAA,1.1712627,0.31775236,0.2922176,0.8823075,0.7845609,-2.0402808,-0.10134101,0.41962886,0.322772,-0.3674626,-0.9508889,0.35904232,0.6752182,0.2883167,1.1078793,-1.2930995,0.3187261,1.004577,-0.17331798,0.19882932,0.7289403,-2.138697,-1.980659,-1.6071277,-0.9537529,-0.246376,-0.7370695,-0.9243769,-0.022016654,-0.92757946,0.3070812,0.70296896
IND177001AAA,-0.3642326,-0.12525278,0.09831037,-0.17910203,-0.13123168,-0.48457426,0.73404974,-0.12352751,0.57658523,0.31461287,-0.116966985,0.63156486,-0.13921627,0.48637286,0.15364118,-0.37280217,0.2327908,0.17005016,-0.06902163,-0.031410564,-0.20644718,0.023210697,-0.2373469,-0.2464181,-0.08297003,0.064665385,-0.047768287,-0.08989517,0.23811647,-0.34356096,0.186181,-0.1413181
IND177033AAA,-0.72737616,-0.120372206,0.14182746,-0.25520745,-0.13783376,-0.6916323,1.0352479,-0.24323893,0.90233403,0.45824775,-0.32074723,0.9503346,-0.15074818,0.7270874,0.3168489,-0.41889098,0.28901652,0.2772926,-0.22115801,-0.014089011,-0.24189079,-0.05268536,-0.23481059,-0.432591,-0.20812617,0.022438288,-0.08725869,-0.1636185,0.4909098,-0.47491276,0.36400884,-0.317193
IND177101AAA,0.17626888,-0.10323635,0.124170266,-0.07058619,0.055953074,-0.23988459,0.11038189,-0.051212296,0.14360483,0.06544843,0.015697876,0.17784198,0.013376082,0.16677234,-0.1101068,-0.34932363,0.119660124,0.057805117,-0.05196016,0.092643484,0.044456795,-0.08607422,-0.3241572,-0.14013904,0.07592304,0.0038934958,0.019165255,-0.2334055,0.007907884,-0.31724072,-0.11986134,0.18159115
IND177203AAA,0.11067779,-0.10995681,0.15020172,-0.01760062,0.043436408,-0.25598574,0.012795688,-0.04375083,0.11520916,0.1236365,-0.04392205,0.21526775,0.072106436,0.15682869,-0.09133161,-0.27045774,0.13493654,0.092176795,0.004912879,0.040078197,0.043363445,-0.16867217,-0.31305823,-0.16070898,0.06402118,0.021003548,0.0682754,-0.15609458,-0.033403285,-0.31903428,-0.05106034,0.12817661
IND181152AAA,-0.33780208,-1.0011387,0.5737287,-0.29451483,-0.5430724,-1.3587793,1.5472488,0.10813603,0.7228376,0.8137437,-0.25401157,2.0350432,-0.644042,1.2282028,-0.03258284,-0.07024592,0.58285946,0.77329683,-0.02392587,-0.028029148,-1.2465045,0.30606973,-0.78134483,-0.9485779,-0.34710893,0.5446376,-0.46560714,0.4890361,0.52262735,-1.054624,0.24496157,-0.51045364
IND181152AAB,-0.37121233,-0.7396342,0.43669733,-0.1699356,-0.44574687,-1.0236604,1.2269939,0.012659624,0.5619922,0.6154117,-0.0688167,1.6609495,-0.6673649,0.9540624,0.107985824,-0.06500088,0.58299136,0.652986,0.08783065,0.016400535,-1.0715456,0.30799484,-0.46821555,-0.9117568,-0.30010977,0.42603895,-0.24724303,0.2771386,0.5556575,-0.9558001,0.20050836,-0.42643937
IND181201AAB,-0.3083471,-0.603164,0.21866938,-0.22334637,-0.36383396,-0.90303487,1.0177747,-0.044214174,0.540039,0.5738755,0.028127622,1.3559797,-0.5474914,0.8420913,0.086394586,-0.13677455,0.43698624,0.5282098,0.10520672,-0.03587341,-0.79111385,0.13163981,-0.3977726,-0.74009323,-0.35706,0.27725637,-0.20658797,0.15301391,0.39584276,-0.67199475,0.1658513,-0.24212869
IND184104AAA,-0.3518463,-0.8099324,0.5060787,-0.16257292,-0.3778666,-1.1999166,1.4980721,0.08063553,0.745964,0.9333114,-0.3342121,1.7483495,-0.51768225,1.1305975,0.038875338,-0.1684626,0.5859591,0.8144508,0.034062598,-0.08762123,-1.2741135,0.42784396,-0.72795635,-0.9571337,-0.33731264,0.50595874,-0.3974791,0.20975289,0.4234347,-1.0378618,0.28584877,-0.58729947
IND184121AAA,-0.24509396,-0.76550657,0.6411294,-0.11136005,-0.540168,-1.2296386,1.3436399,0.08548494,0.78392816,0.784701,-0.1945358,2.0962899,-0.6843201,1.2354037,6.307059e-05,-0.16573247,0.5716795,0.98161966,-0.12307827,-0.07962094,-1.2419132,0.49277678,-0.7353186,-0.88984096,-0.5129695,0.5627737,-0.38255417,0.41475925,0.34704825,-0.9802873,0.4128972,-0.59313864
IND201001AAA,-0.14567928,0.15060548,0.99410427,-0.7487026,1.141979,-1.234144,-0.010523624,-0.16314824,1.1303439,-0.10542686,-0.346648,0.88936716,0.11498797,0.96309155,0.94956845,-0.38719922,-0.5330458,0.5531546,-0.9042624,0.500877,0.76847315,-0.7111455,-0.15032887,-0.49724615,-0.5602979,0.34032407,0.7024343,0.09508738,1.4141856,-1.0288984,0.9805563,0.118611
IND201001AAC,0.36932403,-0.008213736,0.84386486,-0.47760952,0.3249373,-0.4639388,0.11292348,0.26494536,0.7235339,-0.6530775,0.1901859,0.51503503,0.036707398,0.11307159,0.8109347,0.19609685,0.37289906,0.5963561,-0.40292314,-0.15490888,-0.5349577,0.35998768,-0.16470973,-1.0594884,-0.17253058,-0.15717424,0.3678225,-0.6715515,0.80649275,-0.9668583,-0.016502747,-0.12600091
IND201005AAA,-0.30504662,-0.114231445,1.1949518,-0.67844707,1.017901,-1.1048416,-0.22476067,-0.22944826,1.1941749,-0.13846408,-0.19090152,0.73162997,0.3073989,1.0937175,0.92368627,-0.67007166,-0.71605134,0.490362,-0.89143187,0.7106484,0.8126979,-0.6273697,-0.18633641,-0.83054304,-0.595671,0.37301812,0.45594466,-0.06430477,1.3785763,-1.1075953,1.1222512,-0.036584694
IND201007AAA,-0.41344225,0.09277008,0.95640486,-0.5862026,1.1053237,-1.2279459,0.17476971,-0.459504,1.0642973,-0.37953618,-0.5526333,0.78584063,0.25738463,0.8976439,1.1071678,-0.3588082,-0.41988054,0.57415503,-0.8984586,0.44008085,0.7098997,-0.55470455,-0.11724925,-0.83605224,-0.46086648,0.47907084,0.6800934,0.01139062,1.1389484,-0.9433055,1.1940717,-0.114988424
IND201007AAB,-0.2784519,0.27709228,1.1030542,-0.73735,0.7646741,-0.7955724,0.27851692,-0.18184875,0.91611844,-0.780549,-0.259048,0.7341575,-0.13429198,0.7909891,0.72308004,-0.34593114,-0.47891936,0.35845146,-1.1214502,0.3357114,0.7857997,-0.79418755,-0.009468627,-0.7879162,-0.24118598,0.42975208,0.19796146,-0.2359153,1.2779137,-1.3459554,0.9877265,0.043551724
IND201204AAA,0.65824854,0.263763,0.5888415,-0.74119705,0.20571218,-0.5294472,1.0988054,-0.00029415204,0.97876143,-0.86352897,-0.5810505,0.42217883,-0.16843401,0.3995779,0.2857348,-0.21512315,0.296784,-0.10129018,0.14884841,-0.13545606,-0.5488406,-0.1994286,-0.74845403,-0.9296537,0.5607432,0.07875795,-0.47640106,-0.29631376,0.8679297,-1.3700941,0.31010923,-0.69089174
IND201301AAD,-0.16207023,0.2687809,1.051606,-0.47310033,0.38731766,-0.7631868,0.38706127,0.16423333,0.6035692,-0.53364277,0.11132265,0.45917082,0.081959136,-0.08611404,0.8654018,-0.19566329,0.24897258,0.33814237,-0.68141,-0.15548298,-0.49515703,0.36488053,-0.10176262,-1.0068429,-0.29211777,-0.16620755,0.21361884,-0.67836493,1.0246274,-1.1183189,0.34126762,-0.18187465
IND201301AAF,-0.48248237,0.60500884,1.3872242,-0.9061017,-0.2061795,-0.6082238,0.5966385,-0.32648176,0.30593994,-1.1228008,0.56994087,0.6499022,0.29175785,0.80035186,0.28918082,-0.7889294,-0.027363611,0.6349101,-1.3746364,-0.055911645,0.5527994,-0.54919606,0.40036517,-1.1132464,-0.28614753,0.603982,0.15731421,-0.4124987,1.0412121,-1.3080107,0.62156075,0.5378359
IND201301AAL,-0.2890625,0.21363594,0.944073,-0.5685256,-0.23702726,-0.15820985,0.13808654,-0.5647313,0.02852317,-0.62483096,0.4197391,0.39346054,0.16317321,0.6291166,-0.22715962,-1.0022639,-0.048630368,0.400197,-1.1242479,0.18700613,0.85504353,-0.6236808,0.09750251,-0.6815978,-0.40040964,0.3980821,0.036432475,-0.6095041,0.66904896,-1.3398923,0.1632282,0.82847875
IND201301AAM,0.52924335,0.16965328,0.61469626,-0.7563109,0.3760539,-0.69437397,0.23771526,0.2596341,0.48937044,-0.25888383,0.19089133,0.8163277,-0.13271946,0.15401767,0.3314638,0.026311683,0.2761333,0.8085466,0.020393316,-0.010834744,-0.26970273,-0.43996587,-0.13750255,-0.21657677,-0.0053344085,0.27928212,-0.07599691,0.3804488,0.9388878,-0.3662768,0.73941255,-0.67017096
IND201304AAA,-0.44753116,0.55604583,1.469166,-1.0716379,-0.25361767,-0.55242175,0.55479556,-0.29797214,0.18689819,-0.9959836,0.61132544,0.72763497,0.1554223,0.76922804,0.19170974,-1.0034387,0.030072723,0.7786302,-1.434397,-0.056473136,0.67416465,-0.70031744,0.30064735,-0.92626226,-0.27244237,0.49814487,-0.006223483,-0.52314454,1.1936805,-1.5488106,0.6179962,0.60876054
IND201306AAA,-0.1549541,0.13187899,0.60804373,-0.3858218,0.004253938,-0.2290736,0.07076147,-0.1546707,0.1263154,-0.40182343,0.26258358,0.30712757,0.13597438,0.29648104,0.028353652,-0.49754512,-0.10589888,0.3156867,-0.57536846,0.09116588,0.31484663,-0.32480332,0.06788181,-0.37529808,-0.20465456,0.1971199,0.05395389,-0.32427344,0.49843356,-0.73866105,0.21883698,0.3564794
IND201307AAA,-0.27575892,0.24510503,0.8974696,-0.47843888,-0.13443643,-0.2131593,0.14186963,-0.4523612,0.078379065,-0.52246153,0.3561601,0.31278586,0.15374506,0.5829056,-0.15787482,-0.9469628,-0.11473009,0.3543794,-0.9430097,0.122139595,0.746242,-0.5174759,0.04487894,-0.59210694,-0.40219924,0.34240192,0.059456762,-0.5364499,0.5710247,-1.2051867,0.13617533,0.7063233
IND202001AAB,0.40639994,0.31471545,1.3743907,-0.86193407,1.1178873,-0.45865133,0.081326924,-0.1261131,0.74051017,-0.6280338,0.31137243,0.03406979,0.04884118,0.12528627,1.3481452,-0.39058822,0.6261351,0.2308935,-1.0819302,-0.17042308,-0.58966213,0.06032082,-0.83081216,-1.059719,0.23616092,0.355971,0.07230537,-0.96183985,1.2452016,-1.0854201,-0.75187844,-0.15720572
IND202001AAC,0.27400607,0.16326717,0.5227345,-0.29714876,0.5240277,-0.16548723,-0.036726773,-0.005636713,0.25237912,-0.20506904,0.091687866,0.1860116,-0.023791004,0.052593324,0.5213865,-0.36952084,0.25808868,0.023916569,-0.40046388,-0.1849663,-0.015225877,-0.08539846,-0.44013706,-0.27595034,0.00656137,0.11210117,-0.014689478,-0.40827546,0.54980075,-0.5244405,-0.30489406,-0.008930153
IND203001AAA,-0.16574578,0.12658362,0.5396399,-0.33032575,-0.07751829,-0.19874327,0.0027088663,-0.34648553,0.058102626,-0.28236708,0.22206968,0.1695251,0.088591374,0.35268295,-0.14305747,-0.5623931,-0.098993465,0.21182273,-0.6294389,0.094430275,0.46667066,-0.3522318,-0.05353964,-0.36836582,-0.25899345,0.2593212,0.009149981,-0.38887587,0.3862361,-0.7467726,0.04724746,0.46717617
IND203131AAA,-0.21129905,0.16387467,0.8386883,-0.45273185,-0.14572923,-0.2570813,0.13657683,-0.38643733,0.037087474,-0.43852615,0.32702875,0.21259592,0.22109674,0.5257203,-0.12646769,-0.82593954,-0.17277656,0.26158804,-0.8484567,0.19433634,0.66472924,-0.43115824,0.048935167,-0.521364,-0.33316955,0.29167375,0.09485296,-0.5363906,0.5622809,-1.0041987,0.04281643,0.7003339
IND203135AAA,-0.3383661,0.29138368,0.98969394,-0.5309247,-0.21042311,-0.28486624,0.10592171,-0.5532328,0.09995781,-0.50189203,0.34215972,0.21229279,0.20880806,0.5712101,-0.23810987,-0.9696205,-0.15302804,0.38974315,-1.0106374,0.17423047,0.7689062,-0.5565899,0.0438921,-0.6034485,-0.45177418,0.37013036,0.05276287,-0.6047826,0.6186538,-1.2730451,0.16530366,0.82111514
IND203205AAA,-0.2947415,0.34696913,1.6441236,-0.9389506,-0.12259409,-0.5519114,0.26159453,-0.3421843,0.3887484,-1.0745031,0.52747476,0.6317572,0.18950446,0.48681584,0.31562632,-0.7374683,-0.13681906,0.7001113,-1.449016,0.08203926,0.6422674,-0.65845954,0.24983536,-1.1081533,-0.30927524,0.54613316,0.003900936,-0.67588514,1.1151038,-1.3932916,0.5092075,0.457893
IND203390AAA,-0.39499527,0.27110606,1.17399,-0.67094195,-0.30690518,-0.31775716,0.10936315,-0.66444737,0.070818976,-0.6958254,0.46822274,0.32316917,0.30750233,0.69174474,-0.32799342,-1.1506816,-0.16968177,0.46019107,-1.2243769,0.1780807,0.9784766,-0.7140515,0.10532354,-0.7811836,-0.48593712,0.46245578,-0.0068096444,-0.742243,0.7515712,-1.4261302,0.1807487,0.98873264
IND203396AAB,-0.3127822,0.23611464,0.96887,-0.54002273,-0.22281474,-0.27431712,0.10815288,-0.47629657,0.10793539,-0.55057365,0.35303003,0.29378536,0.20119114,0.58522856,-0.1943419,-0.9501596,-0.13841493,0.3456496,-1.0394486,0.14364643,0.7655151,-0.58018696,0.061588638,-0.6754045,-0.40017888,0.38563484,-0.0031252177,-0.67699903,0.6654628,-1.2093586,0.08542674,0.81760323
IND204101AAA,0.59703404,0.24679044,1.2247976,-0.73351717,0.71606743,-0.54410934,-0.03979966,0.21957646,0.6337608,-0.6251679,0.3741629,0.39804998,0.21833782,-0.11613682,1.3043313,-0.3701448,0.4363156,0.32489485,-0.9839729,-0.39786175,-0.31057423,-0.062717885,-0.74793243,-0.71866107,0.1725434,0.3066405,-0.02874157,-0.56166106,1.150527,-0.844696,-0.50641584,-0.024973689
IND204215AAA,0.37442794,0.18681756,0.740357,-0.45909724,0.74727,-0.3184636,-0.18002993,-0.06738787,0.303776,-0.22904839,0.123835914,0.15179582,-0.02219578,0.03392314,0.7599613,-0.49150804,0.3016098,0.06969457,-0.65708184,-0.28285128,-0.03662132,-0.055779595,-0.5868562,-0.45137262,-0.0659156,0.20621453,-0.0572365,-0.5928445,0.80442584,-0.7395992,-0.5921642,0.11167658
IND205001AAB,0.4774616,0.36763945,1.3126564,-0.88025916,1.0629289,-0.3203265,-0.14084435,-0.06439432,0.27064618,-0.5711543,0.38434875,0.32048807,-0.00992629,0.09654121,1.3460015,-0.53627515,0.568268,0.3307222,-0.9668899,-0.583345,-0.51402664,-0.013978353,-0.99104995,-1.131831,-0.059618246,0.36720046,0.20492227,-0.96359885,1.6556082,-1.0337214,-0.54753333,-0.03174201
IND205135AAA,0.439792,0.25453174,1.0842047,-0.7239553,0.7632401,-0.41557643,0.0048481305,-0.03830929,0.6099764,-0.50252426,0.24436103,0.44286186,0.022277448,0.00113472,1.1002836,-0.49500906,0.40691546,0.28314182,-0.79349834,-0.20453842,-0.12666593,0.184246,-0.48103112,-0.9005785,-0.27430913,0.13796543,0.1399059,-0.8752668,1.4064064,-1.1428007,0.011150408,-0.12151247
IND206001AAA,0.24657843,-0.03219826,1.0462271,-0.49318433,-0.58889806,-0.706049,0.06927353,0.4914073,0.4258914,-0.1637032,0.38538858,0.6341547,0.4890932,0.6811354,0.8884782,0.03783955,0.5928826,1.1242675,-0.4784459,0.2722669,-0.5015014,-0.59406173,0.23071814,-0.62817127,0.15850635,0.5445093,-0.19762795,-0.28435594,0.84019953,-0.25696522,0.5820069,-0.32925507
IND206122AAA,0.22329386,-0.10447094,1.155089,-0.47995493,-0.71686256,-0.63800186,0.11437119,0.57184905,0.43505216,-0.029916193,0.5625439,0.4855339,0.6418241,0.79003495,0.8358794,0.004590991,0.42213392,0.9633276,-0.5346736,0.348664,-0.39746433,-0.5831551,0.15703061,-0.77145505,0.09091674,0.57163376,-0.027149644,-0.57894325,0.82996976,-0.23455067,0.62794346,-0.33076176
IND207001AAA,0.415927,0.26325846,0.91332453,-0.5681609,1.0099076,-0.26618928,-0.0138641065,-0.13366081,0.40490305,-0.23981957,0.14221016,0.21740374,-0.027282396,0.011880893,0.8966055,-0.5512523,0.38971868,0.023968948,-0.8289806,-0.4325547,0.03175815,-0.11090173,-0.7290417,-0.6006539,-0.04618467,0.21302146,0.013819999,-0.69874054,0.9340122,-0.82248324,-0.6038506,0.07849151
IND207123AAA,0.45963624,0.2458403,1.219486,-0.72929484,0.9539579,-0.35940018,0.1942547,-0.053037792,0.6956503,-0.40973446,0.05809223,0.124766596,0.02447661,0.19618595,1.218067,-0.47390133,0.43585566,0.1831813,-0.9412971,-0.33323938,-0.39001927,0.037052516,-0.78454596,-0.9579893,0.16955072,0.19280495,-0.13092189,-0.88330734,1.178532,-1.0704997,-0.5697313,-0.107841015
IND207247AAB,0.43043485,0.25209582,0.90368956,-0.5546538,0.78804207,-0.3355479,-0.16681947,0.02001493,0.13480796,-0.38457656,0.2962582,0.31302124,-0.11378673,0.009597465,0.87427694,-0.5275259,0.41231975,0.20159858,-0.6117207,-0.36676744,-0.28257835,0.0027519527,-0.6094724,-0.80748916,-0.1427391,0.18032202,0.06462455,-0.6989088,1.0630698,-0.7871269,-0.37602454,0.061993517
IND207302AAA,0.39194632,0.20311785,1.0978537,-0.62684083,0.98561484,-0.30473506,-0.20231548,-0.025114497,0.4683897,-0.37695956,0.22574495,0.20055394,0.0469754,-0.026283981,1.1033261,-0.50441235,0.49504685,0.1183645,-0.9078352,-0.3930128,-0.11871253,-0.08292868,-0.8063327,-0.644341,-0.027825356,0.30915806,-0.044953015,-0.8696955,1.1260401,-0.88153267,-0.62951213,0.106819965
IND208006AAA,0.3996449,-0.5910409,1.3542856,-0.29946983,-0.35141435,-0.5507566,-0.14023861,0.5192541,0.71141475,-0.04978845,0.7935361,0.19903955,0.56267965,0.6538431,0.6344406,-0.41937453,-0.013686844,0.95257497,-0.06975237,0.62902766,-0.49632314,-0.13674419,0.029222358,-1.2746669,0.4873117,0.17450902,0.0472703,-0.47462606,0.41542467,-0.29209384,0.19530246,-0.19250661
IND208012AAA,0.42009485,-0.47261375,1.5169984,-0.16285783,-0.13600776,-0.50161755,-0.20462309,0.5519445,0.6941533,-0.17938644,0.68155634,0.45529106,0.5032725,0.650236,0.77159226,-0.2862265,0.2705808,1.3772177,-0.22363655,0.64825565,-0.69755685,-0.029381394,0.07039274,-1.4594272,0.42797655,-0.07117998,-0.011243685,-0.4589324,0.551401,-0.46119273,0.26905435,-0.31321338
IND208017AAA,0.286368,-0.34892276,0.7840677,-0.22619854,-0.011837566,-0.4131398,-0.02898184,0.24028976,0.34462252,0.016378231,0.3973521,0.20148739,0.3408287,0.2926824,0.4364635,-0.1554191,0.022049315,0.58755684,-0.10237448,0.29096645,-0.30427635,-0.057688754,-0.0857479,-0.6678439,0.16751024,0.0934679,0.04022423,-0.304323,0.27777827,-0.24308346,0.061942752,-0.078377984
IND208019AAA,0.52982205,-0.47686934,1.3127341,-0.3425448,-0.5696045,-0.81139785,-0.20719926,0.74925846,0.6889501,-0.3574978,0.49778324,0.34053665,0.33004397,0.7200978,0.57662606,-0.30214772,-0.2290909,0.876695,-0.3167823,0.48121136,-0.578575,-0.018888364,-0.05222427,-1.3814293,0.5021231,0.24339801,0.12987645,-0.39630583,0.30650344,-0.39035767,0.45164004,-0.3549844
IND209101AAA,0.75578034,-1.0216894,1.6316257,-0.11464444,-0.11946323,-0.8405595,0.051349215,0.4065709,0.72188264,0.26871476,1.0931147,0.2556809,0.49171066,0.63743716,0.9496146,-0.3671456,0.0042708153,1.326769,-0.21503736,0.46462741,-0.42230877,-0.23733625,-0.1339306,-1.5739613,0.44760776,-0.13250537,0.24600603,-0.35597336,0.1598024,-0.3794978,0.23678228,-0.2676077
IND209111AAA,0.825407,-1.0572164,1.9355116,-0.09950658,-0.00518573,-1.0192435,0.03245668,0.34222156,0.760514,0.3431103,1.2172787,0.34975863,0.59961724,0.6149376,1.0039505,-0.4132903,0.11210893,1.4804866,-0.1726082,0.5063129,-0.5229344,-0.09483896,-0.23883612,-1.6325033,0.41138396,-0.21478328,0.17791972,-0.39302006,0.0516254,-0.5984894,0.16287355,-0.35591304
IND209206AAB,0.580618,-0.46905312,1.4981178,-0.20678374,-0.15919442,-0.60460794,-0.16242348,0.5830231,0.47342968,-0.17769067,1.0165035,0.24276459,0.66837704,0.6564642,0.7041428,-0.06591491,0.09809649,1.2959762,-0.28153223,0.43231195,-0.62087095,-0.10229636,-0.2944827,-1.6931894,0.3582102,0.32986447,0.22714946,-0.5250244,0.32840616,-0.3695652,-0.018559799,-0.060434937
IND209304AAA,0.33841977,0.019118454,1.2838737,-0.106538884,-0.51496714,-0.7440701,-0.08669138,0.54955494,0.717777,0.08874225,0.76868606,0.17573848,0.32757497,0.7133855,0.74294746,0.051631484,-0.06621613,1.0710385,-0.14141718,0.5645908,-0.2753006,-0.01883563,-0.04227898,-1.4434769,0.51201206,0.03860664,0.054646946,-0.6866797,0.8549356,-0.5265192,0.48314553,-0.26064107
IND209625AAA,0.7532472,0.10251828,1.1699021,-0.81003076,1.1012936,-0.2570609,-0.24926743,-0.0848216,0.09846643,-0.6851818,0.48780245,0.3151303,-0.1333058,0.037545867,0.99851936,-0.7903765,0.72267556,0.069545895,-0.9380569,-0.62767047,-0.198049,-0.35979086,-1.6759791,-0.7952264,-0.006338332,0.525446,0.35199597,-0.75821567,1.4216923,-0.9272721,-1.0878117,0.3071665
IND209721AAB,0.7319874,0.13383862,0.9613131,-0.8050782,1.0002766,-0.26792595,-0.21454544,-0.1260656,0.15631618,-0.53678507,0.48889443,0.33826816,-0.171965,-0.023615377,0.9318934,-0.633771,0.5476058,0.066258915,-0.85221195,-0.5272465,-0.12093058,-0.29444766,-1.4066375,-0.68774164,-0.076229684,0.41430598,0.2590138,-0.7552327,1.2867728,-0.86262476,-0.99720734,0.34504166
IND209801AAA,0.38422677,-0.45756868,1.6390318,-0.34961185,-0.2552396,-0.6606572,-0.013403892,0.6447344,0.8832008,0.116429314,0.7309899,0.31010368,0.37496704,0.67182755,0.93524003,-0.19993603,-0.016815724,1.1098248,-0.37980318,0.28341463,-0.72496575,-0.18822089,0.039365645,-1.4407506,0.4455112,0.2468142,0.24979559,-0.65352356,0.58936375,-0.27088478,0.11853755,-0.02452273
IND210001AAA,0.5146292,-0.38769826,1.662009,-0.4697875,-0.047406003,-0.6887427,-0.21229224,0.62968314,0.5359162,0.096913636,0.7907699,0.4681183,0.7087167,0.8645893,0.99487853,-0.51222485,0.09287458,1.1116927,-0.22467475,0.818253,-0.87247,-0.33145604,-0.1706814,-1.598305,0.43676206,0.24485183,-0.051668257,-0.6285,0.57850343,-0.4125852,0.33478782,-0.124737136
IND210301AAA,0.49106008,-0.60402465,1.5820875,-0.35892877,-0.021258317,-0.53236634,-0.07143976,0.59831625,0.5521576,-0.124053955,0.94657946,0.2711235,0.6515101,0.53344554,0.76106924,-0.1545188,0.1394258,1.117341,-0.22661215,0.51283413,-0.5042446,-0.12127228,-0.2785934,-1.7175809,0.39212942,0.29244378,0.29401132,-0.6234521,0.42852598,-0.41889653,0.09917248,-0.17736085
IND210427AAA,0.42344415,-0.42478555,1.705883,-0.4833061,-0.020787548,-0.8172758,-0.26798803,0.705594,0.6016875,0.05013008,0.72146165,0.35305014,0.5594626,0.94564474,0.9748966,-0.45021978,0.02413841,1.1453128,-0.18942797,0.6680058,-0.8343487,-0.29118937,-0.15070276,-1.5539024,0.38995206,0.31616753,0.059718363,-0.60354435,0.540451,-0.3913853,0.23708738,-0.202484
IND210431AAA,0.819771,-0.85700184,1.985979,-0.16599827,0.28767997,-1.0805697,0.02264515,0.38530353,0.78619254,-0.03865199,1.0246778,0.508452,0.41413411,0.6297261,1.297481,-0.33746687,0.17248344,1.331059,-0.3253789,0.45616123,-0.5937475,0.12011569,-0.12769206,-1.6729987,0.19264163,-0.30782253,-0.19792247,-0.6028362,0.24478208,-0.9211982,0.05322741,-0.48149523
IND210501AAB,0.14382097,-0.29040727,0.71596104,-0.23716867,-0.037764776,-0.34921604,-0.1133672,0.23430167,0.326938,-0.054927275,0.37346008,0.21563461,0.17102396,0.39773887,0.4285071,-0.22304198,-0.0055758846,0.49698782,-0.16674064,0.29737535,-0.14700237,-0.10163225,-0.038317636,-0.5892086,0.09356315,0.16117308,0.012838713,-0.4067459,0.3354234,-0.18390131,0.12813623,-0.05662787
IND211002AAB,0.6539219,-0.83695686,1.5106219,-0.47264498,-0.46650276,-0.9224988,-0.48599812,0.47806752,1.0986975,-0.44451788,0.8733995,0.42661506,-0.4331444,1.2480993,0.63817674,-0.4320577,-0.1163278,0.9226201,0.031135287,-0.09974654,0.23499426,0.022614274,-0.11720714,-1.829641,0.7010736,0.5961811,-0.034724005,-1.2293993,0.45354137,-0.28235754,-0.2208094,-0.06026996
IND211008AAA,0.33669895,-0.41183472,0.5988527,-0.20268098,-0.09672646,-0.35434657,-0.17703564,0.2576132,0.39664465,-0.17432955,0.36446792,0.24563521,-0.08793581,0.41702732,0.2590066,-0.23231037,-0.09653426,0.38465306,0.03003181,0.021701984,0.018042011,0.011599242,-0.12116176,-0.6744314,0.24330512,0.18840227,0.0054239593,-0.58553094,0.20439407,-0.23141454,-0.09114587,0.0679848
IND211011AAA,0.73028517,-1.1683091,1.5277793,-0.40031242,-0.3868184,-1.0924853,-0.27174222,0.5679738,1.0122125,-0.5210139,0.8367357,0.5366493,-0.5471897,1.2699049,0.42529216,-0.5686297,-0.28697824,0.7691451,0.14294676,-0.09494978,0.20232147,0.13979791,-0.32650566,-1.6132895,0.68125826,0.44835377,0.052979812,-1.5616308,0.2840282,-0.43983388,-0.6050523,0.48960677
IND211013AAA,0.6605516,-0.8931655,1.1735091,-0.27882254,-0.29237866,-0.7774695,-0.2907432,0.5595338,0.7988843,-0.27284768,0.8646799,0.43271905,-0.20409526,0.9660794,0.44840094,-0.44725788,-0.21837935,0.72789764,0.10273682,-0.030316839,0.08914422,-0.062336486,-0.23822151,-1.2783,0.54877144,0.34001872,-0.03313107,-1.1342225,0.22378106,-0.21467036,-0.24614613,0.22630219
IND212402AAA,0.72486347,-1.0475246,1.4747615,-0.44646594,-0.2080629,-1.0594281,-0.27834207,0.6181732,0.9286505,-0.58962846,0.8759072,0.65089905,-0.6071251,1.1031971,0.55486053,-0.5052331,-0.19087942,0.90804815,0.108125456,-0.059888612,0.13564265,0.14262655,-0.30046162,-1.6845403,0.6001821,0.34088203,0.03228096,-1.5369302,0.32518616,-0.42207733,-0.438631,0.30398396
IND212501AAA,0.7337436,-1.1337694,1.4753364,-0.39772952,-0.31314734,-1.15742,-0.3090427,0.6383584,1.0098336,-0.45314002,0.8305987,0.5420336,-0.5171639,1.1635541,0.5151746,-0.45387682,-0.20004822,0.78436685,0.14756049,-0.033639174,0.24369691,0.15406556,-0.35424566,-1.6822479,0.5735787,0.37598923,0.020981893,-1.5864362,0.25604057,-0.44889116,-0.5139554,0.41355816
IND212601AAA,0.4359825,-0.4881439,1.3174707,-0.4930351,-0.25611374,-0.63182354,-0.00090646505,0.53587073,0.4818739,0.13969354,0.91706777,0.4533762,0.81683284,0.86699414,0.84302336,-0.4788303,0.03745296,0.9677562,-0.16291179,0.8525018,-0.8072328,-0.3474353,-0.16892737,-1.5355254,0.43706045,0.30652222,0.038918823,-0.62228745,0.5541916,-0.33240578,0.21526659,-0.045513548
IND221010AAB,0.51296604,-0.04691547,0.2033479,-0.30340347,0.5525324,-0.98371726,1.2131017,-0.41589332,0.6311828,-0.35070422,-0.8579617,-0.39475927,0.45186302,1.8186113,-0.28698125,-2.4321795,-0.018805103,0.8712595,0.114830084,0.38402373,0.658382,-0.802864,-1.5357453,0.15388021,-0.012751261,-0.80803907,0.63535196,-1.3982826,0.4937716,-0.23576383,-0.38581648,0.7874747
IND221303AAA,0.17001042,-0.13304485,0.091506526,0.004596838,0.014335353,-0.25834072,0.101025246,-0.018522399,0.17871885,0.15289193,-0.008216192,0.22349194,0.09480986,0.2460511,-0.038192164,-0.32641536,0.12526308,0.10594265,-0.007767603,0.024616372,0.07949034,-0.075490415,-0.28333387,-0.12778622,0.07440725,-0.014368626,0.08922058,-0.254884,0.03819662,-0.23791645,-0.11490569,0.13153839
IND221313AAA,0.4412108,-0.61030215,1.3778161,-0.35494688,-0.35370377,-0.51613176,-0.25014344,0.33942914,0.58660436,-0.02493405,0.7117311,0.12034805,0.4920423,0.7455011,0.6989699,-0.3740385,0.068757124,0.97312766,-0.0954165,0.55869895,-0.47514567,-0.28216666,-0.024995804,-1.340501,0.6155354,0.19687471,0.1404397,-0.63846487,0.43967575,-0.22813526,0.08532545,-0.14163777
IND221401AAA,0.13135673,-0.11433531,0.16918068,-0.07893975,0.07621903,-0.26700103,0.07403335,-0.033322204,0.17288251,0.16797918,0.0071246377,0.20953844,0.05158992,0.136522,-0.053684488,-0.24605061,0.10412742,0.09117793,0.0056000026,0.067492016,0.10039058,-0.107458614,-0.31921968,-0.15225984,0.026662057,-0.0111131715,0.07536811,-0.20030266,0.110861205,-0.24046102,-0.09070559,0.12109828
IND221706AAA,-0.06375437,-0.55127853,0.5596261,-0.91813886,0.03876129,-0.7527204,-0.088154435,1.1771508,0.6853077,0.2350804,1.4664607,0.45938915,0.3687504,1.5375181,0.30661952,-0.38766432,0.2770695,0.9405018,0.08740185,0.85306156,-0.7864394,-0.5587597,-0.6493137,-1.5790365,-0.36329073,0.2322131,0.46235144,-0.5284525,1.179329,-1.0110403,0.05918662,0.2333324
IND222001AAA,0.35279468,-0.19124745,0.039219275,-0.27526024,0.38265422,-0.62481296,0.87756705,-0.26033992,0.38440472,-0.17104398,-0.5526645,-0.31982228,0.35161835,1.326098,-0.22760516,-1.7834033,-0.10556692,0.6246997,0.16810913,0.34395438,0.4253447,-0.4884827,-1.1245267,0.12831484,-0.041707292,-0.6172437,0.43087757,-1.1006154,0.33171257,-0.26551,-0.41768646,0.52943
IND222125AAB,0.17474277,-0.06510827,0.1141968,0.07724436,0.06746902,-0.2216136,0.09371594,-0.24070138,0.27811694,0.16513737,0.07664272,0.15916206,0.18934846,0.20097269,-0.2074508,-0.4148345,0.06753304,0.06559024,0.081169374,0.15200378,0.048544414,-0.17084503,-0.41966426,-0.1998623,0.045247372,0.009796335,0.08694557,-0.46056008,-0.08012676,-0.3929714,-0.314763,0.278911
IND222136AAA,0.30177358,-0.16335666,0.03102976,-0.25978184,0.34879538,-0.6500246,0.8421326,-0.2396743,0.31783372,-0.15506767,-0.5682899,-0.24655932,0.39957502,1.231856,-0.23265117,-1.6234851,-0.03447851,0.5397769,0.1284587,0.33642462,0.43551105,-0.45919055,-1.1012328,0.120495826,-0.056699608,-0.57435787,0.371358,-0.99327195,0.32078505,-0.2312446,-0.29421547,0.58578986
IND223101AAB,0.15329872,-0.06083642,0.03268589,-0.029779803,0.091654085,-0.27145073,0.16004269,-0.083146214,0.2402304,0.19251405,0.1147265,0.17773983,0.011176449,0.23375495,-0.23562814,-0.4633645,-0.008259624,0.05946831,0.010453464,0.11502765,0.17556947,-0.052054025,-0.4377288,-0.16862372,-0.12678845,0.029476998,0.092291355,-0.44945616,-0.13033232,-0.42280173,-0.24961998,0.26285398
IND224001AAA,0.062283486,-0.11883371,0.13945933,-0.055503894,0.06466057,-0.20724605,0.09149392,-0.08050257,0.19959627,0.14759897,-0.019808708,0.28120825,0.073527746,0.21913561,-0.038278934,-0.23005056,0.12950939,0.124082245,-0.03324097,0.056050546,0.06897809,-0.11008499,-0.2647108,-0.13526145,0.06437754,0.028284565,0.056081966,-0.16188867,0.029091997,-0.274875,-0.14122891,0.1647266
IND224122AAA,0.1588915,-0.10341043,0.086768575,0.0008874381,0.102993384,-0.31248406,0.05817269,-0.05127593,0.20005853,0.17537041,-0.06956552,0.29387188,-0.0020800794,0.19632404,-0.04684198,-0.37503672,0.011295099,0.122274846,0.03981363,0.065355055,0.12071125,-0.071446136,-0.3301287,-0.103906155,0.027571393,-0.079357505,0.047326606,-0.18045528,0.06309196,-0.2758887,-0.123072036,0.16074084
IND224141AAB,0.13893355,-0.107889354,0.10398658,-0.10389607,0.046786286,-0.25825372,0.063112564,-0.036338206,0.21926302,0.12180593,-0.025746219,0.28695387,0.06632891,0.19316486,-0.0485894,-0.35421824,0.07004377,0.09058565,0.06558977,0.020096187,0.11841318,-0.07223876,-0.27650735,-0.09747212,0.0054899193,-0.008455739,0.014101742,-0.2221053,-0.06353029,-0.28702593,-0.16159488,0.23104365
IND226004AAA,0.12830472,-0.07313112,0.14030929,-0.06992102,-0.015530087,-0.20769006,0.09069373,-0.03655019,0.17850195,0.081480786,-0.027508333,0.1540982,0.036276728,0.1652538,-0.07381367,-0.2586566,0.08650779,0.10858816,-0.026596865,-0.058205053,0.05064857,-0.1015771,-0.2257574,-0.18780018,0.013723047,0.03411521,0.03097614,-0.07570274,0.049852405,-0.26848614,-0.061378174,0.14906254
IND226004AAC,-0.060762785,-0.11642479,0.9054675,-0.39619347,0.34659368,-0.5570105,0.5008049,0.3284479,0.72996634,-0.34334606,0.046760827,0.32963076,0.26036614,0.040947177,0.572832,-0.03024037,0.27802095,0.4001802,-0.42448655,-0.13040943,-0.67824566,0.47318378,-0.16484839,-1.1423852,0.00447227,-0.19344017,0.15721078,-0.28218678,0.79070747,-0.87803626,0.14118274,-0.33529252
IND226016AAA,0.11506646,-0.059903983,0.12837157,-0.0840344,0.02657833,-0.22047627,0.081817105,-0.035371613,0.14133753,0.059599936,0.034833398,0.21204104,0.08755524,0.16299863,-0.03818576,-0.20251137,0.05515085,0.12376882,-0.032691065,0.016829573,0.06955735,-0.04810879,-0.23033908,-0.17047738,0.07647411,-0.009258043,0.06486265,-0.07230089,0.07781524,-0.23277129,-0.07236346,0.06562264
IND226024AAA,0.10907725,-0.09218904,0.11419307,-0.03199069,0.0009036643,-0.14432551,0.055417277,-0.016427884,0.14732014,0.03168662,-0.055118944,0.1679901,0.016148238,0.10017054,-0.035389498,-0.15409599,0.10643567,0.12174719,-0.07294605,-0.0023341835,0.06669581,-0.08932853,-0.12259655,-0.15867928,0.05025357,-0.005632674,0.056874953,-0.038937062,0.06098586,-0.19552848,-0.03274938,0.075128935
IND231001AAA,0.1561855,-0.09430582,0.21317215,-0.068583,0.05774532,-0.2243174,0.02694194,-0.06704901,0.21556044,0.14969215,-0.0018467691,0.25542656,0.09967176,0.19715221,-0.037695467,-0.26528805,0.15462188,0.13210736,-0.016839433,0.07153321,0.1339392,-0.08835113,-0.30777872,-0.13867724,0.04038192,-0.008501511,-0.0033432276,-0.19321008,0.0768099,-0.24489573,-0.11290839,0.1284114
IND231205AAA,0.3502205,-0.21035004,-0.37121665,0.2850526,0.018728005,-0.24050683,-0.11900703,0.09742494,0.3874048,0.46914363,0.042517282,0.44561845,0.24517357,0.44620216,-0.17458136,-0.9569969,0.08770808,-0.088157386,-0.07328222,0.33613333,0.47011533,-0.1438367,-0.9943876,-0.33984283,-0.15389739,-0.078822024,0.07971003,-0.7791822,-0.1383087,-0.69835556,-0.6675528,0.71181864
IND231208AAA,0.29421857,-0.1120226,-0.023099674,0.102362804,0.04822999,-0.17690025,-0.013260769,0.01982017,0.24006808,0.25663504,-0.0010449205,0.24098492,0.14279985,0.27204788,-0.0833129,-0.5056985,0.051528167,-0.017468128,0.009765071,0.17577267,0.23610236,-0.15593095,-0.5734966,-0.22717941,-0.07524328,-0.07533788,0.07136873,-0.46803916,0.0014207048,-0.43125325,-0.40734652,0.40805447
IND231216AAA,0.41924077,-0.11640767,-0.3310592,0.48895139,0.045764763,-0.21124652,-0.1651138,0.1059591,0.4778656,0.56274,0.112002075,0.42778417,0.26256508,0.58811986,-0.054000888,-1.1490431,0.08491244,-0.090304516,-0.20429878,0.3360841,0.5542636,-0.06362003,-1.1240573,-0.4173265,-0.16352448,-0.03700095,0.17260098,-0.93867517,-0.13644594,-0.78535444,-0.76785266,0.9083313
IND231217AAA,0.37378442,-0.11444673,-0.24955551,0.23782437,0.0021000237,-0.22487299,-0.10089773,0.030363815,0.3993118,0.40201342,0.03915654,0.4025302,0.21161082,0.40487415,-0.14156233,-0.8191769,0.107773714,-0.09522365,-0.05911038,0.3162244,0.43429962,-0.08726073,-0.8268121,-0.23245986,-0.12837872,-0.07995556,0.06206229,-0.75584316,-0.07231944,-0.6163174,-0.5987308,0.65609366
IND231225AAB,0.3805517,-0.092652775,-0.3340274,0.29350448,0.007966199,-0.21619022,-0.15072913,0.12876622,0.40750074,0.5068337,0.09185036,0.41712436,0.23474874,0.54980826,-0.08864524,-0.9838099,0.14313562,-0.045085385,-0.092040226,0.33654445,0.4714046,-0.12721689,-1.0499955,-0.25845098,-0.25085568,-0.06502321,0.16034576,-0.87682164,-0.08658936,-0.7356739,-0.7216274,0.86559737
IND232101AAB,0.43204713,-0.17914255,0.073636465,-0.3028424,0.46792844,-0.76469886,1.0203295,-0.22792557,0.39015886,-0.23476876,-0.67371327,-0.2505356,0.35778403,1.4491541,-0.21847355,-2.0345623,-0.07433483,0.6584234,0.1001103,0.3468962,0.50171286,-0.55175906,-1.2373246,0.063318685,-0.049641814,-0.6040927,0.45874947,-1.1963664,0.43285927,-0.22200653,-0.37620598,0.67680687
IND232104AAB,0.44543472,-0.18350448,0.06897167,-0.29669976,0.4291893,-0.71979225,0.98482794,-0.2407223,0.43373635,-0.20316987,-0.6527439,-0.30589157,0.38621902,1.5188378,-0.22384109,-2.105182,-0.08934557,0.61217713,0.12661146,0.3628698,0.49655446,-0.56231445,-1.3000327,0.0656527,-0.031453986,-0.62942415,0.47677168,-1.2146183,0.39030704,-0.28871405,-0.3696438,0.61731434
IND232327AAA,0.3024646,-0.10657883,-0.052010536,-0.22143091,0.29045102,-0.53860784,0.7482329,-0.1333344,0.2978472,-0.08374294,-0.47142375,-0.13038777,0.2636035,1.0951717,-0.23014508,-1.4397724,-0.0551884,0.41361362,0.13533537,0.20067191,0.35626107,-0.34452668,-0.86541176,0.025447153,-0.10599069,-0.42004207,0.37551793,-0.8546417,0.33111602,-0.13676913,-0.29412043,0.49215454
IND233001AAA,0.40481025,-0.12277329,0.10825262,-0.28091294,0.458187,-0.84808815,0.9525416,-0.30023897,0.44917077,-0.15135147,-0.667223,-0.32268283,0.3305165,1.4705241,-0.27517885,-2.0222044,-0.022609886,0.70840186,0.11606462,0.4337916,0.6027602,-0.63790476,-1.358151,0.08385501,-0.045201574,-0.6774269,0.4985771,-1.2695087,0.39886963,-0.22544074,-0.40866384,0.6029327
IND241124AAB,0.8904669,0.03940704,0.92753667,-0.8627135,1.1924087,-0.21261194,-0.090076715,-0.2677874,0.15084468,-0.67314124,0.53312314,0.32881555,-0.15947664,0.06291428,0.85672873,-0.76644945,0.68789697,0.023950277,-0.8565518,-0.67241824,-0.15962623,-0.34663862,-1.7613384,-0.73060364,-0.10534983,0.47906625,0.39604568,-0.92802453,1.3590964,-0.9935394,-1.1661849,0.4392423
IND242001AAA,0.87462556,-0.007975059,0.93225944,-0.778177,0.99758923,-0.1121938,-0.27199808,-0.25834835,0.09473306,-0.5176287,0.46409717,0.3370071,-0.2450702,0.08417189,0.8056541,-0.79503417,0.6341156,-0.03232538,-0.85890925,-0.53257495,-0.1340669,-0.40553078,-1.682809,-0.7122459,-0.05070212,0.4815343,0.38282782,-0.8158088,1.3611588,-0.85067856,-1.0748897,0.36605227
IND242221AAA,0.27917403,0.19335257,0.6331151,-0.4381076,0.5743208,-0.23678839,-0.06124899,-0.0060953707,0.10936402,-0.3532254,0.21567076,0.38193437,-0.06948641,0.041540537,0.58282506,-0.36472526,0.31647652,0.059220307,-0.48667553,-0.31303626,-0.10288506,-0.026068192,-0.5780822,-0.5191785,-0.16523954,0.13474877,0.078842774,-0.50005597,0.8470135,-0.66037947,-0.26993123,0.029561164
IND242307AAB,0.3164986,0.17438938,0.50681406,-0.28072187,0.46240097,-0.22975372,-0.037516497,0.004726937,0.18346442,-0.20357814,0.16409552,0.22529168,-0.031850293,0.0426078,0.5027822,-0.2769679,0.31057096,0.0954405,-0.3293218,-0.2806269,-0.14563407,-0.023788057,-0.44705433,-0.45272285,-0.11188445,0.06621097,0.039996896,-0.4241583,0.613827,-0.54233265,-0.1672438,0.037396647
